tree
version=v3
num_class=1
num_tree_per_iteration=1
label_index=0
max_feature_idx=4
objective=binary sigmoid:1
feature_names=Column_0 Column_1 Column_2 Column_3 Column_4
feature_infos=[0:3] [17:111] [0:1] [0:2] [1:28]
tree_sizes=1704 1726 1723 1724 1736 1744 1740 1728 1740 1740 1745 1736 1743 1748 1753 1754 1754 1751 1748 1745 1753 1747 1750 1743 1761 1753 1750 1755 1759 1747 1756 1755 1750 1747 1752 1765 1751 1759 1753 1762 1761 1755 1754 1760 1766 1774 1757 1763 1767 1774

Tree=0
num_leaves=15
num_cat=0
split_feature=4 4 4 2 2 0 0 0 1 4 0 4 4 2
split_gain=113642 9229.35 5526.41 4233.66 3071.47 2351.7 1584.19 1506.33 980.918 717.261 674.357 583.61 579.368 686.665
threshold=12.500000000000002 14.500000000000002 10.500000000000002 1.0000000180025095e-35 1.0000000180025095e-35 1.0000000180025095e-35 1.0000000180025095e-35 1.0000000180025095e-35 29.500000000000004 8.5000000000000018 1.0000000180025095e-35 11.500000000000002 15.500000000000002 1.0000000180025095e-35
decision_type=2 2 2 2 2 2 2 2 2 2 2 2 2 2
left_child=2 3 9 7 6 -3 -4 -2 11 -1 -5 -8 13 -7
right_child=1 5 4 10 -6 12 8 -9 -10 -11 -12 -13 -14 -15
leaf_value=-3.4567665731493187 -3.2714523668344802 -3.1248703737168642 -3.4376131786748978 -3.4077004947582323 -3.338273723991338 -1.9827432631910886 -2.8467060124877483 -2.2543068636761019 -3.0554117298639292 -3.3917842947396628 -2.916295302315028 -2.4392338317625004 -1.9172179782634982 -2.4993587858497803
leaf_weight=6262.8194888010621 3.9673604965209952 4.6182555779814711 13.110886640846728 8.5236260667443258 127.63742597401142 16.985262125730515 19.061927385628223 44.105890519917011 27.895503491163254 455.53357201069593 38.588779829442501 16.303372040390968 95.154661908745766 10.352331295609476
leaf_count=202059 128 149 423 275 4118 548 615 1423 900 14697 1245 526 3070 334
internal_value=-3.40884 -2.29606 -3.44458 -2.66836 -3.1882 -2.01726 -2.9374 -2.33825 -2.83372 -3.45236 -3.0052 -2.65886 -1.9755 -2.17838
internal_weight=0 222.296 6922.36 95.1857 204.009 127.111 76.3717 48.0733 63.2608 6718.35 47.1124 35.3653 122.492 27.3376
internal_count=230510 7172 223338 3071 6582 4101 2464 1551 2041 216756 1520 1141 3952 882
is_linear=0
shrinkage=1


Tree=1
num_leaves=15
num_cat=0
split_feature=4 4 0 2 0 4 2 1 4 2 1 1 0 1
split_gain=37913.6 1770.18 1372.6 879.53 519.104 449.363 518.722 357.206 255.203 236.684 229.673 154.091 147.35 176.017
threshold=11.500000000000002 9.5000000000000018 1.0000000180025095e-35 1.0000000180025095e-35 1.0000000180025095e-35 13.500000000000002 1.0000000180025095e-35 31.500000000000004 7.5000000000000009 1.0000000180025095e-35 25.500000000000004 35.500000000000007 1.0000000180025095e-35 26.500000000000004
decision_type=2 2 2 2 2 2 2 2 2 2 2 2 2 2
left_child=1 8 -2 4 -3 6 11 -6 -1 12 -8 -4 -10 -14
right_child=2 3 5 -5 7 -7 10 -9 9 -11 -12 -13 13 -15
leaf_value=-0.049125300773270569 0.033389853445205002 -0.044610427419668003 0.37874247898829755 0.010585039106319482 0.29902432045608235 0.37819824402234009 0.30687621561996314 0.10395094067626412 -0.049497944510111469 -0.036462674960978873 0.12444928366446198 0.22522868048573386 0.12340776908195922 0.012875130766697244
leaf_weight=5609.3209404274821 35.210107179358602 21.299788370728493 100.82981846854091 207.8491832613945 63.610271636396646 506.57555339112878 26.31733712553978 37.186106882989407 47.086950425058603 451.88869516178966 50.094931997358799 19.509219795465469 55.133369062095881 103.88004466146231
leaf_count=189291 1053 688 1347 6470 1590 5125 678 1022 1549 14869 1284 315 1813 3416
internal_value=0 -0.0397271 0.338039 0.0731529 0.179665 0.353291 0.289162 0.227057 -0.0456697 -0.0162106 0.187279 0.353855 0.0281933 0.0511992
internal_weight=0 6597.26 738.537 329.945 122.096 703.327 196.751 100.796 6267.31 657.989 76.4123 120.339 206.1 159.013
internal_count=230510 220708 9802 9770 3300 8749 3624 2612 210938 21647 1962 1662 6778 5229
is_linear=0
shrinkage=0.05


Tree=2
num_leaves=15
num_cat=0
split_feature=4 4 0 2 0 1 4 2 2 1 4 0 1 4
split_gain=27142 1608.3 705.93 607.395 334.141 258.891 255.925 218.067 191.735 180.18 134.54 129.221 132.069 126.072
threshold=11.500000000000002 9.5000000000000018 1.0000000180025095e-35 1.0000000180025095e-35 1.0000000180025095e-35 32.500000000000007 7.5000000000000009 1.0000000180025095e-35 1.0000000180025095e-35 29.500000000000004 15.500000000000002 1.0000000180025095e-35 26.500000000000004 14.500000000000002
decision_type=2 2 2 2 2 2 2 2 2 2 2 2 2 2
left_child=1 6 10 4 -3 -4 -1 11 -7 -6 -2 -8 -13 -10
right_child=2 3 5 -5 9 8 7 -9 13 -11 -12 12 -14 -15
leaf_value=-0.048933834325028319 0.0021049955853921338 -0.044237592789619057 0.2699355046176557 0.0099543518117807261 0.22426298856193772 0.24418949647543095 -0.049318633217506846 -0.035877043952218503 0.081479477400119904 0.1017858731997565 0.35429289315708146 0.10415407649858054 0.012080887998428205 0.20726053303340777
leaf_weight=5356.1060943547636 33.367739405483007 20.427472732961178 707.40774805098772 209.91237865388393 73.163112457841635 129.3994881734252 44.949263226240873 436.68999051302671 39.070982780307531 50.933560438454151 2.9515602178871623 61.863140352070332 105.14050840213895 40.647026889026165
leaf_count=189291 982 688 6484 6470 1380 1143 1549 14869 810 1232 71 1813 3416 312
internal_value=0 -0.0392326 0.24692 0.0642653 0.143149 0.255487 -0.0453417 -0.0156796 0.206611 0.173994 0.0307262 0.0259334 0.0461875 0.145613
internal_weight=0 6359.19 952.845 354.437 144.524 916.525 6004.75 648.643 209.117 124.097 36.3193 211.953 167.004 79.718
internal_count=230510 220708 9802 9770 3300 8749 210938 21647 2265 2612 1053 6778 5229 1122
is_linear=0
shrinkage=0.05


Tree=3
num_leaves=15
num_cat=0
split_feature=4 4 4 0 2 2 0 1 1 1 4 1 2 4
split_gain=21552.6 956.69 653.263 607.331 378.346 341.433 204.676 212.517 133.133 92.4918 80.501 77.587 71.3134 57.9074
threshold=10.500000000000002 13.500000000000002 8.5000000000000018 1.0000000180025095e-35 1.0000000180025095e-35 1.0000000180025095e-35 1.0000000180025095e-35 28.500000000000004 27.500000000000004 24.500000000000004 6.5000000000000009 34.500000000000007 1.0000000180025095e-35 16.500000000000004
decision_type=2 2 2 2 2 2 2 2 2 2 2 2 2 2
left_child=2 3 10 -2 9 6 -4 -8 -6 -5 -1 -3 -12 -13
right_child=1 11 5 4 8 -7 7 -9 -10 -11 12 13 -14 -15
leaf_value=-0.049741067282665863 -0.031127351040764722 0.22331492088298038 -0.048215135772093853 0.21997473598914874 0.13695249550883198 -0.017985462648740812 0.15624185553682168 0.03397327615873745 0.049580532307206909 0.16048963308846848 -0.011615141376216682 0.1501860494550889 -0.042940733981523101 0.21820909764464008
leaf_weight=4649.7855604998767 53.327517574653029 670.79034648835659 30.165865801274776 108.79915323853493 81.275974810123444 304.67203711345792 71.16144810244441 70.994026090949774 94.053749725222588 163.62249271199107 267.93098131380975 69.906839996576309 564.39547187834978 56.632953960448503
leaf_count=172090 1638 4468 1047 968 1659 9995 1650 2005 2248 1834 9297 594 20672 345
internal_value=0 0.182517 -0.0422944 0.128377 0.147374 0.0138287 0.0700775 0.0951796 0.0900827 0.184247 -0.0471776 0.216541 -0.0328568 0.18063
internal_weight=0 1298.41 5959.11 501.079 447.751 476.993 172.321 142.155 175.33 272.422 5482.11 797.33 832.326 126.54
internal_count=230510 13754 216756 8347 6709 14697 4702 3655 3907 2802 202059 5407 29969 939
is_linear=0
shrinkage=0.05


Tree=4
num_leaves=15
num_cat=0
split_feature=4 4 4 0 2 2 0 1 1 0 4 1 0 2
split_gain=17840.8 721.121 632.856 350.993 288.119 231.162 165.737 149.717 115.017 91.5754 82.3504 78.2654 74.9416 70.0559
threshold=10.500000000000002 12.500000000000002 8.5000000000000018 1.0000000180025095e-35 1.0000000180025095e-35 1.0000000180025095e-35 1.0000000180025095e-35 23.500000000000004 34.500000000000007 1.0000000180025095e-35 6.5000000000000009 21.500000000000004 2.5000000000000004 1.0000000180025095e-35
decision_type=2 2 2 2 2 2 2 2 2 2 2 2 2 2
left_child=2 3 10 -2 6 12 -4 -8 -3 -10 -1 -7 -5 -12
right_child=1 8 4 5 -6 11 7 -9 9 -11 13 -13 -14 -15
leaf_value=-0.049590395720438205 -0.040070598419575609 0.18211311703423946 -0.047989080133054418 0.19542809340296086 -0.017384385646203364 0.142860265947471 0.15982194199494079 0.051340368379684066 -0.03826231426584388 0.14543811428111172 -0.011158738819655017 0.043709305088636123 0.12691468379491405 -0.042527784789381184
leaf_weight=4436.1150662787259 43.02637417241931 903.81487498059869 28.826447995379567 56.040741182863712 299.57802648842335 24.258783780038357 44.659352838993073 110.50233019143343 7.0644032731652251 171.03874181583524 265.02095645479858 110.84288322925568 138.68688337504864 541.95215902477503
leaf_count=172090 1368 5792 1047 583 9995 494 879 2776 175 1205 9297 2679 1458 20672
internal_value=0 0.154211 -0.0418699 0.0942449 0.0128616 0.111766 0.0621096 0.082564 0.174876 0.138152 -0.0469178 0.0615128 0.146632 -0.0322258
internal_weight=0 1454.77 5726.65 372.856 483.566 329.829 183.988 155.162 1081.92 178.103 5243.09 135.102 194.728 806.973
internal_count=230510 13754 216756 6582 14697 5214 4702 3655 7172 1380 202059 3173 2041 29969
is_linear=0
shrinkage=0.05


Tree=5
num_leaves=15
num_cat=0
split_feature=4 4 4 0 2 2 0 1 4 1 2 1 0 1
split_gain=15147.9 613.585 587.289 351.031 245.579 196.277 137.02 116.513 84.1918 77.2397 68.7364 63.2949 47.3175 50.2336
threshold=10.500000000000002 8.5000000000000018 13.500000000000002 1.0000000180025095e-35 1.0000000180025095e-35 1.0000000180025095e-35 1.0000000180025095e-35 28.500000000000004 6.5000000000000009 26.500000000000004 1.0000000180025095e-35 36.500000000000007 1.0000000180025095e-35 26.500000000000004
decision_type=2 2 2 2 2 2 2 2 2 2 2 2 2 2
left_child=1 8 3 -2 6 11 -3 -8 -1 -7 12 -5 -10 -14
right_child=2 4 -4 5 -6 9 7 -9 10 -11 -12 -13 13 -15
leaf_value=-0.049439395181782197 -0.03020860719859092 -0.047759880904344437 0.15767328727695296 0.13802978700838583 -0.016794001272081437 0.10285262060220889 0.11105343409810986 0.027301287536052467 -0.050535824579622662 0.041122366348907251 -0.042106072650230995 0.075299271030818307 0.033524332862802736 -0.018076689346196561
leaf_weight=4232.3288237862289 51.201814791187644 27.548866681754589 984.13051876425743 300.0615389123559 294.72980394028127 89.767647184431553 90.408810414373875 76.802978582680225 58.080639023333788 116.35832253471017 520.55476704612374 46.434279710054398 73.946344211697578 130.22613758221269
leaf_count=172090 1638 1047 5407 2299 9995 1458 1650 2005 2197 2449 20672 503 2420 4680
internal_value=0 -0.041438 0.133855 0.0950359 0.0119953 0.10664 0.055562 0.0725848 -0.0466533 0.0680058 -0.0315898 0.129623 -0.0107156 0.000611955
internal_weight=0 5504.63 1587.95 603.824 489.49 552.622 194.761 167.212 5015.14 206.126 782.808 346.496 262.253 204.172
internal_count=230510 216756 13754 8347 14697 6709 4702 3655 202059 3907 29969 2802 9297 7100
is_linear=0
shrinkage=0.05


Tree=6
num_leaves=15
num_cat=0
split_feature=4 4 4 0 2 2 0 1 4 2 1 0 2 1
split_gain=13102.5 595.208 486.892 279.827 211.018 150.847 115.164 86.7396 85.9821 67.2874 59.2442 49.1962 45.4904 56.5017
threshold=10.500000000000002 8.5000000000000018 13.500000000000002 1.0000000180025095e-35 1.0000000180025095e-35 1.0000000180025095e-35 1.0000000180025095e-35 28.500000000000004 6.5000000000000009 1.0000000180025095e-35 27.500000000000004 2.5000000000000004 1.0000000180025095e-35 24.500000000000004
decision_type=2 2 2 2 2 2 2 2 2 2 2 2 2 2
left_child=1 8 3 -2 6 11 -3 -8 -1 -10 -7 -5 -4 -14
right_child=2 4 12 5 -6 10 7 -9 9 -11 -12 -13 13 -15
leaf_value=-0.049287703022007606 -0.029542503593338224 -0.047527090267847003 0.14677007252873922 0.14019579254344097 -0.016214734421965561 0.086861730166090251 0.095494578210402289 0.025277757856354163 -0.010304996867399364 -0.041675303056491447 0.03479468409350684 0.10101545726039736 0.14823144920905015 0.10741560837306896
leaf_weight=4037.9963443055749 49.775093199685216 26.330439750105143 707.33581173419952 115.61593536287546 290.11582808569074 109.24491387233138 99.618011828511953 78.751233231276274 259.69069095887244 500.15708098560572 109.28958151862025 260.95232181251049 146.92357394099236 200.49727664887905
leaf_count=172090 1638 1047 3381 828 9995 1659 1650 2005 9297 20672 2248 1974 801 1225
internal_value=0 -0.0409994 0.118568 0.0843423 0.0112124 0.0938678 0.0500842 0.0644934 -0.0463841 -0.030954 0.0608229 0.113045 0.139493 0.124677
internal_weight=0 5292.66 1699.63 644.878 494.816 595.103 204.7 178.369 4797.84 759.848 218.534 376.568 1054.76 347.421
internal_count=230510 216756 13754 8347 14697 6709 4702 3655 202059 29969 3907 2802 5407 2026
is_linear=0
shrinkage=0.05


Tree=7
num_leaves=15
num_cat=0
split_feature=4 4 4 0 2 2 0 4 0 1 2 1 4 4
split_gain=11483.1 577.588 427.1 183.89 182.5 102.31 98.0787 87.7893 77.8022 66.4803 65.8565 58.4938 68.0019 54.2327
threshold=10.500000000000002 8.5000000000000018 12.500000000000002 1.0000000180025095e-35 1.0000000180025095e-35 1.0000000180025095e-35 1.0000000180025095e-35 6.5000000000000009 1.0000000180025095e-35 23.500000000000004 1.0000000180025095e-35 24.500000000000004 13.500000000000002 16.500000000000004
decision_type=2 2 2 2 2 2 2 2 2 2 2 2 2 2
left_child=1 7 3 -2 6 -5 -3 -1 13 -8 -9 -10 -13 -4
right_child=2 4 8 5 -6 -7 9 10 11 -11 -12 12 -14 -15
leaf_value=-0.049134969349342361 -0.038769785003783121 -0.047290270289575997 0.013615514492233492 0.094073692170046214 -0.015646953770994756 0.043145413043050564 0.10051663533643039 -0.0098877353832035886 0.13491376181551412 0.037179638044848737 -0.041235222356034246 0.080932295086500086 0.12046704384300216 0.21425933747777531
leaf_weight=3852.7022046223283 39.18199310824275 25.168582094833255 25.400519408285621 256.90428230166435 285.72509348392487 160.04986737295985 61.411143623292446 257.182577483356 556.48260606825352 127.33599774912 480.71456936374307 131.92157389223576 619.74131842702627 3.8826173022389403
leaf_count=172090 1368 1047 512 2041 9995 3173 879 9297 2675 2776 20672 984 2961 40
internal_value=0 -0.0405524 0.106572 0.0647927 0.0104999 0.0745246 0.0454241 -0.046109 0.120821 0.0577871 -0.0303095 0.122626 0.113528 0.0402186
internal_weight=0 5090.24 1793.56 456.136 499.641 416.954 213.916 4590.6 1337.43 188.747 737.897 1308.15 751.663 29.2831
internal_count=230510 216756 13754 6582 14697 5214 4702 202059 7172 3655 29969 6620 3945 552
is_linear=0
shrinkage=0.05


Tree=8
num_leaves=15
num_cat=0
split_feature=4 4 4 0 0 2 4 1 0 2 1 4 0 2
split_gain=10203.9 701.966 254.36 188.232 150.984 141.632 107.618 98.3773 75.9323 54.0919 51.9245 50.8628 37.3628 36.8247
threshold=9.5000000000000018 11.500000000000002 7.5000000000000009 1.0000000180025095e-35 1.0000000180025095e-35 1.0000000180025095e-35 13.500000000000002 30.500000000000004 1.0000000180025095e-35 1.0000000180025095e-35 36.500000000000007 16.500000000000004 2.5000000000000004 1.0000000180025095e-35
decision_type=2 2 2 2 2 2 2 2 2 2 2 2 2 2
left_child=2 3 -1 -2 11 8 9 13 -4 -6 12 -3 -10 -5
right_child=1 4 5 7 6 -7 -8 -9 10 -11 -12 -13 -14 -15
leaf_value=-0.047753034981558161 -0.046564809899122275 -0.0038945443380885882 -0.048567488730911802 0.08210287036260637 0.099379669380446484 -0.032508583175674476 0.1157307276015323 0.015695211391884147 0.083231331112300022 0.062873698262400135 -0.023067097431689318 0.17223626359226815 0.027795028370382231 0.042727972342565916
leaf_weight=4075.3892237655818 61.135669091716409 39.955461777746677 37.121917370706797 153.2256537899375 295.34334902465343 364.49902673065662 1135.8871497288346 150.59865656122565 40.534897418692708 154.581532407552 38.304846536368132 4.5674866288900366 121.49401150457561 96.952026672661304
leaf_count=189291 2225 1013 1549 1493 1662 14869 5125 3438 1016 1962 1176 40 3037 2614
internal_value=0 0.0895679 -0.0432719 0.0351576 0.104984 -0.0129331 0.107533 0.0476238 0.0171156 0.0868372 0.0292867 0.0141742 0.0416636 0.0668438
internal_weight=0 2092.25 4677.34 461.912 1630.33 601.955 1585.81 400.776 237.456 449.925 200.334 44.5229 162.029 250.178
internal_count=230510 19572 210938 9770 9802 21647 8749 7545 6778 3624 5229 1053 4053 4107
is_linear=0
shrinkage=0.05


Tree=9
num_leaves=15
num_cat=0
split_feature=4 4 4 0 2 2 4 1 0 1 1 2 2 0
split_gain=9139.24 611.662 253.796 253.396 131.232 122.247 75.3552 93.61 68.7997 59.7355 45.728 45.6474 41.8658 44.7297
threshold=9.5000000000000018 12.500000000000002 7.5000000000000009 1.0000000180025095e-35 1.0000000180025095e-35 1.0000000180025095e-35 16.500000000000004 34.500000000000007 1.0000000180025095e-35 25.500000000000004 26.500000000000004 1.0000000180025095e-35 1.0000000180025095e-35 1.0000000180025095e-35
decision_type=2 2 2 2 2 2 2 2 2 2 2 2 2 2
left_child=2 3 -1 -2 8 -5 7 12 -4 -7 -10 -9 -3 -14
right_child=1 6 4 5 -6 9 -8 11 10 -11 -12 -13 13 -15
leaf_value=-0.047542734865888475 -0.043859896975171231 0.10812374853989343 -0.048380231129224183 0.072540821195371585 -0.031877491752613368 0.059378812865313296 0.1152895325841425 0.079071279723379906 0.053671594364994302 0.010152739093875603 0.0061801181848421399 0.024121516857254499 -0.0095174660731932852 0.087616968391910258
leaf_weight=3893.3499686233699 72.704190921038389 476.0318420752883 35.444719985127449 385.154899623245 353.41342265531421 97.876657757908106 564.47791246324778 93.605403542518616 90.392740331590176 166.40850291773677 115.38862789981067 63.387528799474239 12.493133105337618 230.92659445852041
leaf_count=189291 2726 2152 1549 3513 14869 1946 2342 484 1813 4215 3416 551 239 1404
internal_value=0 0.0822191 -0.042896 0.0446614 -0.0124716 0.0545712 0.101042 0.0918655 0.0159594 0.0283834 0.0270415 0.0568847 0.0994988 0.0826317
internal_weight=0 2163.07 4487.99 722.144 594.64 649.44 1440.92 876.445 241.226 264.285 205.781 156.993 719.452 243.42
internal_count=230510 19572 210938 12400 21647 9674 7172 4830 6778 6161 5229 1035 3795 1643
is_linear=0
shrinkage=0.05


Tree=10
num_leaves=15
num_cat=0
split_feature=4 4 4 0 2 2 4 1 0 1 1 2 2 1
split_gain=8232.32 546.483 253.024 220.046 121.673 100.327 74.4543 79.4099 62.5698 51.3501 41.6676 40.2755 39.1268 37.4955
threshold=9.5000000000000018 12.500000000000002 7.5000000000000009 1.0000000180025095e-35 1.0000000180025095e-35 1.0000000180025095e-35 16.500000000000004 34.500000000000007 1.0000000180025095e-35 22.500000000000004 36.500000000000007 1.0000000180025095e-35 1.0000000180025095e-35 32.500000000000007
decision_type=2 2 2 2 2 2 2 2 2 2 2 2 2 2
left_child=2 3 -1 -2 8 13 7 11 -4 -7 -10 -3 -9 -5
right_child=1 6 4 5 -6 9 -8 12 10 -11 -12 -13 -14 -15
leaf_value=-0.047328121119096629 -0.043478384349094096 0.099928584646663321 -0.048190195039045799 0.073953692624649223 -0.03124100778217398 0.065981990964013415 0.1076801367999118 0.072937195825792431 0.035420926476110219 0.014338976864447737 -0.022581868408761242 0.075362565141719087 0.022575522394429313 0.037865304418351044
leaf_weight=3719.8433033153415 69.750032097101212 488.9582050293684 33.845694858580828 310.46800280734897 342.85362090915442 62.590981651097536 573.88191564381123 96.329258799552917 173.11684728972614 208.40756069682539 37.706886112689972 253.26374601945281 64.317138984799385 93.697194688022137
leaf_count=189291 2726 2152 1549 2354 14869 1164 2342 484 4053 4997 1176 1643 551 1159
internal_value=0 0.0759858 -0.042512 0.0410702 -0.0120194 0.0498047 0.0935982 0.0846474 0.0149158 0.0262667 0.0250468 0.0915461 0.0527742 0.0655874
internal_weight=0 2221.66 4307.37 744.914 587.523 675.164 1476.75 902.868 244.669 270.999 210.824 742.222 160.646 404.165
internal_count=230510 19572 210938 12400 21647 9674 7172 4830 6778 6161 5229 3795 1035 3513
is_linear=0
shrinkage=0.05


Tree=11
num_leaves=15
num_cat=0
split_feature=4 4 4 4 0 2 1 0 0 1 2 4 1 1
split_gain=7448.39 499.589 252.083 128.957 126.484 112.816 62.7836 59.1977 57.055 44.0541 43.1515 45.0935 47.4904 36.3425
threshold=9.5000000000000018 11.500000000000002 7.5000000000000009 13.500000000000002 1.0000000180025095e-35 1.0000000180025095e-35 30.500000000000004 1.0000000180025095e-35 1.0000000180025095e-35 24.500000000000004 1.0000000180025095e-35 17.500000000000004 24.500000000000004 36.500000000000007
decision_type=2 2 2 2 2 2 2 2 2 2 2 2 2 2
left_child=2 4 -1 7 -2 8 -6 -3 -4 -9 -5 12 -12 -10
right_child=1 3 5 10 6 -7 -8 9 13 -11 11 -13 -14 -15
leaf_value=-0.047108811731569833 -0.045717462772374366 -0.015318370244281787 -0.047997000954381357 0.098660679553912556 0.04936034410996136 -0.030599654880433244 0.010458830154432695 0.083953992470608627 0.032569205519093349 0.053929770630088109 0.093023137947826434 0.10276834913180616 0.051122926159919271 -0.021921609302785777
leaf_weight=3554.4861829411238 53.859098710119724 23.35797705873847 32.32137536816299 817.94512493163347 288.17460329085588 332.79560189321637 162.03708985447884 205.37796609848738 178.70966249518096 301.57739398628473 111.45367033034563 134.35311910510063 171.97275921702385 36.920764200389385
leaf_count=189291 2225 771 1549 3381 4107 14869 3438 1206 4053 2418 539 546 941 1176
internal_value=0 0.0706006 -0.0421189 0.083132 0.0266963 -0.0115777 0.0353592 0.0625074 0.0139533 0.0660932 0.0919831 0.0789095 0.0675996 0.0232392
internal_weight=0 2270.11 4135.23 1766.04 504.071 580.747 450.212 530.313 247.952 506.955 1235.72 417.78 283.426 215.63
internal_count=230510 19572 210938 9802 9770 21647 7545 4395 6778 3624 5407 2026 1480 5229
is_linear=0
shrinkage=0.05


Tree=12
num_leaves=15
num_cat=0
split_feature=4 4 4 0 2 2 0 1 4 2 1 1 0 1
split_gain=6762.26 459.626 250.938 193.387 104.604 101.191 52.159 45.6929 42.5533 51.2058 41.0605 40.7128 32.9879 32.5768
threshold=9.5000000000000018 13.500000000000002 7.5000000000000009 1.0000000180025095e-35 1.0000000180025095e-35 1.0000000180025095e-35 1.0000000180025095e-35 27.500000000000004 17.500000000000004 1.0000000180025095e-35 24.500000000000004 37.500000000000007 2.5000000000000004 23.500000000000004
decision_type=2 2 2 2 2 2 2 2 2 2 2 2 2 2
left_child=2 3 -1 -2 6 11 -4 -7 9 -3 -11 12 -5 -8
right_child=1 8 4 5 -6 7 13 -9 -10 10 -12 -13 -14 -15
leaf_value=-0.046884403374267816 -0.035952926599733426 0.08897893827473824 -0.047800248782719511 0.083581645367517776 -0.029953994458484335 0.044683133036078911 0.050832021469857339 0.0099810194511989955 0.099169767171676595 0.086153940745319707 0.047628854370606898 0.024202403429894211 0.056664807651241302 0.0089462880774912098
leaf_weight=3396.9113893918693 74.593821696937084 530.00409586727619 30.868432033807039 163.5981230661273 323.21637074835598 189.19911421462893 66.518362175673246 190.23827198520303 429.58502849936485 114.24627270549536 175.27039029449224 69.558930784463882 374.15303612872958 153.64568303525448
leaf_count=189291 2996 2199 1549 1030 14869 2826 1163 4069 1728 539 941 715 2529 4066
internal_value=0 0.0658666 -0.0417166 0.0416732 -0.0111473 0.0475414 0.0130672 0.0272846 0.0864232 0.0797416 0.0628313 0.0601976 0.0648536 0.0216013
internal_weight=0 2310.45 3971.16 1061.34 574.249 986.747 251.032 379.437 1249.11 819.521 289.517 607.31 537.751 220.164
internal_count=230510 19572 210938 14165 21647 11169 6778 6895 5407 3679 1480 4274 3559 5229
is_linear=0
shrinkage=0.05


Tree=13
num_leaves=15
num_cat=0
split_feature=4 4 4 0 2 2 0 4 2 1 1 1 4 1
split_gain=6158.44 429.097 249.567 169.312 96.9846 86.9327 47.7969 42.3619 49.1217 39.3064 38.2014 35.965 33.3434 30.2252
threshold=9.5000000000000018 13.500000000000002 7.5000000000000009 1.0000000180025095e-35 1.0000000180025095e-35 1.0000000180025095e-35 1.0000000180025095e-35 17.500000000000004 1.0000000180025095e-35 25.500000000000004 24.500000000000004 24.500000000000004 5.5000000000000009 36.500000000000007
decision_type=2 2 2 2 2 2 2 2 2 2 2 2 2 2
left_child=2 3 12 -2 6 10 -4 8 -3 -7 -5 -10 -1 -8
right_child=1 7 4 5 -6 9 13 -9 11 -11 -12 -13 -14 -15
leaf_value=-0.049294944330709085 -0.035370373087550977 0.084027083644999667 -0.047599565590294386 0.070471044148221446 -0.029304618315606351 0.04456573059591569 0.028199799468799486 0.094328713335430178 0.080190677263130838 0.012161738012489716 0.045291909251409149 0.044470693447931309 -0.036930971515817701 -0.021536215754346121
leaf_weight=2553.3925287164748 72.095106409862638 533.08584848046303 29.483667584136128 252.68872325122356 314.09390300139785 157.68321348726749 187.92832505702972 429.05500131845474 116.54196450859308 230.22186250984669 373.00286204367876 178.25140901654959 693.37369316443801 36.475962124764919
leaf_count=150054 2996 2199 1549 1415 14869 2194 4053 1728 539 4701 2859 941 39237 1176
internal_value=0 0.0616901 -0.0413055 0.0386651 -0.0107289 0.0439311 0.0122518 0.0815782 0.0749701 0.0253339 0.0554606 0.058592 -0.0466545 0.0201154
internal_weight=0 2342.63 3814.75 1085.69 567.982 1013.6 253.888 1256.93 827.879 387.905 625.692 294.793 3246.77 224.404
internal_count=230510 19572 210938 14165 21647 11169 6778 5407 3679 6895 4274 1480 189291 5229
is_linear=0
shrinkage=0.05


Tree=14
num_leaves=15
num_cat=0
split_feature=4 4 4 0 2 4 2 1 0 4 1 2 1 0
split_gain=5622.28 408.513 248.018 133.154 89.9027 77.2998 59.7627 56.2269 43.8857 34.3162 31.0514 30.2049 38.0812 31.5505
threshold=9.5000000000000018 12.500000000000002 7.5000000000000009 1.0000000180025095e-35 1.0000000180025095e-35 15.500000000000002 1.0000000180025095e-35 30.500000000000004 1.0000000180025095e-35 5.5000000000000009 20.500000000000004 1.0000000180025095e-35 25.500000000000004 1.0000000180025095e-35
decision_type=2 2 2 2 2 2 2 2 2 2 2 2 2 2
left_child=2 3 9 -2 8 7 -5 -3 -4 -1 -8 12 13 -11
right_child=1 5 4 6 -6 -7 10 -9 -10 11 -12 -13 -14 -15
leaf_value=-0.049175196708664035 -0.04203631338235736 0.07133169789818232 -0.047394564178152389 0.046454486590671182 -0.028652162850669866 0.084315894295779473 0.055023123791502898 0.042533549888849886 0.018755434995296721 -0.050914519234240146 0.010911071869876388 -0.043703923260245608 -0.034691548829526291 0.030994214040599349
leaf_weight=2434.6290715299547 60.219985332340002 519.5614745169878 28.16401288472116 463.41711171343923 305.40711070783436 772.36086274683475 47.333793099969625 251.5592864304781 228.44294544681907 15.487500442191957 253.81276720017195 453.95375488698483 150.86438031494617 48.804941210895777
leaf_count=150054 2726 2532 1549 3513 14869 3141 733 1499 5229 883 5428 27218 8472 2664
internal_value=0 0.0579553 -0.0408847 0.0295474 -0.0103215 0.0731354 0.0351856 0.061937 0.0114951 -0.046419 0.0178445 -0.0363903 -0.0209595 0.0112631
internal_weight=0 2368.27 3665.75 824.784 562.014 1543.48 764.564 771.121 256.607 3103.74 301.147 669.111 215.157 64.2924
internal_count=230510 19572 210938 12400 21647 7172 9674 4031 6778 189291 6161 39237 12019 3547
is_linear=0
shrinkage=0.05


Tree=15
num_leaves=15
num_cat=0
split_feature=4 4 4 0 2 4 4 2 1 0 0 4 2 1
split_gain=5141.4 383.624 246.34 132.417 83.3448 72.8904 45.3734 50.1848 40.4385 40.375 35.8059 35.2801 30.1058 35.8762
threshold=9.5000000000000018 13.500000000000002 7.5000000000000009 1.0000000180025095e-35 1.0000000180025095e-35 11.500000000000002 16.500000000000004 1.0000000180025095e-35 37.500000000000007 1.0000000180025095e-35 1.0000000180025095e-35 5.5000000000000009 1.0000000180025095e-35 25.500000000000004
decision_type=2 2 2 2 2 2 2 2 2 2 2 2 2 2
left_child=2 3 11 -2 9 8 7 -3 -5 -4 -9 -1 13 -13
right_child=1 6 4 5 -6 -7 -8 10 -10 -11 -12 12 -14 -15
leaf_value=-0.049053868035705592 -0.034316300313910239 0.075214236488600691 -0.047184876843455223 0.029873390954900304 -0.027997284087717046 0.050233276545749384 0.083907029869703706 -0.030608343258808093 -0.010008835256642193 0.017513812950172125 0.051745660216293787 0.010547024602712597 -0.043358031012120893 -0.034107487502500471
leaf_weight=2321.4758250061423 67.86598589643836 432.56719747185707 26.906522704288363 431.85693558678031 297.13583732768893 555.33966481685638 573.268136754632 13.965867541730402 74.52751075476408 232.30315751209855 240.21390554308891 65.026354605332017 435.17292195186019 145.9022589828819
leaf_count=150054 2996 1789 1549 6040 14869 3624 2342 165 1505 5229 1111 3547 27218 8472
internal_value=0 0.0545537 -0.0404538 0.0333951 -0.00992201 0.0377232 0.0735221 0.0648532 0.0240037 0.0107979 0.0472207 -0.0461778 -0.0358438 -0.0203411
internal_weight=0 2389.61 3523.92 1129.59 556.346 1061.72 1260.02 686.747 506.384 259.21 254.18 2967.58 646.102 210.929
internal_count=230510 19572 210938 14165 21647 11169 5407 3065 7545 6778 1276 189291 39237 12019
is_linear=0
shrinkage=0.05


Tree=16
num_leaves=15
num_cat=0
split_feature=4 4 4 0 2 2 4 2 0 4 4 0 2 1
split_gain=4711.44 363.829 244.458 117.301 77.2421 67.6883 46.0222 47.9548 37.2073 36.251 34.4357 31.6454 29.9789 33.8246
threshold=9.5000000000000018 13.500000000000002 7.5000000000000009 1.0000000180025095e-35 1.0000000180025095e-35 1.0000000180025095e-35 16.500000000000004 1.0000000180025095e-35 1.0000000180025095e-35 5.5000000000000009 11.500000000000002 1.0000000180025095e-35 1.0000000180025095e-35 25.500000000000004
decision_type=2 2 2 2 2 2 2 2 2 2 2 2 2 2
left_child=2 3 9 -2 8 10 7 -3 -4 -1 -5 -9 13 -11
right_child=1 6 4 5 -6 -7 -8 11 -10 12 -12 -13 -14 -15
leaf_value=-0.048930690835301036 -0.03371137975825416 0.071603635794462314 -0.046970119165261358 0.032538209484108023 -0.027340663578817689 0.019269784628141145 0.08065868366595004 -0.02981856271151408 0.016373550452204285 0.0099158780219051126 0.055345926367894177 0.04847733196398691 -0.043002795906822301 -0.033515302639431553
leaf_weight=2213.6763503216207 65.685370979830623 431.6786470785737 25.70837876200676 303.66561624780297 289.26080745831132 415.92699921131134 566.70021590590477 13.627686373889444 235.95928001403809 65.689406031742692 363.71942313015461 243.49996973574162 417.28338465839624 141.17705958988518
leaf_count=150054 2996 1789 1549 2612 14869 6895 2342 165 5229 3547 1662 1111 27218 8472
internal_value=0 0.0514986 -0.0400129 0.0311677 -0.00953412 0.0351016 0.0701047 0.0614217 0.0101501 -0.04593 0.0449682 0.0443277 -0.0352873 -0.0197239
internal_weight=0 2404.5 3388.75 1149 550.928 1083.31 1255.51 688.806 261.668 2837.83 667.385 257.128 624.15 206.866
internal_count=230510 19572 210938 14165 21647 11169 5407 3065 6778 189291 4274 1276 39237 12019
is_linear=0
shrinkage=0.05


Tree=17
num_leaves=15
num_cat=0
split_feature=4 4 4 0 2 1 0 0 1 4 2 4 1 0
split_gain=4325.21 344.969 243.649 104.372 98.6643 65.2279 56.6717 51.0989 49.1763 46.7423 45.9865 30.0689 28.1705 19.8761
threshold=9.5000000000000018 13.500000000000002 6.5000000000000009 1.0000000180025095e-35 1.0000000180025095e-35 32.500000000000007 1.0000000180025095e-35 2.5000000000000004 24.500000000000004 16.500000000000004 1.0000000180025095e-35 11.500000000000002 34.500000000000007 1.0000000180025095e-35
decision_type=2 2 2 2 2 2 2 2 2 2 2 2 2 2
left_child=2 3 -1 -2 6 7 -4 -5 -8 10 -3 -9 -12 -6
right_child=1 9 4 5 13 -7 8 11 -10 -11 12 -13 -14 -15
leaf_value=-0.047507600114525039 -0.033099366193326894 0.068332064404395612 -0.047687980956310577 0.059107337083591865 -0.04958791407293197 0.01192169441957234 0.038212918957448862 0.019766609471079107 -0.0032592326266530415 0.077753358686926538 0.050059164518741976 0.042590470894401378 0.0093080161816212221 -0.025483791911385747
leaf_weight=2436.6635048240423 63.608072012662888 429.77447544038296 47.206490471959114 243.09896005690098 113.59240097738802 279.84574786201119 109.09716759622097 273.90462602302432 207.30412919074297 558.68262860178947 206.30234246701002 304.98182144761086 53.38214099407196 346.11547872796655
leaf_count=172090 2996 1789 2834 2056 6606 3879 2420 3464 6863 2342 972 1770 304 20125
internal_value=0 0.0487385 -0.0395619 0.0291764 -0.0160462 0.0327715 0.00341601 0.0398698 0.0110406 0.0670044 0.0582944 0.0317912 0.0416821 -0.0314398
internal_weight=0 2413.58 3259.98 1165.44 823.316 1101.83 363.608 821.985 316.401 1248.14 689.459 578.886 259.684 459.708
internal_count=230510 19572 210938 14165 38848 11169 12117 7290 9283 5407 3065 5234 1276 26731
is_linear=0
shrinkage=0.05


Tree=18
num_leaves=15
num_cat=0
split_feature=4 4 4 0 2 2 0 4 2 1 1 0 1 1
split_gain=3973.85 328.43 243.385 92.989 92.9342 59.9519 52.9283 47.5958 44.3473 42.5672 30.3163 27.8525 25.5703 22.7702
threshold=9.5000000000000018 13.500000000000002 6.5000000000000009 1.0000000180025095e-35 1.0000000180025095e-35 1.0000000180025095e-35 1.0000000180025095e-35 16.500000000000004 1.0000000180025095e-35 24.500000000000004 24.500000000000004 1.0000000180025095e-35 38.500000000000007 34.500000000000007
decision_type=2 2 2 2 2 2 2 2 2 2 2 2 2 2
left_child=2 3 -1 -2 6 10 -4 8 -3 -8 -5 -10 -7 -13
right_child=1 7 4 5 -6 12 9 -9 11 -11 -12 13 -14 -15
leaf_value=-0.04732152702339204 -0.032480666984975197 0.065345342504003812 -0.047497758501016243 0.052625458417066451 -0.030813214505955616 0.020611855541907486 0.035083384855482277 0.075136387351299627 -0.030098389481710987 -0.003105860061530808 0.031197941207797026 0.05067384070007494 -0.016181043719040417 0.012986097452341527
leaf_weight=2326.7126290062442 61.629370341077447 427.01533174514771 45.079550178721547 275.37978892028332 445.99359855428338 378.86467062681913 112.78747669421136 549.46661511063576 13.732604779303072 206.68042890354991 412.09619889035821 198.15003284811974 53.946400936692953 50.239658936858177
leaf_count=172090 2996 1789 2834 1415 26731 5744 2420 2342 165 6863 2859 859 1151 252
internal_value=0 0.0461684 -0.0391018 0.0273141 -0.0155065 0.0306035 0.00322007 0.0641597 0.0554078 0.0103768 0.0397811 0.0392188 0.0160259 0.0430511
internal_weight=0 2420.52 3137.25 1181.92 810.541 1120.29 364.547 1238.6 689.138 319.468 687.476 262.122 432.811 248.39
internal_count=230510 19572 210938 14165 38848 11169 12117 5407 3065 9283 4274 1276 6895 1111
is_linear=0
shrinkage=0.05


Tree=19
num_leaves=15
num_cat=0
split_feature=4 4 4 4 0 2 1 2 0 1 1 1 0 0
split_gain=3660.02 457.962 124.566 105.645 104.721 62.3967 51.5932 49.5663 31.9641 30.0644 28.3098 27.8811 25.3109 23.1195
threshold=8.5000000000000018 11.500000000000002 15.500000000000002 6.5000000000000009 1.0000000180025095e-35 1.0000000180025095e-35 28.500000000000004 1.0000000180025095e-35 1.0000000180025095e-35 23.500000000000004 34.500000000000007 36.500000000000007 2.5000000000000004 1.0000000180025095e-35
decision_type=2 2 2 2 2 2 2 2 2 2 2 2 2 2
left_child=3 4 5 -1 -2 10 12 8 -5 -7 -3 -10 -6 -11
right_child=1 2 -4 7 6 9 -8 -9 11 13 -12 -13 -14 -15
leaf_value=-0.047130377622616716 -0.045843696943461569 0.057231701106285997 0.069826241869231559 -0.049347303030692104 0.045791382465570914 0.046805227956221329 0.0002762449371089855 -0.035438886109979986 0.012158037810631472 -0.036062140039961894 0.030637762685181532 -0.036222633977229746 0.018773936146539414 0.02237805113293255
leaf_weight=2221.990121700801 78.299060111865401 563.75266670435667 726.1052211523056 34.260558258742094 120.80106343142688 142.57716678455472 338.43894327990711 312.77535125054419 157.81093271262944 18.087419729679823 121.66915000975132 36.704823089763522 306.97867817245424 263.0401000417769
leaf_count=172090 4340 2515 3141 2197 1700 912 7936 20672 5417 538 658 1683 4673 2038
internal_value=0 0.0397051 0.0537266 -0.0423041 0.00923464 0.0431868 0.014863 -0.0225019 -0.00481492 0.0281031 0.052511 0.00302868 0.0264034 0.0186181
internal_weight=0 2679.75 1835.23 2763.54 844.518 1109.13 766.219 541.552 228.776 423.705 685.422 194.516 427.78 281.128
internal_count=230510 28451 9802 202059 18649 6661 14309 29969 9297 3488 3173 7100 6373 2576
is_linear=0
shrinkage=0.05


Tree=20
num_leaves=15
num_cat=0
split_feature=4 4 0 4 4 1 2 2 1 2 0 1 0 0
split_gain=3382.57 422.736 124.99 106.552 83.6037 58.7813 50.1509 47.5769 44.6122 32.4868 30.373 25.7122 20.8573 14.6569
threshold=8.5000000000000018 12.500000000000002 1.0000000180025095e-35 6.5000000000000009 15.500000000000002 20.500000000000004 1.0000000180025095e-35 1.0000000180025095e-35 24.500000000000004 1.0000000180025095e-35 1.0000000180025095e-35 36.500000000000007 2.5000000000000004 2.5000000000000004
decision_type=2 2 2 2 2 2 2 2 2 2 2 2 2 2
left_child=3 2 -2 -1 8 -4 12 10 -3 -10 -5 -12 -7 -8
right_child=1 4 5 7 -6 6 13 -9 9 -11 11 -13 -14 -15
leaf_value=-0.046933812757371351 -0.043290554335487508 0.058814668980506461 0.045534846933821455 -0.049236977356397427 0.067577546816022238 0.040062320492686564 0.016750250590115538 -0.034875048784494427 0.045029290362127328 0.018706575201749863 0.011417021367631081 -0.035653088736784869 0.017996717671901721 -0.0059755762362576469
leaf_weight=2122.253707642667 85.107996691018343 312.81170715764165 182.23066845349967 32.660849446430802 713.08422849327326 148.65151529759169 96.645535238087177 302.21038237027824 297.36924635246396 193.48134670779109 159.6032528989017 35.458442721515894 383.07750275731087 266.83012532815337
leaf_count=172090 4841 1424 1983 2197 3141 1311 2487 20672 1300 1307 5417 1683 3636 7021
internal_value=0 0.0377277 0.0150423 -0.0419259 0.0551154 0.0196501 0.0143809 -0.0218702 0.0440578 0.0346535 -0.00461145 0.00286059 0.0241654 6.70559e-05
internal_weight=0 2679.29 1162.54 2652.19 1516.75 1077.44 895.205 529.933 803.662 490.851 227.723 195.062 531.729 363.476
internal_count=230510 28451 21279 202059 7172 16438 14455 29969 4031 2607 9297 7100 4947 9508
is_linear=0
shrinkage=0.05


Tree=21
num_leaves=15
num_cat=0
split_feature=4 4 4 4 0 2 2 1 0 0 1 0 1 1
split_gain=3127.9 393.532 123.269 107.353 88.9179 55.3021 45.6082 43.0859 31.9887 28.8601 26.142 24.6593 23.7204 22.8275
threshold=8.5000000000000018 11.500000000000002 15.500000000000002 6.5000000000000009 1.0000000180025095e-35 1.0000000180025095e-35 1.0000000180025095e-35 32.500000000000007 2.5000000000000004 1.0000000180025095e-35 34.500000000000007 1.0000000180025095e-35 36.500000000000007 20.500000000000004
decision_type=2 2 2 2 2 2 2 2 2 2 2 2 2 2
left_child=3 4 5 -1 -2 10 9 8 -6 -5 -3 -7 -11 -10
right_child=1 2 -4 6 7 11 -8 -9 13 12 -12 -13 -14 -15
leaf_value=-0.046731507427106633 -0.04530404423751791 0.052135452958690112 0.065499731310085102 -0.049125163229583275 0.038720479245882733 -0.02517226588269042 -0.034302210804651408 -0.0060956626387796238 0.034270067890059507 0.010728847833990768 0.026732247880862509 0.027614579227900837 -0.035074993307976247 0.0060161898296295785
leaf_weight=2027.2717578448355 71.85073977895081 563.69482755288482 699.27119272947311 31.136910303495824 163.53992095589638 23.385283246636391 292.15142380073667 217.82804989442229 92.822117434814572 161.30338945239782 123.45535097643733 410.30971036851406 34.271053036674857 311.0630471073091
leaf_count=172090 4340 2515 3141 2197 2410 681 20672 5359 1220 5417 658 2807 1683 5320
internal_value=0 0.035871 0.0490258 -0.0415375 0.00793584 0.0387481 -0.0212436 0.0128073 0.0200639 -0.00441558 0.0475714 0.0247683 0.00270251 0.0125096
internal_weight=0 2677.22 1820.12 2546.13 857.104 1120.85 518.863 785.253 567.425 226.711 687.15 433.695 195.574 403.885
internal_count=230510 28451 9802 202059 18649 6661 29969 14309 8950 9297 3173 3488 7100 6540
is_linear=0
shrinkage=0.05


Tree=22
num_leaves=15
num_cat=0
split_feature=4 4 0 4 1 4 2 0 2 1 0 1 2 1
split_gain=2894.54 373.849 109.554 108.042 58.3257 51.3269 45.8153 45.5376 43.6643 28.5897 27.4212 26.3198 24.3007 21.897
threshold=8.5000000000000018 13.500000000000002 1.0000000180025095e-35 6.5000000000000009 32.500000000000007 17.500000000000004 1.0000000180025095e-35 2.5000000000000004 1.0000000180025095e-35 20.500000000000004 1.0000000180025095e-35 24.500000000000004 1.0000000180025095e-35 26.500000000000004
decision_type=2 2 2 2 2 2 2 2 2 2 2 2 2 2
left_child=3 2 -2 -1 7 6 -3 -4 10 -9 -5 -8 -11 -12
right_child=1 5 4 8 -6 -7 11 9 -10 12 13 -13 -14 -15
leaf_value=-0.046523113240440006 -0.036724888899952728 0.05746927513292998 0.042952304878247888 -0.049011598485511933 0.0035705067246655283 0.070503277020354013 0.051354674686079696 0.038436173796680344 -0.033720714271494187 0.022944151762769732 0.021588464488405578 0.021527067494118243 0.0016575933480420858 -0.012115125256512234
leaf_weight=1936.8231545528397 87.740682045929134 499.02682311087847 309.60843088850379 29.685260941274464 361.60196784324944 372.00813427567482 120.4741199016571 164.24219079315662 282.57480921596289 347.93175068497658 85.330131281167269 191.54781465232372 218.13187319599092 110.72605478577316
leaf_count=172090 5111 2199 3148 2197 6475 1728 539 1560 20672 2442 2420 941 4308 4680
internal_value=0 0.0341433 0.0174749 -0.0411387 0.0208681 0.0551257 0.0480724 0.0268828 -0.0206227 0.0200702 -0.00422712 0.0330437 0.0147414 0.00255379
internal_weight=0 2672.31 1489.26 2445.14 1401.52 1183.06 811.049 1039.91 508.316 730.306 225.741 312.022 566.064 196.056
internal_count=230510 28451 23044 202059 17933 5407 3679 11458 29969 8310 9297 1480 6750 7100
is_linear=0
shrinkage=0.05


Tree=23
num_leaves=15
num_cat=0
split_feature=4 4 4 0 4 4 2 2 1 0 1 1 2 1
split_gain=2679.2 352.835 108.61 99.4946 57.1168 51.8693 44.3671 41.747 33.9306 26.0526 24.1952 21.1745 18.871 18.8782
threshold=8.5000000000000018 13.500000000000002 6.5000000000000009 1.0000000180025095e-35 11.500000000000002 17.500000000000004 1.0000000180025095e-35 1.0000000180025095e-35 28.500000000000004 1.0000000180025095e-35 27.500000000000004 36.500000000000007 1.0000000180025095e-35 24.500000000000004
decision_type=2 2 2 2 2 2 2 2 2 2 2 2 2 2
left_child=2 3 -1 -2 8 6 -3 9 -5 -4 -8 -11 13 -6
right_child=1 5 7 4 12 -7 10 -9 -10 11 -12 -13 -14 -15
leaf_value=-0.046308305371032227 -0.036177383290404819 0.055410235013113235 -0.048896028544715066 0.019763542151809727 0.051626771902515634 0.068833607511321102 0.044413897265825182 -0.033130942239150772 -0.00098674228939850698 0.0097555800716493165 0.016546395966071034 -0.034281866187895436 0.01974504685553001 0.028936006456445364
leaf_weight=1850.6962234089151 84.692898713052273 491.87497147917747 28.302570339292288 458.74484476260841 151.51098483800888 362.22847570478916 165.80220521986485 273.45795128680766 345.29477871581912 163.73676397465169 146.89529190212488 32.757624244317412 228.39172241836786 232.06366799771786
leaf_count=172090 5111 2199 2197 6373 612 1728 749 20672 7936 5417 731 1683 1962 1050
internal_value=0 0.0324991 -0.0407297 0.0164646 0.0196131 0.0531221 0.0460486 -0.0200087 0.0108523 -0.004046 0.0313226 0.00241409 0.0311236 0.0378988
internal_weight=0 2667.5 2348.95 1500.7 1416.01 1166.8 804.572 498.255 804.04 224.797 312.697 196.494 611.966 383.575
internal_count=230510 28451 202059 23044 17933 5407 3679 29969 14309 9297 1480 7100 3624 1662
is_linear=0
shrinkage=0.05


Tree=24
num_leaves=15
num_cat=0
split_feature=4 4 4 4 0 2 0 1 2 1 0 0 4 2
split_gain=2482.19 333.105 109.277 106.077 71.2311 62.8918 39.0811 36.3326 33.747 31.0108 30.8243 23.3803 22.2128 23.2108
threshold=8.5000000000000018 14.500000000000002 5.5000000000000009 11.500000000000002 1.0000000180025095e-35 1.0000000180025095e-35 1.0000000180025095e-35 26.500000000000004 1.0000000180025095e-35 32.500000000000007 1.0000000180025095e-35 2.5000000000000004 17.500000000000004 1.0000000180025095e-35
decision_type=2 2 2 2 2 2 2 2 2 2 2 2 2 2
left_child=2 3 -1 4 -2 6 -4 -8 -5 11 -3 -6 13 -12
right_child=1 10 5 8 9 -7 7 -9 -10 -11 12 -13 -14 -15
leaf_value=-0.047877997373739656 -0.044532323959042448 -0.0008369891876536732 -0.049501350916666333 0.038280418160831546 0.031486009070561559 -0.036652732186681504 0.022835004917785753 -0.015423457745698189 0.018644913319036817 -0.0059386046489435735 0.059527309038507781 0.0097212858179487691 0.067705042077916125 0.037193857431451711
leaf_weight=1532.2018461059779 64.084709607996047 22.879567384719849 45.331312321126461 556.18087003938854 175.06864645704627 426.16773799061775 108.24366240296513 145.42982530221343 360.75698809325695 217.15799719281495 312.59826150536537 418.01200125366449 346.28044362366199 185.2983578145504
leaf_count=150054 4340 149 3859 2597 2410 36028 4075 8043 3104 5359 1455 6540 1703 794
internal_value=0 0.0309878 -0.0403098 0.0186737 0.00621323 -0.024319 -0.00673985 0.000901607 0.0305551 0.0102269 0.0564275 0.0161459 0.0579796 0.0512156
internal_weight=0 2658.32 2257.37 1791.26 874.323 725.173 299.005 253.673 916.938 810.239 867.057 593.081 844.177 497.897
internal_count=230510 28451 202059 24350 18649 52005 15977 12118 5701 14309 4101 8950 3952 2249
is_linear=0
shrinkage=0.05


Tree=25
num_leaves=15
num_cat=0
split_feature=4 4 4 0 4 2 0 1 1 0 1 2 4 2
split_gain=2300.46 317.977 110.337 95.864 71.6646 60.6895 37.3039 32.5393 29.2792 29.04 28.9867 25.143 22.7339 23.0874
threshold=8.5000000000000018 14.500000000000002 5.5000000000000009 1.0000000180025095e-35 11.500000000000002 1.0000000180025095e-35 1.0000000180025095e-35 26.500000000000004 20.500000000000004 1.0000000180025095e-35 38.500000000000007 1.0000000180025095e-35 17.500000000000004 1.0000000180025095e-35
decision_type=2 2 2 2 2 2 2 2 2 2 2 2 2 2
left_child=2 3 -1 -2 8 6 -4 -8 -5 -3 -6 -10 13 -11
right_child=1 9 5 4 10 -7 7 -9 11 12 -12 -13 -14 -15
leaf_value=-0.047726666027904215 -0.031911046389757031 -0.0007954766362059713 -0.04941753028115542 0.030146188681693404 0.033093000251291582 -0.036122052138947501 0.021228901962992069 -0.014875311035565606 0.013477094677615223 0.057886517645422492 0.0024655860267662343 -0.0061169939892351975 0.066338868394696646 0.035487820499197152
leaf_weight=1461.9816293232143 92.522094896063209 22.870111294090748 43.191792585887015 143.48855455964804 805.04005680978298 411.18943249993026 110.5495377285406 143.30460216570646 390.74147951230407 305.5654159784317 85.453807175159454 281.79553688503802 336.00201667845249 184.51610270142555
leaf_count=150054 5244 149 3859 1694 4211 36028 4075 8043 4178 1455 586 8437 1703 794
internal_value=0 0.0295602 -0.0398798 0.0176579 0.0203454 -0.0236818 -0.00646125 0.000847513 0.0096418 0.0547827 0.0301539 0.0052671 0.0563214 0.0494534
internal_weight=0 2648 2170.22 1799.04 1706.52 708.235 297.046 253.854 816.026 848.954 890.494 672.537 826.084 490.082
internal_count=230510 28451 202059 24350 19106 52005 15977 12118 14309 4101 4797 12615 3952 2249
is_linear=0
shrinkage=0.05


Tree=26
num_leaves=15
num_cat=0
split_feature=4 4 4 0 4 2 0 1 4 2 1 2 0 1
split_gain=2132.38 303.657 111.285 86.9324 64.3235 58.4855 35.6002 29.1738 29.0322 29.0023 26.3866 26.1653 22.4172 17.3049
threshold=8.5000000000000018 14.500000000000002 5.5000000000000009 1.0000000180025095e-35 11.500000000000002 1.0000000180025095e-35 1.0000000180025095e-35 26.500000000000004 17.500000000000004 1.0000000180025095e-35 37.500000000000007 1.0000000180025095e-35 2.5000000000000004 24.500000000000004
decision_type=2 2 2 2 2 2 2 2 2 2 2 2 2 2
left_child=2 3 -1 -2 10 6 -4 -8 9 -3 12 13 -5 -6
right_child=1 8 5 4 11 -7 7 -9 -10 -11 -12 -13 -14 -15
leaf_value=-0.04757075378181605 -0.031255491887880418 0.055205655634802925 -0.04933248957950101 0.02644967695074938 0.046416852223430539 -0.035581256600393837 0.01976651741390326 -0.014339091734567353 0.064691790501828481 0.030471808996203942 -0.013454357506407374 0.017845942204147137 0.0069291098278896597 0.028162335719556952
leaf_weight=1395.1243247184902 89.809095935896039 305.32781778275967 41.154359578154981 208.21430399641395 214.04984055459499 396.9310655426234 112.73343895375729 141.28294344060123 331.60382111370564 193.71290979534388 111.9994897171855 351.73964400589466 500.86360237374902 329.9562648832798
leaf_count=150054 5244 1495 3859 3043 883 36028 4075 8043 1728 878 2870 2473 8396 1441
internal_value=0 0.0282031 -0.039439 0.0166989 0.0192075 -0.0230473 -0.00619224 0.000797108 0.0532245 0.0456047 0.00909885 0.0284735 0.0126611 0.0353449
internal_weight=0 2637.28 2087.23 1806.63 1716.82 692.102 295.171 254.016 830.645 499.041 821.077 895.746 709.078 544.006
internal_count=230510 28451 202059 24350 19106 52005 15977 12118 4101 2373 14309 4797 11439 2324
is_linear=0
shrinkage=0.05


Tree=27
num_leaves=15
num_cat=0
split_feature=4 4 4 0 4 2 0 4 2 1 1 2 1 2
split_gain=1977.22 288.981 112.116 78.944 58.1709 56.2854 33.9674 29.4554 28.4587 26.1811 25.5313 25.1668 18.5537 16.5454
threshold=8.5000000000000018 14.500000000000002 5.5000000000000009 1.0000000180025095e-35 11.500000000000002 1.0000000180025095e-35 1.0000000180025095e-35 17.500000000000004 1.0000000180025095e-35 26.500000000000004 30.500000000000004 1.0000000180025095e-35 25.500000000000004 1.0000000180025095e-35
decision_type=2 2 2 2 2 2 2 2 2 2 2 2 2 2
left_child=2 3 -1 -2 11 6 -4 8 -3 -8 13 -5 -13 -6
right_child=1 7 5 4 10 -7 9 -9 -10 -11 -12 12 -14 -15
leaf_value=-0.04740996661333103 -0.030595816190432445 0.053672268610101249 -0.049246031565752531 0.015796271248076164 0.039556157640786314 -0.035030587612629775 0.018430919485901597 0.063462314189097285 0.02904006499126557 -0.013815066209780439 0.014845726212018007 0.013068617630532018 -0.011168373312889373 0.022677745669413281
leaf_weight=1331.4718765374273 87.224505230784416 298.52246917784214 39.214250919409096 490.97520415484905 364.15496823191643 383.35872881487012 114.80222977418453 321.38629288971424 193.115627810359 139.35991288162768 292.90625221282244 127.23015240952373 208.13104881905019 241.47878205776215
leaf_count=150054 5244 1495 3859 4795 1510 36028 4075 1728 878 8043 1835 2893 6621 1452
internal_value=0 0.0269247 -0.0389874 0.0158127 0.0181596 -0.0224161 -0.00593266 0.0516914 0.0439967 0.000750089 0.026965 0.00858466 -0.00197328 0.0328264
internal_weight=0 2625.13 2008.21 1812.1 1724.88 676.735 293.376 813.024 491.638 254.162 898.54 826.336 335.361 605.634
internal_count=230510 28451 202059 24350 19106 52005 15977 4101 2373 12118 4797 14309 9514 2962
is_linear=0
shrinkage=0.05


Tree=28
num_leaves=15
num_cat=0
split_feature=4 4 4 0 2 4 0 0 1 4 1 1 2 2
split_gain=1833.68 274.881 112.825 71.7406 54.0948 52.5622 32.4027 30.1666 24.3709 23.9743 23.7195 23.5899 22.1684 21.1649
threshold=8.5000000000000018 14.500000000000002 5.5000000000000009 1.0000000180025095e-35 1.0000000180025095e-35 11.500000000000002 1.0000000180025095e-35 1.0000000180025095e-35 38.500000000000007 17.500000000000004 20.500000000000004 30.500000000000004 1.0000000180025095e-35 1.0000000180025095e-35
decision_type=2 2 2 2 2 2 2 2 2 2 2 2 2 2
left_child=2 3 -1 -2 6 10 -4 -3 13 12 -5 -8 -9 -7
right_child=1 7 4 5 -6 8 11 9 -10 -11 -12 -13 -14 -15
leaf_value=-0.047244016041424461 -0.029932609595958639 -0.0052491028079838901 -0.049157960249415003 0.026171774055044179 -0.034470346684242571 0.034769658994942866 0.012478420290500903 0.053526781890033598 0.00037804592690926367 0.062832581767303788 0.0041564664259130385 -0.018994141099844142 0.031183276995940042 0.018292987893807969
leaf_weight=1270.8733562082052 84.762451767921448 23.773700505495071 37.366913747042418 149.10725320130587 370.43998726457357 491.00740575790405 159.17539458721876 284.47301375865936 86.931672111153603 305.11831748485565 681.73406181298196 95.117732322774827 182.05922991037369 323.19050353765488
leaf_count=150054 5244 149 3859 1694 36028 2079 6363 1455 586 1703 12615 5755 794 2132
internal_value=0 0.0257131 -0.0385249 0.0149807 -0.021789 0.0171788 -0.00568231 0.0502257 0.0255425 0.0519348 0.00810745 0.000706184 0.0448075 0.0282294
internal_weight=0 2612.16 1932.97 1816.73 662.1 1731.97 291.66 795.424 901.13 771.651 830.841 254.293 466.532 814.198
internal_count=230510 28451 202059 24350 52005 19106 15977 4101 4797 3952 14309 12118 2249 4211
is_linear=0
shrinkage=0.05


Tree=29
num_leaves=15
num_cat=0
split_feature=4 4 4 0 2 4 0 4 2 1 1 1 0 1
split_gain=1700.88 262.023 113.415 65.2226 51.9214 47.595 30.9038 30.3667 27.5319 22.3478 22.3142 21.8071 17.3727 16.2803
threshold=8.5000000000000018 14.500000000000002 5.5000000000000009 1.0000000180025095e-35 1.0000000180025095e-35 11.500000000000002 1.0000000180025095e-35 17.500000000000004 1.0000000180025095e-35 32.500000000000007 30.500000000000004 26.500000000000004 2.5000000000000004 26.500000000000004
decision_type=2 2 2 2 2 2 2 2 2 2 2 2 2 2
left_child=2 3 -1 -2 6 9 -4 8 -3 12 -7 -8 -5 -10
right_child=1 7 4 5 -6 10 11 -9 13 -11 -12 -13 -14 -15
leaf_value=-0.047072601822845644 -0.029266496266842176 0.050878657805828453 -0.049068072115669388 0.025295194168624219 -0.033900864605702651 0.029698953407386215 0.01639150320576192 0.061305979512616321 0.041696575059404863 -0.0061246721933794551 0.012953121272777 -0.012960192207946454 0.0070119960490812499 0.012502095955183978
leaf_weight=1213.1846828442067 82.417310341261327 284.60602961480618 35.607998261228204 185.75793697312474 358.14394870400429 607.20809350907803 118.10662728734314 300.97097603976727 90.890888728201389 217.60658893920481 295.86416024714708 136.32051533088088 432.29636212065816 100.61493743956089
leaf_count=150054 5244 1495 3859 2410 36028 2962 4075 1728 422 5359 1835 8043 6540 456
internal_value=0 0.0245669 -0.0380512 0.0141949 -0.0211661 0.016255 -0.00544076 0.0488744 0.0410158 0.00765535 0.0242127 0.000665043 0.0125071 0.0263581
internal_weight=0 2598.23 1861.36 1821.15 648.179 1738.73 290.035 777.083 476.112 835.661 903.072 254.427 618.054 191.506
internal_count=230510 28451 202059 24350 52005 19106 15977 4101 2373 14309 4797 12118 8950 878
is_linear=0
shrinkage=0.05


Tree=30
num_leaves=15
num_cat=0
split_feature=4 4 4 2 2 0 4 0 4 0 1 2 1 1
split_gain=1577.32 249.46 113.867 63.4496 49.7649 40.3534 30.6701 29.4677 29.3829 27.204 22.9764 21.4867 19.9987 16.1855
threshold=8.5000000000000018 14.500000000000002 5.5000000000000009 1.0000000180025095e-35 1.0000000180025095e-35 1.0000000180025095e-35 17.500000000000004 1.0000000180025095e-35 11.500000000000002 1.0000000180025095e-35 30.500000000000004 1.0000000180025095e-35 30.500000000000004 24.500000000000004
decision_type=2 2 2 2 2 2 2 2 2 2 2 2 2 2
left_child=2 3 -1 8 7 -5 9 -4 -2 -3 -7 -11 -9 -10
right_child=1 6 4 5 -6 10 -8 12 13 11 -12 -13 -14 -15
leaf_value=-0.046895426866331663 0.012718869546477891 -0.020723304563262577 -0.04897616186201767 -0.038534074876540682 -0.033322523148832398 0.012315308595764414 0.060289871093931961 0.011192991979476069 0.040145105425139466 0.050934937308401387 -0.0065742763538236331 0.028641031249520804 -0.017962942752774682 0.022547233698072468
leaf_weight=1158.2682738723233 514.03921393863857 17.960174694657326 33.933354688808322 55.754475804045796 346.44112380966544 456.42962314374745 290.99474281072617 162.28743110224605 212.71406178176403 270.50513489544392 248.69675811938941 179.99306690692902 92.246226027607918 338.72701678052545
leaf_count=150054 6120 124 3859 3646 36028 6456 1728 6363 952 1455 5531 794 5755 1645
internal_value=0 0.0234578 -0.037567 0.0134433 -0.020549 0.00241513 0.047541 -0.00520842 0.0213188 0.0396218 0.00565299 0.0420276 0.000626511 0.0293355
internal_weight=0 2585.81 1793.18 1826.36 634.908 760.881 759.453 288.467 1065.48 468.458 705.126 450.498 254.534 551.441
internal_count=230510 28451 202059 24350 52005 15633 4101 15977 8717 2373 11987 2249 12118 2597
is_linear=0
shrinkage=0.05


Tree=31
num_leaves=15
num_cat=0
split_feature=4 4 0 4 4 1 0 2 2 2 1 1 1 0
split_gain=1465.96 289.257 81.7609 52.7526 49.0759 42.4652 37.6705 33.0404 26.5657 26.1388 23.8949 17.8111 15.349 14.7485
threshold=7.5000000000000009 13.500000000000002 1.0000000180025095e-35 16.500000000000004 5.5000000000000009 20.500000000000004 2.5000000000000004 1.0000000180025095e-35 1.0000000180025095e-35 1.0000000180025095e-35 25.500000000000004 34.500000000000007 35.500000000000007 1.0000000180025095e-35
decision_type=2 2 2 2 2 2 2 2 2 2 2 2 2 2
left_child=4 2 -2 7 -1 -4 12 -3 10 -8 13 -9 -7 -6
right_child=1 3 5 -5 8 6 9 11 -10 -11 -12 -13 -14 -15
leaf_value=-0.046712199296784489 -0.036488661987266517 0.04214334938366688 0.027684867987283431 0.055527514793530734 -0.050449567451186041 0.024599437088254645 0.0081774717826122566 0.02561380457706838 -0.036817262331780558 -0.0083800732861272747 -0.02575326124078205 -0.0058195170869210491 -4.4210217980318087e-05 0.023290024138385292
leaf_weight=1105.9929751586169 98.655606463551521 356.10256135463715 291.79767001792789 392.92849606275558 7.7605575695633879 318.31262140907347 589.12564025074244 212.03256936371326 238.43510495126247 400.33610271476209 98.395998241379857 57.229786902666092 78.832399683073163 53.715106657706201
leaf_count=150054 8241 1789 3276 2342 883 4530 6061 972 27218 11874 8472 304 1830 2664
internal_value=0 0.019923 0.00774769 0.0411705 -0.0412926 0.0103479 0.00669948 0.0321497 -0.0262437 0.00147829 -0.0104741 0.0189329 0.0197077 0.0139813
internal_weight=0 2795.35 1777.06 1018.29 1504.3 1678.4 1386.61 625.365 398.307 989.462 159.872 269.262 397.145 61.4757
internal_count=230510 41219 35812 5407 189291 27571 24295 3065 39237 17935 12019 1276 6360 3547
is_linear=0
shrinkage=0.05


Tree=32
num_leaves=15
num_cat=0
split_feature=4 4 0 4 4 1 4 2 2 1 0 2 1 4
split_gain=1365.69 270.564 75.3992 52.7159 49.6798 37.4966 36.7105 31.4692 25.7997 22.0389 20.4445 18.9257 16.2351 13.9142
threshold=7.5000000000000009 13.500000000000002 1.0000000180025095e-35 16.500000000000004 5.5000000000000009 20.500000000000004 10.500000000000002 1.0000000180025095e-35 1.0000000180025095e-35 25.500000000000004 2.5000000000000004 1.0000000180025095e-35 22.500000000000004 12.500000000000002
decision_type=2 2 2 2 2 2 2 2 2 2 2 2 2 2
left_child=4 2 13 7 -1 -4 11 -3 9 -6 -8 -7 -9 -2
right_child=1 3 5 -5 8 6 10 12 -10 -11 -12 -13 -14 -15
leaf_value=-0.046522615306782672 -0.041475069854380126 0.040713457146015264 0.025954667206408596 0.054471934635304212 0.013086196640806003 0.0045480589151766105 0.025859077825283551 0.037917025436272331 -0.036298957705847026 -0.025103856452308688 0.0082244897255281304 -0.013483948873285648 0.010422300580150822 0.03018865483583448
leaf_weight=1056.2335020136088 87.872893864288926 350.32762210071087 295.58615932334214 380.82415775954723 62.306628601625562 347.02872517332435 232.60024239867926 74.052578121423721 229.96375430747867 95.957114856690168 560.18118039146066 250.58850404899567 195.25929999351501 7.3389931581914416
leaf_count=150054 7971 1789 3276 2342 3547 5896 1602 331 27218 8472 4219 12578 945 270
internal_value=0 0.0190248 0.00733792 0.0398317 -0.0409009 0.00978257 0.00634452 0.030834 -0.0256061 -0.0100689 0.0133984 -0.00301299 0.0179825 -0.0359512
internal_weight=0 2781.66 1781.2 1000.46 1444.46 1685.98 1390.4 619.64 388.227 158.264 792.781 597.617 269.312 95.2119
internal_count=230510 41219 35812 5407 189291 27571 24295 3065 39237 12019 5821 18474 1276 8241
is_linear=0
shrinkage=0.05


Tree=33
num_leaves=15
num_cat=0
split_feature=4 4 0 4 4 4 0 1 2 0 2 1 1 2
split_gain=1272.47 253.134 75.5072 50.2432 49.8846 31.5445 26.0494 25.9222 25.0283 21.5384 20.7145 20.3393 18.989 17.2214
threshold=7.5000000000000009 14.500000000000002 1.0000000180025095e-35 5.5000000000000009 11.500000000000002 17.500000000000004 1.0000000180025095e-35 37.500000000000007 1.0000000180025095e-35 2.5000000000000004 1.0000000180025095e-35 25.500000000000004 38.500000000000007 1.0000000180025095e-35
decision_type=2 2 2 2 2 2 2 2 2 2 2 2 2 2
left_child=3 2 -2 -1 7 6 -3 9 11 -4 -8 -5 13 -6
right_child=1 5 4 8 12 -7 10 -9 -10 -11 -12 -13 -14 -15
leaf_value=-0.046326375048233247 -0.032223427461853499 -0.022569443517524827 0.019092989176077241 0.012273212710061309 0.028528242453618381 0.057666656456485166 0.047560991749975738 -0.016039965072309075 -0.035770088794298598 0.0022013063426588597 0.025191313343801959 -0.024455338452836567 -0.0019839762633339364 0.013768017408053283
leaf_weight=1008.8703693179414 103.95030385814607 18.305988542735577 267.08805531729013 63.091280285269022 482.58732655644417 263.31338351964951 251.06045544147491 138.7868456505239 221.90137275308371 643.12547214142978 176.06385508179665 93.636453483253717 87.815327003598213 334.65357483923435
leaf_count=150054 8374 124 4960 3547 2079 1728 1455 4838 27218 14149 794 8472 586 2132
internal_value=0 0.0181756 0.00930032 -0.0404975 0.0115093 0.0439471 0.0358368 0.00408874 -0.0249664 0.00715791 0.03834 -0.00967014 0.02011 0.022484
internal_weight=0 2766.75 2058.01 1387.5 1954.06 708.744 445.43 1049 378.629 910.214 427.124 156.728 905.056 817.241
internal_count=230510 41219 37118 189291 28744 4101 2373 23947 39237 19109 2249 12019 4797 4211
is_linear=0
shrinkage=0.05


Tree=34
num_leaves=15
num_cat=0
split_feature=4 4 0 4 4 4 2 0 1 2 1 0 1 4
split_gain=1185.93 239.088 69.2797 50.7534 45.1053 31.5874 24.9931 24.871 23.6498 22.4859 19.4418 18.6204 17.2248 15.4282
threshold=7.5000000000000009 14.500000000000002 1.0000000180025095e-35 5.5000000000000009 11.500000000000002 17.500000000000004 1.0000000180025095e-35 1.0000000180025095e-35 36.500000000000007 1.0000000180025095e-35 25.500000000000004 2.5000000000000004 24.500000000000004 11.500000000000002
decision_type=2 2 2 2 2 2 2 2 2 2 2 2 2 2
left_child=3 2 13 -1 8 6 -3 -5 11 10 -9 -4 -6 -2
right_child=1 5 4 7 12 -7 -8 9 -10 -11 -12 -13 -14 -15
leaf_value=-0.046123176766326685 -0.043156183813005594 0.044924958353895705 0.01817789229053185 -0.049744844256079078 0.027710343213308616 0.056835198196423332 0.020747656185333654 0.019857914637536805 -0.013877485519949655 -0.030237841648943133 -0.018947977289440643 0.002356452540620941 0.01357518013797269 0.0014802924259678506
leaf_weight=963.78975177370012 74.690751118585467 252.01405890285969 264.13193484768271 76.355444828048348 353.56896550953388 254.04269786179066 185.62442746758461 56.264128856360912 159.26452836580575 161.16907326970249 75.703976273536682 628.42068187706172 551.99901250749826 26.131499622017145
leaf_count=150054 7470 1495 4769 9751 1655 1728 878 2664 5555 20414 6408 13623 3142 904
internal_value=0 0.0173788 0.00883212 -0.0400829 0.0109141 0.042811 0.0346702 -0.0243275 0.00387141 -0.0177069 -0.00240322 0.00703847 0.0190941 -0.0315871
internal_weight=0 2749.89 2058.21 1333.28 1957.39 691.681 437.638 369.493 1051.82 293.137 131.968 892.553 905.568 100.822
internal_count=230510 41219 37118 189291 28744 4101 2373 39237 23947 29486 9072 18392 4797 8374
is_linear=0
shrinkage=0.05


Tree=35
num_leaves=15
num_cat=0
split_feature=4 4 0 4 4 4 0 0 2 2 2 0 2 1
split_gain=1104.97 225.324 63.6093 51.193 40.6457 31.8181 24.6193 24.3935 23.2218 21.3427 19.901 17.7965 17.7053 17.5782
threshold=7.5000000000000009 14.500000000000002 1.0000000180025095e-35 5.5000000000000009 11.500000000000002 17.500000000000004 1.0000000180025095e-35 1.0000000180025095e-35 1.0000000180025095e-35 1.0000000180025095e-35 1.0000000180025095e-35 1.5000000000000002 1.0000000180025095e-35 25.500000000000004
decision_type=2 2 2 2 2 2 2 2 2 2 2 2 2 2
left_child=3 2 -2 -1 8 7 -5 -3 11 13 -9 -4 -6 -8
right_child=1 5 4 6 12 -7 9 10 -10 -11 -12 -13 -14 -15
leaf_value=-0.045912723405213844 -0.030981168278280541 -0.022906433871079535 0.042103370115075582 -0.049692580385567037 0.023975703555004849 0.056039485145867041 0.018502681240609529 0.04537580718906789 -0.0055172465243726199 -0.029616671879138891 0.023141918766668358 0.0075119178745752333 0.0097984162116666121 -0.018344926988607523
leaf_weight=920.88285503536463 97.763004804961383 18.368355847895145 39.646038889884949 72.706028426997364 531.41011239588261 244.99717240035534 57.337242624722421 238.21914348006248 416.46714680083096 156.44311636500061 174.26851598918438 598.33133841119707 376.06246258318424 74.318830192089081
leaf_count=150054 8374 124 423 9751 2324 1728 2664 1455 16106 20414 794 7418 2473 6408
internal_value=0 0.0166015 0.00838141 -0.0396579 0.0103429 0.0416526 -0.0236935 0.0334718 0.00366648 -0.0171323 0.0359824 0.00966155 0.0181005 -0.00229751
internal_weight=0 2735.53 2059.68 1281.69 1961.92 675.853 360.805 430.856 1054.44 288.099 412.488 637.977 907.473 131.656
internal_count=230510 41219 37118 189291 28744 4101 39237 2373 23947 29486 2249 7841 4797 9072
is_linear=0
shrinkage=0.05


Tree=36
num_leaves=15
num_cat=0
split_feature=4 4 4 0 4 1 0 1 2 2 1 0 2 4
split_gain=1029.75 213.997 69.778 55.2532 51.574 27.8592 24.342 22.0704 20.3888 20.2324 16.2519 15.5007 15.1204 12.871
threshold=7.5000000000000009 15.500000000000002 11.500000000000002 1.0000000180025095e-35 5.5000000000000009 24.500000000000004 1.0000000180025095e-35 19.500000000000004 1.0000000180025095e-35 1.0000000180025095e-35 29.500000000000004 1.0000000180025095e-35 1.0000000180025095e-35 17.500000000000004
decision_type=2 2 2 2 2 2 2 2 2 2 2 2 2 2
left_child=4 2 3 -2 -1 -4 -6 -5 -9 10 -8 -3 -7 -13
right_child=1 11 5 7 6 12 9 8 -10 -11 -12 13 -14 -15
leaf_value=-0.045694704821451604 -0.042564030552780421 -0.0041922831337798568 0.02827802007789651 0.022143149233296924 -0.049639637997251296 0.018388184225230413 0.012108029960599417 0.0067438913267924413 -0.00846650810672934 -0.0289904861801237 -0.02382006761889513 0.039622630307699094 0.0034018556027179772 0.056346068449193799
leaf_weight=880.04619520716369 69.455752179957926 14.691765025258062 428.62880381941795 137.68253234401345 69.23203410115093 397.66370015498251 79.059934553690255 552.3620826471597 366.50279911328107 151.94652990344912 52.29591307695955 230.25204047560692 291.8265730291605 229.96322220563889
leaf_count=150054 7470 71 2245 1971 9751 1994 4279 7141 14835 20414 4793 1367 2422 1703
internal_value=0 0.0158731 0.00942031 0.000634527 -0.0392214 0.018268 -0.0230618 0.00347433 0.000676999 -0.0165669 -0.00219581 0.0463651 0.0120452 0.0479791
internal_weight=0 2719.03 2244.12 1126 1232.58 1118.12 352.534 1056.55 918.865 283.302 131.356 474.907 689.49 460.215
internal_count=230510 41219 38078 31417 189291 6661 39237 23947 21976 29486 9072 3141 4416 3070
is_linear=0
shrinkage=0.05


Tree=37
num_leaves=15
num_cat=0
split_feature=4 4 4 4 0 2 1 0 2 1 4 4 2 1
split_gain=959.431 203.168 63.7788 51.896 46.2836 30.3622 25.7883 24.0407 19.1562 17.1617 17.963 15.2363 15.215 15.0179
threshold=7.5000000000000009 15.500000000000002 10.500000000000002 5.5000000000000009 1.0000000180025095e-35 1.0000000180025095e-35 19.500000000000004 1.0000000180025095e-35 1.0000000180025095e-35 36.500000000000007 12.500000000000002 17.500000000000004 1.0000000180025095e-35 23.500000000000004
decision_type=2 2 2 2 2 2 2 2 2 2 2 2 2 2
left_child=3 2 4 -1 -2 9 -6 -5 13 10 -4 -3 -8 -9
right_child=1 11 5 7 6 -7 12 8 -10 -11 -12 -13 -14 -15
leaf_value=-0.045468818908573599 -0.045316427679043036 0.03642628099686316 0.016267752447999804 -0.049585889885869566 0.025116767858924097 0.0066804290205581228 0.0036759354090521259 0.022181937275704319 -0.028359963204050133 0.0036982668787694296 0.032031661825146718 0.054603457528703173 -0.012055947574279545 -0.013895501621206653
leaf_weight=841.18096997402608 58.337993551045656 233.7390569075942 357.70781996287405 65.925151240080595 95.99374895170331 608.58332788851112 380.46034883148968 42.861035266891122 147.66833955049515 118.43118376657367 365.22322168946266 227.47902800142765 257.85663776472211 88.211861180141568
leaf_count=150054 6603 1413 1978 9751 1700 6022 6122 1921 20414 782 1831 1728 13040 7151
internal_value=0 0.015169 0.0089533 -0.0387734 -0.00245099 0.0151877 0.000954493 -0.0224328 -0.0160108 0.0213413 0.0242316 0.0453915 -0.00267917 -0.00209812
internal_weight=0 2703.81 2242.59 1185.85 792.649 1449.95 734.311 344.666 278.741 841.362 722.931 461.218 638.317 131.073
internal_count=230510 41219 38078 189291 27465 10613 20862 39237 29486 4591 3809 3141 19162 9072
is_linear=0
shrinkage=0.05


Tree=38
num_leaves=15
num_cat=0
split_feature=4 4 0 4 4 1 0 1 2 2 0 1 4 4
split_gain=893.878 192.274 59.0514 52.155 47.4917 25.3235 23.716 21.608 20.8984 18.1146 15.6219 14.1761 13.4713 12.9812
threshold=7.5000000000000009 15.500000000000002 1.0000000180025095e-35 5.5000000000000009 12.500000000000002 26.500000000000004 1.0000000180025095e-35 20.500000000000004 1.0000000180025095e-35 1.0000000180025095e-35 1.0000000180025095e-35 29.500000000000004 17.500000000000004 10.500000000000002
decision_type=2 2 2 2 2 2 2 2 2 2 2 2 2 2
left_child=3 2 13 -1 7 -6 -5 -4 -9 11 -3 -8 -12 -2
right_child=1 10 4 6 5 -7 9 8 -10 -11 12 -13 -14 -15
leaf_value=-0.045234771553975608 -0.045062038912894412 -0.006153610364024736 0.018023145799748279 -0.049531205075889095 0.030326856616360628 0.01174870581849694 0.011028837000507326 0.0073749531043016724 -0.0064383551424806165 -0.027725817330815195 0.037449660850661808 -0.022793284694847142 0.05507719566697386 -0.0088152779982158033
leaf_weight=804.19298872724175 55.798278586473316 14.787952989339827 255.7333273049444 62.777451595757157 348.99826674163342 386.62721480429173 80.397958877496421 697.46338551864028 450.78865476232022 143.59807962086052 220.71740789711475 50.403811414726079 212.96011660248041 44.321618729270995
leaf_count=150054 6603 71 3055 9751 1637 1913 4279 7644 15377 20414 1367 4793 1703 1849
internal_value=0 0.0144989 0.00851524 -0.038314 0.0102715 0.0205626 -0.0218075 0.00487935 0.00195203 -0.0154648 0.0443825 -0.00200435 0.0461058 -0.0290161
internal_weight=0 2688.2 2239.73 1141.37 2139.61 735.625 337.177 1403.99 1148.25 274.4 448.465 130.802 433.678 100.12
internal_count=230510 41219 38078 189291 29626 3550 39237 26076 23021 29486 3141 9072 3070 8452
is_linear=0
shrinkage=0.05


Tree=39
num_leaves=15
num_cat=0
split_feature=4 4 0 4 4 1 0 0 2 1 2 1 1 2
split_gain=832.635 182.308 54.1469 52.3484 43.1754 23.3737 23.3689 19.6628 17.1082 16.5268 16.1484 16.2616 13.3765 12.9994
threshold=7.5000000000000009 15.500000000000002 1.0000000180025095e-35 5.5000000000000009 12.500000000000002 23.500000000000004 1.0000000180025095e-35 2.5000000000000004 1.0000000180025095e-35 20.500000000000004 1.0000000180025095e-35 38.500000000000007 42.500000000000007 1.0000000180025095e-35
decision_type=2 2 2 2 2 2 2 2 2 2 2 2 2 2
left_child=3 2 -2 -1 7 -6 -5 -4 -8 -9 -3 -12 -7 -11
right_child=1 10 4 6 5 12 8 9 -10 13 11 -13 -14 -15
leaf_value=-0.044992269578912801 -0.028370428562353535 0.050830753154709279 0.013838007278683001 -0.049475454040286922 0.032467863864357176 0.015595407406483073 -0.0019145866346759516 0.014578561185967467 -0.027088786257581012 0.0028614683050074453 0.036056665875952014 -0.017928981484527155 -0.017364615198619687 -0.010064481132852535
leaf_weight=768.99246294144541 97.377870588563383 274.33027572929859 410.21323822252452 59.781371192540973 237.91644126176834 462.92152360081673 130.54169010277838 179.31284947134554 139.72577223554254 498.36036900989711 145.79015572369099 15.424948908388613 32.975651793181896 319.02091126702726
leaf_count=150054 8452 2101 6781 9751 1123 2248 9072 2244 20414 5635 957 83 179 11416
internal_value=0 0.0138535 0.00809381 -0.0378433 0.00975251 0.0195846 -0.0211867 0.00462427 -0.0149294 0.000832137 0.0434503 0.0308914 0.0134037 -0.00218348
internal_weight=0 2673.64 2238.1 1099.04 2140.72 733.814 330.049 1406.91 270.267 996.694 435.545 161.215 495.897 817.381
internal_count=230510 41219 38078 189291 29626 3550 39237 26076 29486 19295 3141 1040 2427 17051
is_linear=0
shrinkage=0.05


Tree=40
num_leaves=15
num_cat=0
split_feature=4 4 4 4 0 2 0 1 4 2 1 4 2 2
split_gain=775.389 172.454 52.4889 51.1733 39.3875 26.7234 23.0055 20.6682 16.5263 16.1463 14.7936 15.4477 13.5303 13.4904
threshold=7.5000000000000009 15.500000000000002 5.5000000000000009 10.500000000000002 1.0000000180025095e-35 1.0000000180025095e-35 1.0000000180025095e-35 18.500000000000004 17.500000000000004 1.0000000180025095e-35 36.500000000000007 12.500000000000002 1.0000000180025095e-35 1.0000000180025095e-35
decision_type=2 2 2 2 2 2 2 2 2 2 2 2 2 2
left_child=2 3 -1 4 -2 10 -4 -6 13 -8 11 -5 -9 -3
right_child=1 8 6 5 7 -7 9 12 -10 -11 -12 -13 -14 -15
leaf_value=-0.044741003194615457 -0.044628450758422158 0.043473040181957467 -0.049418508178462606 0.014528554712966111 0.028073352063166031 0.0053511713731655211 -0.0018223028565359295 0.0035844247867702472 0.05271879714749135 -0.026449622589418548 0.0027717251372376666 0.02922836820816295 -0.010883446329882161 0.018321622468234915
leaf_weight=735.4938664259389 51.911582437809557 127.44376862049103 56.929694761522114 359.96407169755548 61.941653868183494 611.62012401968241 130.30115985311568 411.27111567556858 204.35190942138433 136.04192264657468 118.77735291048884 354.96111646294594 266.19129355344921 91.656505472958088
leaf_count=150054 6603 919 9751 1978 1058 6022 9072 6342 1728 20414 782 1831 13462 494
internal_value=0 0.0132322 -0.0373603 0.00769282 -0.00252836 0.0132889 -0.020568 0.000427373 0.0424909 -0.0144014 0.0191122 0.021827 -0.00210035 0.0329514
internal_weight=0 2660.09 1058.77 2236.64 791.316 1445.32 323.273 739.404 423.452 266.343 833.703 714.925 677.462 219.1
internal_count=230510 41219 189291 38078 27465 10613 39237 20862 3141 29486 4591 3809 19804 1413
is_linear=0
shrinkage=0.05


Tree=41
num_leaves=15
num_cat=0
split_feature=4 4 4 0 4 0 1 0 4 2 1 1 1 2
split_gain=722.087 163.039 52.5606 46.5287 36.636 22.6221 21.468 17.4944 16.7954 18.2117 16.0725 14.0936 14.0207 13.008
threshold=7.5000000000000009 15.500000000000002 5.5000000000000009 1.0000000180025095e-35 12.500000000000002 1.0000000180025095e-35 26.500000000000004 2.5000000000000004 18.500000000000004 1.0000000180025095e-35 29.500000000000004 29.500000000000004 20.500000000000004 1.0000000180025095e-35
decision_type=2 2 2 2 2 2 2 2 2 2 2 2 2 2
left_child=2 3 -1 -2 7 -4 -6 -5 9 -3 13 -11 -9 -7
right_child=1 8 5 4 6 10 -8 12 -10 11 -12 -13 -14 -15
leaf_value=-0.044480696255129876 -0.027294992106965805 0.044922245886215295 -0.049360229697541336 0.012763478657381332 0.027034373981819671 0.010589003342635206 0.0098357769380065362 0.013091936575790495 0.055910409988315618 0.032509729335751247 -0.027565464574828599 -0.0045341158208464134 -0.0022593286414410237 -0.019636230603110691
leaf_weight=703.61565582733601 93.045843010768294 165.53128053992987 54.215544983744621 414.15725525096059 342.81985825300217 80.959538326598704 385.45589460432529 181.89748747088015 136.40657648444176 68.622338190674782 118.12070845020935 41.027165196835995 815.91460612975061 63.529844310600311
leaf_count=150054 8452 1290 9751 6781 1637 4279 1913 2244 1204 426 15422 221 17051 9785
internal_value=0 0.0126475 -0.0368661 0.00731815 0.00882293 -0.0199553 0.0179316 0.00412478 0.0415646 0.0344534 -0.0138847 0.0186492 0.000539151 -0.00270058
internal_weight=0 2644.88 1020.44 2233.29 2140.25 316.826 728.276 1411.97 411.587 275.181 262.61 109.65 997.812 144.489
internal_count=230510 41219 189291 38078 29626 39237 3550 26076 3141 1937 29486 647 19295 14064
is_linear=0
shrinkage=0.05


Tree=42
num_leaves=15
num_cat=0
split_feature=4 4 4 4 0 2 0 1 4 2 1 4 0 1
split_gain=672.206 154.236 52.5485 43.9255 35.7517 24.7335 22.2156 18.0263 16.8939 17.6885 15.1626 13.6381 13.5247 13.049
threshold=7.5000000000000009 15.500000000000002 5.5000000000000009 10.500000000000002 1.0000000180025095e-35 1.0000000180025095e-35 1.0000000180025095e-35 30.500000000000004 18.500000000000004 1.0000000180025095e-35 29.500000000000004 13.500000000000002 2.5000000000000004 29.500000000000004
decision_type=2 2 2 2 2 2 2 2 2 2 2 2 2 2
left_child=2 3 -1 4 -2 11 -4 -6 9 -3 -8 12 -5 -11
right_child=1 8 6 5 7 -7 10 -9 -10 13 -12 -13 -14 -15
leaf_value=-0.044211058678330868 -0.044176181959978245 0.044043437213438494 -0.049300485293695517 0.024897478784954269 0.0057414630195396187 0.0045428670267679662 -0.0025783037182124068 -0.010759152652464535 0.055401614926602651 0.03144423848973877 -0.026925834297339121 0.028071031581624425 0.0086796325563101087 -0.0043004917470605411
leaf_weight=673.28020075522363 48.363273886032403 160.52054327726364 51.632361317519099 187.5503299953416 492.21499686222523 614.39585827663541 144.09211911866441 249.37685914617032 130.91544192284346 67.431023180484772 114.96156872389838 231.92576453834772 408.65934324264526 41.091477133333683
leaf_count=150054 6603 1290 9751 1337 11090 6022 14064 9772 1204 426 15422 1280 1974 221
internal_value=0 0.0120766 -0.0363619 0.00695391 -0.00252363 0.012144 -0.0193522 0.000192762 0.0406702 0.033502 -0.0133831 0.0177832 0.0137813 0.0179097
internal_weight=0 2632.44 983.966 2232.49 789.955 1442.53 310.686 741.592 399.958 269.043 259.054 828.135 596.21 108.523
internal_count=230510 41219 189291 38078 27465 10613 39237 20862 3141 1937 29486 4591 3311 647
is_linear=0
shrinkage=0.05


Tree=43
num_leaves=15
num_cat=0
split_feature=4 4 0 1 4 2 4 0 1 0 1 4 0 4
split_gain=626.582 160.789 53.186 36.545 30.9545 24.6101 32.834 24.0513 22.1158 20.771 20.8966 18.9999 17.1661 16.7515
threshold=6.5000000000000009 14.500000000000002 1.0000000180025095e-35 37.500000000000007 17.500000000000004 1.0000000180025095e-35 3.5000000000000004 2.5000000000000004 24.500000000000004 1.0000000180025095e-35 26.500000000000004 9.5000000000000018 1.0000000180025095e-35 10.500000000000002
decision_type=2 2 2 2 2 2 2 2 2 2 2 2 2 2
left_child=5 2 13 7 8 6 -1 -4 -3 -8 -11 -9 -10 -2
right_child=1 4 3 -5 -6 -7 9 11 12 10 -12 -13 -14 -15
leaf_value=-0.046481503549748657 -0.045254901525223899 0.041392832091136471 0.016960398673667106 -0.011763223610607047 0.050863163309064867 -0.04640499430286027 -0.050224279335393279 -0.0051588573991992182 -0.039530505789065216 0.025311350071323263 -0.019351973563370407 0.0082901626592254869 0.019724191225771997 -0.0020316329277502211
leaf_weight=120.47911104466766 68.919211243279278 142.83086340129375 551.99853353435174 261.12537619564682 182.81185675412416 536.28690330823883 26.460705110337585 365.67600638559088 12.923628434538839 44.817935356870294 63.004502713214606 931.73333227261901 225.35067389905453 33.221347413025796
leaf_count=28054 10798 944 8845 8165 1728 120222 5973 17435 92 6151 11690 7305 1337 1771
internal_value=0 0.0101154 0.00404116 0.0057465 0.0339492 -0.0403265 -0.0275311 0.00821877 0.0258358 -0.0105287 -0.000787026 0.00449954 0.0165103 -0.0311965
internal_weight=0 2776.59 2212.67 2110.53 563.917 791.049 254.762 1849.41 381.105 134.283 107.822 1297.41 238.274 102.141
internal_count=230510 58420 54319 41750 4101 172090 51868 33585 2373 23814 17841 24740 1429 12569
is_linear=0
shrinkage=0.05


Tree=44
num_leaves=15
num_cat=0
split_feature=4 4 0 4 2 4 1 0 1 2 4 2 4 1
split_gain=586.032 150.645 55.9809 36.6936 24.9143 32.2727 21.6677 19.9636 18.7648 17.7951 17.0861 17.5184 14.9775 14.3013
threshold=6.5000000000000009 15.500000000000002 1.0000000180025095e-35 11.500000000000002 1.0000000180025095e-35 3.5000000000000004 37.500000000000007 1.0000000180025095e-35 26.500000000000004 1.0000000180025095e-35 18.500000000000004 1.0000000180025095e-35 10.500000000000002 33.500000000000007
decision_type=2 2 2 2 2 2 2 2 2 2 2 2 2 2
left_child=4 2 12 6 5 -1 -4 -7 -9 -5 11 -3 -2 -14
right_child=1 10 3 9 -6 7 -8 8 -10 -11 -12 -13 13 -15
leaf_value=-0.046295490126198817 -0.045008169699297072 0.042559040849980703 0.0032781799453242368 0.019165379916723339 -0.046214757649910045 -0.050213291277414224 -0.016793093146969664 0.023442442866447161 -0.018748671950515869 0.0061508174165073705 0.054477686743356263 0.016038918408095258 0.011138422193551349 -0.053175754401201515
leaf_weight=115.05229612439871 65.908409097697586 151.91867683082819 1056.7258442216553 597.50491762161255 512.17954641673714 25.175571063067764 154.06724867597222 45.941217835992575 61.811186413280666 468.67047483474016 120.8619082570076 105.52412024885416 30.65902887750417 12.037497876211999
leaf_count=28054 10798 1290 29471 2872 120222 5973 7482 6151 11690 2807 1204 647 1225 624
internal_value=0 0.00965609 0.00500758 0.00668037 -0.0399162 -0.0269072 0.000724213 -0.0101262 -0.000760106 0.0134444 0.0389693 0.0316886 -0.0300633 -0.00699377
internal_weight=0 2763.88 2385.57 2276.97 760.16 247.98 1210.79 132.928 107.752 1066.18 378.305 257.443 108.605 42.6965
internal_count=230510 58420 55279 42632 172090 51868 36953 23814 17841 5679 3141 1937 12647 1849
is_linear=0
shrinkage=0.05


Tree=45
num_leaves=15
num_cat=0
split_feature=4 4 0 1 4 2 4 0 4 2 1 2 4 2
split_gain=548.115 141.595 51.6701 33.8259 33.6934 25.193 31.6847 19.1806 17.1841 17.0006 16.8717 14.8109 14.6814 14.2201
threshold=6.5000000000000009 15.500000000000002 1.0000000180025095e-35 37.500000000000007 12.500000000000002 1.0000000180025095e-35 3.5000000000000004 1.0000000180025095e-35 18.500000000000004 1.0000000180025095e-35 26.500000000000004 1.0000000180025095e-35 10.500000000000002 1.0000000180025095e-35
decision_type=2 2 2 2 2 2 2 2 2 2 2 2 2 2
left_child=5 2 12 4 13 6 -1 -8 9 -3 -9 -6 -2 -4
right_child=1 8 3 -5 11 -7 7 10 -10 -11 -12 -13 -14 -15
leaf_value=-0.046102332863417236 -0.044752776063945544 0.041707181803691255 0.0082374950977233807 -0.0099687140984863407 0.0252599312073504 -0.046017270850242202 -0.050202846291922704 0.021752593905424437 0.054023323711494611 0.015358366839251458 -0.018153148041522488 0.0098651055043117129 -0.0067070741615952202 -0.0022503415651743469
leaf_weight=109.88824369665235 63.042879561427981 147.38645228743553 844.08721954002976 278.68092361465096 340.76368542015553 489.23905593715608 23.952600383432582 47.006069306284189 115.90992506593466 104.71126244962215 60.676377453375608 288.50669182837009 42.418291473761201 523.73862728476524
leaf_count=28054 10798 1290 10298 8266 1764 120222 5973 6151 1204 647 11690 1325 1849 20979
internal_value=0 0.00922491 0.0047641 0.00634961 0.00862672 -0.0394944 -0.0262813 -0.00973488 0.0380892 0.0307629 -0.000733298 0.0182017 -0.0294501 0.00422172
internal_weight=0 2749.25 2381.24 2275.78 1997.1 730.762 241.523 131.635 368.008 252.098 107.682 629.27 105.461 1367.83
internal_count=230510 58420 55279 42632 34366 172090 51868 23814 3141 1937 17841 3089 12647 31277
is_linear=0
shrinkage=0.05


Tree=46
num_leaves=15
num_cat=0
split_feature=4 4 0 4 2 4 1 0 0 1 4 1 4 1
split_gain=512.594 132.97 47.6604 31.196 25.4444 31.0717 18.4939 18.4217 17.5584 16.0787 15.4264 15.186 14.3978 13.5931
threshold=6.5000000000000009 15.500000000000002 1.0000000180025095e-35 11.500000000000002 1.0000000180025095e-35 3.5000000000000004 37.500000000000007 1.0000000180025095e-35 1.0000000180025095e-35 23.500000000000004 17.500000000000004 26.500000000000004 10.500000000000002 33.500000000000007
decision_type=2 2 2 2 2 2 2 2 2 2 2 2 2 2
left_child=4 2 12 6 5 -1 -4 -7 -3 -5 -10 -9 -2 -14
right_child=1 8 3 9 -6 7 -8 11 10 -11 -12 -13 13 -15
leaf_value=-0.045901746245264149 -0.044488426312621551 -0.016057945025727213 0.0028828844922688191 0.021124303993485194 -0.045812241885987787 -0.050192915930250818 -0.015852520526763763 0.020219046846472955 0.02975450483622474 0.0080064124929251513 0.051024944198498692 -0.017565997638298889 0.010877191083854001 -0.053015372613356843
leaf_weight=104.97434079600498 60.315689380746335 14.825004264712332 1062.2770521068014 347.23306833207607 467.409458771348 22.788813359802589 150.36085672397166 48.015700174495578 185.681675799191 713.77653799206018 157.58535370230675 59.597238539718091 30.769697877578437 11.411881091073154
leaf_count=28054 10798 71 29471 1718 120222 5973 7482 6151 1367 3961 1703 11690 1225 624
internal_value=0 0.00881511 0.00453466 0.00603817 -0.0390609 -0.0256542 0.000559791 -0.00935486 0.0372183 0.0122995 0.0395192 -0.00070673 -0.028817 -0.00640842
internal_weight=0 2734.24 2376.14 2273.65 702.786 235.376 1212.64 130.402 358.092 1061.01 343.267 107.613 102.497 42.1816
internal_count=230510 58420 55279 42632 172090 51868 36953 23814 3141 5679 3070 17841 12647 1849
is_linear=0
shrinkage=0.05


Tree=47
num_leaves=15
num_cat=0
split_feature=4 4 0 4 1 2 4 0 1 0 4 4 0 1
split_gain=479.207 125.202 38.1843 29.5116 26.1494 25.6672 30.4356 21.3129 21.1721 17.6867 15.547 14.9097 14.212 13.6815
threshold=6.5000000000000009 14.500000000000002 1.0000000180025095e-35 17.500000000000004 37.500000000000007 1.0000000180025095e-35 3.5000000000000004 2.5000000000000004 25.500000000000004 1.0000000180025095e-35 10.500000000000002 9.5000000000000018 1.0000000180025095e-35 26.500000000000004
decision_type=2 2 2 2 2 2 2 2 2 2 2 2 2 2
left_child=5 2 10 8 7 6 -1 -4 -3 -8 -2 -9 -10 -11
right_child=1 3 4 -5 -6 -7 9 11 12 13 -12 -13 -14 -15
leaf_value=-0.045693446024173072 -0.044214828011913399 0.036998916835591991 0.014816125447512585 0.048602295396166464 -0.010492120592305497 -0.045599393841083802 -0.050183473393579148 -0.0054065145986596118 -0.041140432716618908 0.018822728231013431 -0.00099777032358232807 0.0064810590149701726 0.015579928862668688 -0.016987784121632498
leaf_weight=100.29854925815016 57.720233343075961 150.19566062837839 556.75114827835932 157.2652612477541 253.44555879756808 446.63732989737764 21.681365790544078 367.38715384528041 11.691849011927841 48.973115742206573 32.543098604306579 935.19893046468496 199.24862810224295 58.571074173320085
leaf_count=28054 10798 1061 8845 1728 8165 120222 5973 17435 86 6151 1771 7305 1226 11690
internal_value=0 0.00841602 0.00321371 0.0305242 0.0045743 -0.0386159 -0.0250266 0.006628 0.0226517 -0.00898608 -0.0286336 0.00312824 0.0124361 -0.000680512
internal_weight=0 2721.45 2203.05 518.401 2112.78 676.161 229.524 1859.34 361.136 129.226 90.2633 1302.59 210.94 107.544
internal_count=230510 58420 54319 4101 41750 172090 51868 33585 2373 23814 12569 24740 1312 17841
is_linear=0
shrinkage=0.05


Tree=48
num_leaves=15
num_cat=0
split_feature=4 4 0 4 2 4 1 4 2 0 1 2 4 1
split_gain=447.866 117.911 40.651 27.2089 25.8599 29.7781 17.8238 17.5736 17.1385 16.9752 16.2158 16.1596 13.6798 12.7297
threshold=6.5000000000000009 15.500000000000002 1.0000000180025095e-35 12.500000000000002 1.0000000180025095e-35 3.5000000000000004 23.500000000000004 18.500000000000004 1.0000000180025095e-35 1.0000000180025095e-35 20.500000000000004 1.0000000180025095e-35 10.500000000000002 33.500000000000007
decision_type=2 2 2 2 2 2 2 2 2 2 2 2 2 2
left_child=4 2 12 10 5 -1 -5 8 -3 -7 -4 -12 -2 -14
right_child=1 7 3 6 -6 9 -8 -9 -10 -11 11 -13 13 -15
leaf_value=-0.045477144788199184 -0.043931699900220979 0.039652973569066614 0.012460056191076778 0.025170675259954551 -0.045378432689470942 -0.05017449246206012 0.0081577551670386026 0.052864334017135223 0.012420611463255758 -0.00065472370501208329 0.003865411116576531 -0.0076588126468501092 0.010243580979250086 -0.05278620897053074
leaf_weight=95.849412251729518 55.250211274717003 136.17970441281796 288.02693026605994 225.20759384334087 426.8717796173878 20.627550979843363 486.56561837345362 102.75580848008394 100.34949436038733 107.47644859412685 771.80292875878513 502.0748280454427 31.028723896481097 10.798477588221429
leaf_count=28054 10798 1290 4455 1123 120222 5973 2427 1204 647 17841 11250 23377 1225 624
internal_value=0 0.00803081 0.00408536 0.00543823 -0.0381594 -0.0243993 0.0135407 0.0355997 0.0280994 -0.00862849 0.00174586 -0.000676644 -0.0276007 -0.00602874
internal_weight=0 2710.04 2370.76 2273.68 650.825 223.953 711.773 339.285 236.529 128.104 1561.9 1273.88 97.0774 41.8272
internal_count=230510 58420 55279 42632 172090 51868 3550 3141 1937 23814 39082 34627 12647 1849
is_linear=0
shrinkage=0.05


Tree=49
num_leaves=15
num_cat=0
split_feature=4 4 0 2 4 4 1 4 2 2 0 4 4 2
split_gain=418.503 110.517 37.493 26.0289 29.1103 25.5056 18.7887 17.5896 16.5133 16.3963 16.2914 14.5384 13.3489 12.5264
threshold=6.5000000000000009 15.500000000000002 1.0000000180025095e-35 1.0000000180025095e-35 3.5000000000000004 10.500000000000002 18.500000000000004 18.500000000000004 1.0000000180025095e-35 1.0000000180025095e-35 1.0000000180025095e-35 13.500000000000002 10.500000000000002 1.0000000180025095e-35
decision_type=2 2 2 2 2 2 2 2 2 2 2 2 2 2
left_child=3 2 12 4 -1 6 -4 8 -3 11 -6 -7 -2 -8
right_child=1 7 5 -5 10 9 13 -9 -10 -11 -12 -13 -14 -15
leaf_value=-0.04525255291696878 -0.043638759963330921 0.038823063188637028 0.022538525779987988 -0.045149075091226294 -0.050165953464025907 0.010079967824931417 0.0013288176423174912 0.052458888444703734 0.011875563403083652 0.0031284511376325681 -0.00062239886986123233 0.025499578454639623 -0.0057785573393900067 -0.011413928998049784
leaf_weight=91.616015087347478 52.899623797740787 132.2372312694788 74.521312954835594 408.06438182666898 19.624789621680975 586.77629033476114 488.61838709563017 98.480760283768177 99.723802596330643 597.08301287516952 107.40730568580329 206.71938057243824 41.583270100876689 318.61850221036002
leaf_count=28054 10798 1290 1673 120222 5973 2802 10214 1204 647 4752 17841 1210 1849 21981
internal_value=0 0.00766764 0.00388594 -0.0376902 -0.0237697 0.00516917 -0.00148318 0.0347544 0.0272379 0.00938738 -0.00827623 0.014097 -0.0269759 -0.00370078
internal_weight=0 2697.26 2366.82 626.712 218.648 2272.34 881.758 330.442 231.961 1390.58 127.032 793.496 94.4829 807.237
internal_count=230510 58420 55279 172090 51868 42632 33868 3141 1937 8764 23814 4012 12647 32195
is_linear=0
shrinkage=0.05


end of trees

feature_importances:
Column_4=254
Column_1=153
Column_0=149
Column_2=144

parameters:
[boosting: gbdt]
[objective: binary]
[metric: custom]
[tree_learner: serial]
[device_type: cpu]
[data: ]
[valid: ]
[num_iterations: 10000]
[learning_rate: 0.05]
[num_leaves: 15]
[num_threads: 0]
[deterministic: 0]
[force_col_wise: 0]
[force_row_wise: 0]
[histogram_pool_size: -1]
[max_depth: -1]
[min_data_in_leaf: 50]
[min_sum_hessian_in_leaf: 0.001]
[bagging_fraction: 0.5]
[pos_bagging_fraction: 1]
[neg_bagging_fraction: 1]
[bagging_freq: 0]
[bagging_seed: 10961]
[feature_fraction: 0.9]
[feature_fraction_bynode: 1]
[feature_fraction_seed: 53]
[extra_trees: 0]
[extra_seed: 11644]
[early_stopping_round: 0]
[first_metric_only: 0]
[max_delta_step: 0]
[lambda_l1: 0]
[lambda_l2: 0]
[linear_lambda: 0]
[min_gain_to_split: 0]
[drop_rate: 0.1]
[max_drop: 50]
[skip_drop: 0.5]
[xgboost_dart_mode: 0]
[uniform_drop: 0]
[drop_seed: 30626]
[top_rate: 0.2]
[other_rate: 0.1]
[min_data_per_group: 100]
[max_cat_threshold: 32]
[cat_l2: 10]
[cat_smooth: 10]
[max_cat_to_onehot: 4]
[top_k: 20]
[monotone_constraints: ]
[monotone_constraints_method: basic]
[monotone_penalty: 0]
[feature_contri: ]
[forcedsplits_filename: ]
[refit_decay_rate: 0.9]
[cegb_tradeoff: 1]
[cegb_penalty_split: 0]
[cegb_penalty_feature_lazy: ]
[cegb_penalty_feature_coupled: ]
[path_smooth: 0]
[interaction_constraints: ]
[verbosity: -1]
[saved_feature_importance_type: 0]
[linear_tree: 0]
[max_bin: 255]
[max_bin_by_feature: ]
[min_data_in_bin: 3]
[bin_construct_sample_cnt: 200000]
[data_random_seed: 4071]
[is_enable_sparse: 1]
[enable_bundle: 1]
[use_missing: 1]
[zero_as_missing: 0]
[feature_pre_filter: 1]
[pre_partition: 0]
[two_round: 0]
[header: 0]
[label_column: ]
[weight_column: ]
[group_column: ]
[ignore_column: ]
[categorical_feature: ]
[forcedbins_filename: ]
[precise_float_parser: 0]
[objective_seed: 602]
[num_class: 1]
[is_unbalance: 0]
[scale_pos_weight: 1]
[sigmoid: 1]
[boost_from_average: 1]
[reg_sqrt: 0]
[alpha: 0.9]
[fair_c: 1]
[poisson_max_delta_step: 0.7]
[tweedie_variance_power: 1.5]
[lambdarank_truncation_level: 30]
[lambdarank_norm: 1]
[label_gain: ]
[eval_at: ]
[multi_error_top_k: 1]
[auc_mu_weights: ]
[num_machines: 1]
[local_listen_port: 12400]
[time_out: 120]
[machine_list_filename: ]
[machines: ]
[gpu_platform_id: -1]
[gpu_device_id: -1]
[gpu_use_dp: 0]
[num_gpu: 1]

end of parameters

pandas_categorical:null
