tree
version=v3
num_class=1
num_tree_per_iteration=1
label_index=0
max_feature_idx=4
objective=binary sigmoid:1
feature_names=Column_0 Column_1 Column_2 Column_3 Column_4
feature_infos=[0:3] [17:123] [0:1] [0:2] [1:29]
tree_sizes=6664 6806 6840 6871 6698 6740 6737 6725 6757

Tree=0
num_leaves=63
num_cat=0
split_feature=4 4 4 2 2 0 0 0 4 4 0 4 2 2 0 4 0 4 4 0 4 2 4 4 0 3 4 2 0 0 0 4 3 0 0 3 3 4 2 0 0 3 3 0 3 4 0 3 0 0 3 4 0 3 0 3 3 3 3 3 3 0
split_gain=113093 9283.55 5713.52 4162.34 3036.72 2088.41 1626.21 1607.19 811.186 747.457 719.003 633.404 676.216 568.043 368.794 307.859 222.967 213.926 160.286 134.671 132.581 157.922 118.541 111.23 79.6662 76.4034 73.9218 75.1601 60.8616 54.8675 47.4276 48.3418 42.8613 42.3532 38.5651 26.6956 25.3274 23.7236 22.9809 22.4237 20.9098 20.3119 21.1593 20.0844 20.0354 19.1692 18.4819 17.1017 17.0589 16.8481 14.7523 13.5454 13.3341 13.1343 23.0191 13.0356 12.6651 11.1121 10.7893 10.1817 9.00121 8.99
threshold=12.500000000000002 14.500000000000002 10.500000000000002 1.0000000180025095e-35 1.0000000180025095e-35 1.0000000180025095e-35 1.0000000180025095e-35 1.0000000180025095e-35 11.500000000000002 8.5000000000000018 1.0000000180025095e-35 15.500000000000002 1.0000000180025095e-35 1.0000000180025095e-35 1.0000000180025095e-35 13.500000000000002 1.0000000180025095e-35 13.500000000000002 16.500000000000004 2.5000000000000004 17.500000000000004 1.0000000180025095e-35 11.500000000000002 9.5000000000000018 2.5000000000000004 1.0000000180025095e-35 6.5000000000000009 1.0000000180025095e-35 2.5000000000000004 2.5000000000000004 1.0000000180025095e-35 7.5000000000000009 1.0000000180025095e-35 2.5000000000000004 1.0000000180025095e-35 1.5000000000000002 1.5000000000000002 16.500000000000004 1.0000000180025095e-35 2.5000000000000004 2.5000000000000004 1.5000000000000002 1.0000000180025095e-35 1.5000000000000002 1.0000000180025095e-35 9.5000000000000018 1.5000000000000002 1.0000000180025095e-35 1.5000000000000002 1.5000000000000002 1.0000000180025095e-35 17.500000000000004 2.5000000000000004 1.0000000180025095e-35 2.5000000000000004 1.5000000000000002 1.0000000180025095e-35 1.5000000000000002 1.0000000180025095e-35 1.5000000000000002 1.5000000000000002 2.5000000000000004
decision_type=2 2 2 2 2 2 2 2 2 2 2 2 2 2 2 2 2 2 2 2 2 2 2 2 2 2 2 2 2 2 2 2 2 2 2 2 2 2 2 2 2 2 2 2 2 2 2 2 2 2 2 2 2 2 2 2 2 2 2 2 2 2
left_child=2 3 9 6 7 18 -2 -4 19 26 -5 12 -7 14 -11 28 -6 29 38 25 21 -13 40 39 47 46 -1 30 32 -8 -28 -32 -12 56 -15 -27 53 48 55 -16 -18 42 -26 -33 -21 -36 -9 -10 -23 -37 -14 -20 -25 54 -19 -3 -17 -45 -41 -58 -60 -59
right_child=1 5 4 10 16 11 17 8 24 13 15 20 50 34 23 33 22 36 51 44 -22 37 -24 52 41 35 27 -29 -30 -31 31 43 -34 -35 45 49 -38 -39 -40 58 -42 -43 -44 57 -46 -47 -48 -49 -50 -51 -52 -53 -54 -55 -56 -57 59 61 60 -61 -62 -63
leaf_value=-3.6099791562820913 -3.015208124733336 -2.8984939585988672 -3.5113777941298685 -3.4506042971484168 -3.5950327050460298 2.2734683852722375 1.2240171237936224 0.99356619372199884 0.61213017153446536 -3.6031616914401177 -2.1489464890729604 2.5825604308337073 0.58763428020132213 -3.6128078888409303 -2.8044666210104423 -0.7642920635685746 -2.9488068322207432 2.2127259528106151 -1.0344019909083531 -1.7025057492399069 2.779697749122775 2.5299057275328698 -2.6943879045213475 -2.4199150953593058 -0.4889222636460171 -2.1098396645759561 -3.6095488157234081 -3.5867768403323552 -2.1023366110387398 0.57504611382179327 -3.4996236679887383 -2.9122816210817848 -1.0514950400262451 -0.95531688064421338 -3.495120417019407 -0.61423099282426286 1.8870937262696632 2.0682078365430669 -3.4138078438979282 -2.9194388121684232 -3.2170849708028624 -0.32826555612282649 -1.0720815590368495 -3.4009606833226056 -2.0997348810649843 -3.3784433108665852 -0.43458041517261492 0.0034807163772136995 1.4637231112978499 -1.4322330701899002 0.083333231430703147 0.37903038019764246 -2.6639130835438745 1.1915374625083599 1.383060723420523 -1.4645770603753958 0.49076416447479687 -3.086548633775716 -3.2807340539466234 -0.26343887939598787 -3.0628149541733301 -3.3067979129215264
leaf_weight=5335.0371646229178 3.9983720798045388 0.55791238322853953 13.451887462288139 8.4926662780344468 29.383385516703129 16.675381232053041 7.6867928355932262 0.43393185362219666 2.6965765189379471 32.544889021664858 2.0456787385046491 27.492682440206409 3.3784694317728299 75.628123059868813 17.016327688470483 1.332790693268177 15.9005029220134 1.9216982088983057 0.46492698602378346 7.0048999227583435 52.195802964270115 0.65089778043329527 38.650930104777217 12.212082166224716 6.0130556859076023 1.8597079440951345 67.755359429866076 641.66123097762465 15.993488319218159 16.179459113627672 124.32147606275976 4.8352406546473494 4.6802649926394224 11.127252532169223 141.27581348642707 1.3327906932681797 10.104413162916899 5.9820605535060158 1.9836884737014771 13.792833918705581 43.176219435408711 9.8564521037042141 4.2463331390172243 44.756971187889576 18.473098911345005 93.667290117591619 2.2006544005125761 5.8580800238996744 7.7177879679948092 4.122352609410882 7.4078366439789534 0.65089778043329716 33.629718655720353 4.6182747278362513 4.4013088010251522 0.46492698602378368 1.0228393692523243 9.4535153824835998 10.755310943350194 2.3866251949220896 25.694964760914445 34.342606700956821
leaf_count=172125 129 18 434 274 948 538 248 14 87 1050 66 887 109 2440 549 43 513 62 15 226 1684 21 1247 394 194 60 2186 20702 516 522 4011 156 151 359 4558 43 326 193 64 445 1393 318 137 1444 596 3022 71 189 249 133 239 21 1085 149 142 15 33 305 347 77 829 1108
internal_value=-3.40884 1.03856 -3.5512 -0.442269 -2.51021 2.1701 0.849863 -1.52389 -1.10679 -3.58291 -1.78459 2.32031 1.47528 -3.33576 -3.00988 -1.41793 -3.11196 1.19396 -2.257 -1.74684 2.56707 2.30184 -2.96671 -2.83916 -0.315893 -1.12285 -3.60092 -3.54879 -1.89006 0.784065 -3.46342 -3.41794 -1.38528 -0.742017 -3.48859 -1.45546 1.65879 1.76406 -3.01676 -3.0029 -3.14488 -0.533304 -0.73029 -3.3092 -1.99052 -3.4486 -0.199356 0.195338 1.54665 -1.23238 0.24129 -0.2099 -2.59891 1.44794 1.63521 -2.24671 -0.24153 -3.33088 -3.0701 -0.037178 -3.12712 -3.25926
internal_weight=0 221.615 6923.04 95.9919 204.661 125.623 48.9103 77.5498 64.0979 6718.38 47.0816 121.501 27.4617 456.217 145.646 38.5889 127.111 44.9119 4.12235 35.4274 94.0392 41.8434 97.7277 113.101 28.6705 9.94944 6262.16 927.126 22.7194 23.8663 285.465 217.71 6.72594 15.8695 310.571 7.31485 21.0457 14.3507 3.00653 67.2594 59.0767 20.1158 10.2594 93.3883 25.478 234.943 2.63459 8.55466 8.36869 5.45514 10.7863 1.11582 45.8418 10.9413 6.32301 1.02284 4.74226 88.5531 50.2431 3.40946 36.4503 43.7961
internal_count=230509 7150 223359 3097 6603 4053 1578 2502 2068 216756 1519 3920 886 14719 4699 1245 4101 1449 133 1143 3034 1350 3153 3649 925 321 202037 29912 733 770 9210 7024 217 512 10020 236 679 463 97 2170 1906 649 331 3013 822 7580 85 276 270 176 348 36 1479 353 204 33 153 2857 1621 110 1176 1413
is_linear=0
shrinkage=1


Tree=1
num_leaves=63
num_cat=0
split_feature=2 1 0 0 1 1 0 1 0 1 1 1 1 1 0 0 0 1 1 1 1 0 3 1 1 1 3 0 3 1 1 3 3 0 1 1 1 3 1 0 1 1 1 3 0 1 0 3 3 0 3 1 3 0 1 3 1 0 1 0 3 0
split_gain=338.495 323.604 183.674 82.2178 84.7393 58.7067 46.9608 23.4511 15.2668 14.0989 13.4963 12.5134 6.91555 6.8541 6.12227 5.16834 4.80753 4.61292 3.25565 2.7158 2.97794 2.67531 2.27196 2.91345 2.2526 4.43034 2.23916 2.43336 2.11975 2.49689 2.53721 1.70108 1.51196 1.49946 1.44922 1.44789 1.44264 1.88252 1.38498 1.95044 1.18271 1.15267 1.12888 1.74991 2.11181 1.63382 1.80931 1.7034 1.21998 1.95139 1.12055 2.44232 1.07654 1.07272 1.0573 1.27819 1.31065 1.02594 0.967986 0.933616 0.907448 1.36851
threshold=1.0000000180025095e-35 26.500000000000004 1.0000000180025095e-35 1.0000000180025095e-35 26.500000000000004 32.500000000000007 1.0000000180025095e-35 23.500000000000004 1.0000000180025095e-35 37.500000000000007 22.500000000000004 37.500000000000007 29.500000000000004 18.500000000000004 2.5000000000000004 2.5000000000000004 2.5000000000000004 30.500000000000004 18.500000000000004 21.500000000000004 22.500000000000004 2.5000000000000004 1.0000000180025095e-35 30.500000000000004 48.500000000000007 65.500000000000014 1.0000000180025095e-35 1.5000000000000002 1.5000000000000002 21.500000000000004 22.500000000000004 1.0000000180025095e-35 1.0000000180025095e-35 1.5000000000000002 43.500000000000007 36.500000000000007 36.500000000000007 1.5000000000000002 27.500000000000004 1.5000000000000002 19.500000000000004 17.500000000000004 24.500000000000004 1.5000000000000002 2.5000000000000004 25.500000000000004 1.5000000000000002 1.0000000180025095e-35 1.5000000000000002 2.5000000000000004 1.5000000000000002 28.500000000000004 1.0000000180025095e-35 1.5000000000000002 57.500000000000007 1.5000000000000002 58.500000000000007 2.5000000000000004 34.500000000000007 2.5000000000000004 1.0000000180025095e-35 1.5000000000000002
decision_type=2 2 2 2 2 2 2 2 2 2 2 2 2 2 2 2 2 2 2 2 2 2 2 2 2 2 2 2 2 2 2 2 2 2 2 2 2 2 2 2 2 2 2 2 2 2 2 2 2 2 2 2 2 2 2 2 2 2 2 2 2 2
left_child=1 2 -1 -2 10 6 -3 13 -7 14 16 26 38 33 17 19 -5 -6 -18 40 32 22 23 53 -13 57 -10 36 29 -17 -31 -32 -21 -4 -11 -19 37 -28 -8 50 -15 -35 43 44 60 46 -44 -48 -49 -50 -40 -52 -22 -14 -36 -56 -57 -26 -29 -43 -9 -62
right_child=3 5 7 4 9 8 12 42 11 34 -12 24 21 15 -16 28 18 35 -20 20 52 -23 -24 -25 25 -27 27 58 -30 30 31 -33 -34 41 54 -37 -38 -39 39 -41 -42 59 45 -45 -46 -47 47 48 49 -51 51 -53 -54 -55 55 56 -58 -59 -60 -61 61 -63
leaf_value=-0.1772161154807616 -0.20132962381452943 -0.18713159434984233 0.20680140747895362 -0.047062989695591723 -0.10222483079776189 -0.20252620133791113 -0.046871340773525449 0.12623088997080056 -0.085068233452568878 -0.17682108427448726 -0.1168232999805309 -0.15622195790881502 0.12990026666238672 0.098428412375388671 -0.15678479964753653 0.022427337981695487 -0.0588181375576112 -0.14019650807990416 -0.095753548341069639 0.090726173266999527 0.17374091972167183 -0.083475840605331905 -0.02005208106695178 -0.14567826225804267 -0.26115997257953538 0.54457779173021004 -0.19399979496009981 -0.11070147073519379 0.078140981203650373 0.1108609196278556 0.073212139228076414 -0.018646531138831659 -0.017214224226603552 0.14112361772233792 -0.19798291115122935 -0.18892166487522302 0.085503373832942819 -0.027534430758694634 -0.0050175609996742296 -0.022639058628308922 0.15113813705209597 0.14545161384465677 0.098069184548537844 0.064042441261537089 -0.015401238631551784 0.02741196043224849 0.02937336761753985 -0.07422660291608682 -0.088237921657193741 0.0064748829231748911 0.25202369997429164 0.00026760557787473019 0.089407621730016082 -0.039285047978930815 -0.20553293379824225 0.17071556824669382 -0.11092988352013965 -0.19137951686334573 -0.13607633958626705 0.089346930831247132 -0.14611080334200041 0.072626381293590767
leaf_weight=148.63658104278147 1015.8467375300825 118.15516246296465 8.7748856320977193 179.66870960406959 164.02237238921225 173.68213875219226 97.073030769824982 7.129257567226885 102.88208306580782 441.92719274386764 580.17560214735568 348.08039519377053 2.0459003336727646 25.860130894929171 1128.9957245960832 87.678398290649056 132.29366656206548 207.45066558010876 342.83324660360813 7.9324293211102495 9.1780793126672524 201.27636941894889 59.35317200049758 15.014427801594136 11.493928963318465 0.31350469961762328 3.7165893483906993 107.10791711322963 148.38679923303425 35.132806964218616 18.677778583019972 14.190358420833943 15.018495855852962 60.661423347890377 242.46362305991352 27.645223323255777 2.7844909429550162 10.107582930475473 5.3258059751242381 186.1438310649246 49.855278350412846 15.606736820191143 5.9644747618585816 45.768254145979881 36.19617423042655 100.28320463001728 24.8369872700423 19.401987005025148 11.262275239452718 38.26589485630393 2.9427825883030891 3.2366139814257622 17.791699968278408 5.6085151676088572 3.0530854351818553 0.96165249124169383 2.1133055426180363 31.59263321198523 137.11584924533963 49.470813270658255 1.4798123780637977 5.0430313087999821
leaf_count=5666 39257 4547 171 5637 5429 6626 2472 163 2684 15563 19697 9671 42 477 39640 2099 4341 7015 11614 152 186 5419 1396 343 318 8 84 2900 3582 780 444 370 363 1355 8622 932 71 220 139 4820 1024 331 138 1147 862 2437 592 504 253 902 72 66 385 138 117 26 81 944 3817 1205 31 122
internal_value=0 -0.0609217 0.0280735 -0.151314 -0.136602 -0.116151 -0.0722412 0.0635607 -0.14906 -0.159975 -0.0946116 -0.136764 -0.048756 0.0874693 -0.149258 0.0751359 -0.074931 -0.127967 -0.0854693 0.109259 0.0730452 -0.0710689 -0.0406232 -0.094484 -0.161579 -0.204544 -0.110055 -0.11991 0.0610366 0.0447335 0.0734945 0.0335534 0.0200927 0.126868 -0.183693 -0.145926 -0.045834 -0.0722882 -0.027308 -0.0176997 0.133135 0.12129 0.0179308 0.0358057 0.00988012 0.00938581 -0.00874005 -0.0155341 -0.0317152 -0.015062 0.0622149 0.12016 0.118107 0.00593543 -0.195909 -0.113865 -0.022849 -0.209994 -0.124948 0.102802 0.0769093 0.0230023
internal_weight=0 2633.54 1008.48 4469.45 3453.6 1625.05 696.176 859.847 928.877 2218.63 1234.97 755.195 578.02 564.216 1528.11 429.702 654.796 399.118 475.127 125.636 49.9207 283.298 82.022 22.6688 391.48 43.4001 363.715 260.832 304.066 155.679 68.0009 32.8681 22.9509 134.514 690.519 235.096 16.6087 13.8242 294.722 197.649 75.7154 125.739 295.631 95.6165 49.8483 200.015 99.7316 93.7671 68.9302 49.5282 11.5052 6.1794 26.9698 7.65442 248.592 6.12804 3.07496 43.0866 244.224 65.0776 13.6521 6.52284
internal_count=230509 72538 25741 157971 118714 46797 19454 20075 27343 77425 41289 20717 14907 12924 53016 9862 21592 13376 15955 2587 1086 7338 1919 523 10941 1270 9776 7092 7275 3693 1594 814 515 3062 24409 7947 375 304 7569 5097 1501 2891 7151 2325 1178 4826 2389 2251 1659 1155 277 138 571 180 8846 224 107 1262 6717 1536 316 153
is_linear=0
shrinkage=0.2


Tree=2
num_leaves=63
num_cat=0
split_feature=2 1 0 0 1 1 0 1 1 1 1 1 0 0 0 1 1 1 1 1 1 0 0 3 0 1 1 3 1 1 3 1 1 3 1 1 1 1 1 3 1 3 1 3 3 3 1 0 0 0 1 1 3 3 3 1 1 1 0 0 3 1
split_gain=297.785 235.107 166.098 91.6871 80.8066 37.1088 32.3076 24.8742 14.548 12.7322 4.86426 4.72013 4.49509 4.11844 3.76989 3.13265 2.9108 2.90045 2.84482 2.8226 2.39726 1.97958 1.95747 1.84375 1.91629 1.77882 1.77118 1.70402 1.67868 1.66907 1.58231 2.06455 1.45225 1.18427 1.16893 1.10389 1.44802 1.3621 1.05018 1.15756 1.05724 1.03742 1.01426 1.26691 0.945001 0.934416 0.933049 1.20445 0.932592 0.883346 0.833637 0.810279 1.36732 0.784422 0.720048 0.987298 0.7016 0.694481 1.09605 1.3952 1.35353 1.03804
threshold=1.0000000180025095e-35 29.500000000000004 1.0000000180025095e-35 1.0000000180025095e-35 27.500000000000004 23.500000000000004 1.0000000180025095e-35 37.500000000000007 22.500000000000004 37.500000000000007 26.500000000000004 32.500000000000007 2.5000000000000004 2.5000000000000004 2.5000000000000004 17.500000000000004 66.500000000000014 48.500000000000007 19.500000000000004 30.500000000000004 21.500000000000004 2.5000000000000004 2.5000000000000004 1.0000000180025095e-35 1.5000000000000002 23.500000000000004 22.500000000000004 1.5000000000000002 43.500000000000007 30.500000000000004 1.0000000180025095e-35 30.500000000000004 36.500000000000007 1.5000000000000002 33.500000000000007 21.500000000000004 22.500000000000004 19.500000000000004 57.500000000000007 1.5000000000000002 60.500000000000007 1.0000000180025095e-35 17.500000000000004 1.0000000180025095e-35 1.0000000180025095e-35 1.0000000180025095e-35 27.500000000000004 1.5000000000000002 2.5000000000000004 1.5000000000000002 34.500000000000007 42.500000000000007 1.5000000000000002 1.0000000180025095e-35 1.5000000000000002 36.500000000000007 34.500000000000007 24.500000000000004 2.5000000000000004 1.5000000000000002 1.5000000000000002 25.500000000000004
decision_type=2 2 2 2 2 2 2 2 2 2 2 2 2 2 2 2 2 2 2 2 2 2 2 2 2 2 2 2 2 2 2 2 2 2 2 2 2 2 2 2 2 2 2 2 2 2 2 2 2 2 2 2 2 2 2 2 2 2 2 2 2 2
left_child=1 2 -1 -2 8 13 29 11 14 12 57 21 19 20 -5 45 17 51 42 49 -4 30 -10 -13 34 -24 44 35 -11 -3 31 -8 -21 -20 -25 37 -37 -17 -30 -40 -41 -38 -16 -44 -22 -15 53 -48 -19 -6 -26 52 -9 -12 55 -36 -14 58 59 -7 -60 -59
right_child=3 6 5 4 9 10 7 16 22 28 46 23 56 15 18 27 -18 48 33 32 26 -23 25 24 50 -27 -28 -29 38 -31 -32 -33 -34 -35 54 36 41 -39 39 40 -42 -43 43 -45 -46 -47 47 -49 -50 -51 -52 -53 -54 -55 -56 -57 -58 61 60 -61 -62 -63
leaf_value=-0.17695016010546172 -0.19926425271198445 -0.1325765486900978 0.10893180555998201 -0.039170682434496021 -0.12944742349031055 -0.019186596487254692 0.004576698282093508 -0.14945160576998481 -0.089001090644339628 -0.16828439997894606 -0.010496919065864141 -0.071803012850743975 -0.1443995707007161 0.14809926979288127 -0.03416634863350225 0.04755473194288961 0.44000548580377807 -0.25265208987192017 -0.1017209266297505 -0.12786126025542371 0.071022091730401152 -0.070663394043351327 -0.088014470702449193 -0.1396585390979139 -0.095463665331247075 -0.11925660687376727 0.090978967342284847 0.064105517041502663 -0.1929634120889426 -0.19901609589308977 -0.016223102456890456 -0.12452656019577456 -0.18057529929176983 -0.073931635884083399 -0.15516577386238664 0.083749772647140563 0.05632953370593409 0.0039552652306516726 -0.20450521120543144 0.056264443690435074 -0.20507636550035083 -0.015098378587273248 -0.03520209503381147 -0.077562199786902569 -0.013906454013147976 0.086687327765879355 0.047289774257650144 -0.018360206221076029 -0.18055148706677107 -0.085546206738668737 -0.11991664156733538 -0.15459728005609838 -0.11704524663963752 -0.050359062142365199 0.019111011332840117 0.085074871519589965 -0.15737118013000076 -0.0071572768750328419 -0.012421934637233597 0.086440691304894568 0.043414203695425507 0.02159698466367177
leaf_weight=175.67364355921745 839.46021163463593 16.546007670462132 119.74307643435895 173.44793875329196 23.049466865137219 6.5433784294873503 7.6228310260921743 103.14768251031637 179.21689112111926 378.33064661175013 28.059202523902059 98.086867235600948 663.74450210109353 13.943273633718489 59.17395537532866 54.613270834088326 0.33872425556182761 9.7333751171827299 127.1869490891695 184.53490856848657 8.0872661769390106 191.39883990958333 89.45501752756536 3.5379498861730125 100.18064162135124 393.82685621641576 27.890275226905942 179.18027026578784 203.16569747030735 176.04827758669853 58.762597072869539 14.154998537153004 23.575722420588136 118.48788499832153 2.459931233897803 36.96622072905302 19.336102284491062 60.317613672465086 2.5109134223312131 2.1134145837277178 0.87576164305210102 14.038856983184813 39.546357898041606 98.797099430114031 14.888729842379689 34.265247110277414 11.901855407282708 183.89776119031012 27.309868263080716 89.598169025033712 125.7871164213866 105.56721650995314 105.192169142887 66.65280400402844 9.3081767279654741 0.94792359322309483 222.76331661269069 99.251382574439049 35.93453249335289 21.234457448124886 33.606925321742892 101.65432150103152
leaf_count=7962 39257 754 2298 5637 874 133 180 3081 6495 15563 686 2684 26659 308 1998 1261 6 319 4649 7015 152 5419 3337 72 2900 15171 571 4187 8622 8123 1396 343 932 4356 61 780 444 1438 117 70 37 370 1373 3579 363 752 277 4820 945 3157 3817 3425 3165 1786 216 26 9073 2389 862 491 839 2437
internal_value=0 -0.0523587 0.00440515 -0.140685 -0.124684 0.0315887 -0.118527 -0.10358 -0.0862758 -0.152066 -0.00383363 -0.0792388 -0.140318 0.0673431 -0.0641678 0.0565371 -0.146003 -0.146568 -0.0739507 -0.12003 0.0934801 -0.0595941 -0.106853 -0.0949367 -0.104305 -0.113474 0.0571057 0.0501994 -0.176227 -0.193308 -0.0332888 -0.0793369 -0.133833 -0.0883183 -0.0379765 0.0367505 0.0564839 0.024673 -0.190629 -0.104395 -0.0203026 0.0262841 -0.0560801 -0.0654533 0.0159873 0.104449 -0.0222527 -0.0143696 -0.199496 -0.0945291 -0.109076 -0.140323 -0.133089 -0.0385496 -0.00968572 -0.0883408 -0.147659 0.0141091 0.0279761 0.061559 0.0145617 0.00739181
internal_weight=0 2503.81 1347.68 3912.86 3073.4 1172.01 1156.13 963.537 1279.14 1794.26 588.737 612.248 1207.27 583.27 616.64 412.661 351.289 350.95 443.192 320.758 170.609 271.939 662.499 340.309 242.222 483.282 50.8663 364.452 586.996 192.594 80.5404 21.7778 208.111 245.675 16.254 185.272 70.3412 114.931 208.666 5.50009 2.98918 33.375 197.517 138.343 22.976 48.2085 290.512 195.8 37.0432 112.648 225.968 313.907 208.34 94.712 12.716 3.40785 886.508 298.225 97.3193 27.7778 69.5415 200.906
internal_count=230509 72538 35606 157971 118714 27644 36932 28055 46595 72119 14720 17114 47710 12924 21592 9540 10941 10935 15955 11978 3384 7338 25003 9776 7092 18508 1086 8480 24409 8877 1919 523 7947 9005 375 4293 1594 2699 8846 224 107 814 6950 4952 515 1060 7569 5097 1264 4031 6717 9671 6246 2472 303 87 35732 7151 2325 624 1701 4826
is_linear=0
shrinkage=0.2


Tree=3
num_leaves=63
num_cat=0
split_feature=0 1 2 2 1 1 1 1 1 0 1 1 0 1 0 1 1 1 1 0 1 1 2 3 0 0 1 3 1 1 3 1 3 1 3 1 1 3 1 0 1 1 1 3 1 0 1 1 0 0 0 0 1 3 0 0 1 3 1 3 1 0
split_gain=286.905 239.363 184.956 42.8257 22.6898 20.6637 18.7088 10.0521 3.55219 3.47599 3.59463 3.1335 2.87327 2.69211 2.59877 2.36289 2.58999 2.22714 1.89195 1.86267 1.85997 1.49554 2.24757 1.44717 1.47005 1.43057 1.4104 1.07399 1.43731 1.04086 1.04565 1.0085 0.963983 0.845914 1.20085 0.827625 0.825278 1.19076 0.813459 0.806688 0.803292 0.874122 0.75477 0.967062 0.750185 0.741787 0.709508 1.34472 1.77071 1.85789 0.739758 0.687622 0.682228 0.685544 0.663381 0.658904 1.55064 0.655517 0.645653 0.629619 0.62553 0.763512
threshold=1.0000000180025095e-35 29.500000000000004 1.0000000180025095e-35 1.0000000180025095e-35 23.500000000000004 37.500000000000007 22.500000000000004 37.500000000000007 32.500000000000007 2.5000000000000004 26.500000000000004 26.500000000000004 2.5000000000000004 18.500000000000004 2.5000000000000004 48.500000000000007 67.500000000000014 19.500000000000004 43.500000000000007 2.5000000000000004 30.500000000000004 34.500000000000007 1.0000000180025095e-35 1.0000000180025095e-35 1.5000000000000002 2.5000000000000004 36.500000000000007 1.0000000180025095e-35 30.500000000000004 57.500000000000007 1.5000000000000002 23.500000000000004 1.5000000000000002 42.500000000000007 1.0000000180025095e-35 60.500000000000007 21.500000000000004 1.0000000180025095e-35 33.500000000000007 2.5000000000000004 21.500000000000004 20.500000000000004 17.500000000000004 1.0000000180025095e-35 22.500000000000004 1.5000000000000002 36.500000000000007 35.500000000000007 2.5000000000000004 1.5000000000000002 1.5000000000000002 2.5000000000000004 34.500000000000007 1.5000000000000002 1.5000000000000002 2.5000000000000004 33.500000000000007 1.5000000000000002 20.500000000000004 1.0000000180025095e-35 27.500000000000004 1.5000000000000002
decision_type=2 2 2 2 2 2 2 2 2 2 2 2 2 2 2 2 2 2 2 2 2 2 2 2 2 2 2 2 2 2 2 2 2 2 2 2 2 2 2 2 2 2 2 2 2 2 2 2 2 2 2 2 2 2 2 2 2 2 2 2 2 2
left_child=21 2 4 5 13 8 12 14 25 -8 31 -6 -4 45 20 33 39 42 -9 36 57 22 -1 46 38 27 -22 28 54 -20 -31 -11 -19 34 -7 -32 -15 -38 -25 -17 41 59 -14 -44 -39 -2 47 -10 49 -49 -48 -52 53 55 -3 56 -26 -5 -34 -21 -13 -62
right_child=1 3 6 7 11 15 9 18 23 10 -12 60 17 19 -16 16 -18 32 29 40 26 -23 -24 24 52 -27 -28 -29 -30 30 35 -33 58 -35 -36 -37 37 44 -40 -41 -42 -43 43 -45 -46 -47 50 48 -50 -51 51 -53 -54 -55 -56 -57 -58 -59 -60 -61 61 -63
leaf_value=-0.16986980508418226 0.12972996953032842 0.098460145349874739 -0.03238046454400044 -0.042424949483397124 0.011158493732164508 -0.14194798330263955 -0.080326961986165069 -0.15881552682414035 -0.066413193566744508 -0.07641533329470962 -0.12666485177047027 -0.031567789956320161 -0.028166042440706508 0.076996510230674275 -0.13872377184648377 -0.24079596790115324 0.33813000736003518 -0.089273289207199458 -0.18717355454723439 0.015002770028146224 -0.1152094078715868 -0.2036801135144585 -0.19452658778254259 -0.11881004734810625 -0.21146315226550894 -0.05922815066649894 -0.17110294083714603 -0.013096128733308583 -0.10487323665599201 -0.20367213351233415 0.042706896734351234 -0.10162854405029867 -0.040887215959046597 -0.13968849863371208 -0.10673452236008929 -0.20413647440339774 0.0862558412531437 -0.011212518595600889 -0.0080150930658207855 -0.16848957729559119 0.047508844142279863 0.0082874436943475762 -0.029000141323755498 -0.066704735036680313 0.048867873343303656 0.072053305481443425 -0.23700764629376181 0.041723602697078546 0.033296553871182508 -0.2137028721987258 -0.013450023690328834 -0.10898171403056936 -0.10412581774602443 -0.092658306816261568 -0.032987634087762223 -0.039138069181108737 -0.021484883975309926 -0.09753095491576616 -0.073626814379032277 0.047284894506305263 0.036886648059837233 -0.014850063684087004
leaf_weight=213.57187370397151 9.5444213300943357 2.1292537190020111 168.46264317259192 16.783015668392181 300.42121073976159 53.799911258742213 236.84483587183058 326.35467243567109 59.112947368994355 83.161220638081431 260.49335332587361 92.814872758463025 57.61414698138833 81.530769992619753 606.70925152301788 8.3233059346675855 0.37985631823539634 117.10336542129517 170.97457581758499 34.425750453025103 165.94186626560986 308.35815758444369 480.74461764097214 3.3495078440755632 3.2119110804051187 183.62028573080897 20.263488240540028 58.293022399768233 13.52293239161372 2.0632989555597296 2.2142751216888432 267.81364054791629 35.20643313601613 94.697731344029307 138.36406000703573 0.7199718989431857 18.000671956688166 14.785559013485907 12.704596830531953 23.876314975321293 142.59939281083643 62.400332918390632 38.527353482320905 92.628150671720505 18.990267381072044 136.21991113387048 1.3833737932145602 1.9259228352457292 13.310060301795602 2.7879915311932564 4.0528716724365941 11.755286458879709 116.92960907518864 65.515074294060469 5.5094584673643112 22.338258298113942 3.6962728481739759 17.784714704379439 76.336687464267015 81.092683529481292 12.172431059181688 182.11411437578499
leaf_count=11532 171 42 5637 682 7151 1686 9176 15563 1716 3337 11758 2472 1998 1501 27882 319 5 4649 8622 762 7015 17400 27164 72 105 5419 932 1396 343 117 70 11263 1367 3425 4560 37 338 363 303 946 3197 1444 1373 3579 385 2891 31 42 360 95 99 341 3817 1981 138 707 107 668 2989 1872 277 4820
internal_value=0 -0.0745778 -0.0335806 -0.122674 0.0248127 -0.0891026 -0.0819141 -0.145511 -0.0667684 -0.100898 -0.108865 -0.00312008 -0.0544273 0.0521833 -0.131963 -0.130014 -0.181055 -0.0633251 -0.167829 0.0445883 -0.113382 -0.19209 -0.186942 -0.0808517 -0.0894797 -0.0495265 -0.121292 -0.0271061 -0.0656986 -0.184544 -0.0945753 -0.0956544 -0.0765991 -0.124217 -0.116593 -0.0178607 0.0644562 0.0447094 -0.0311312 -0.18718 0.036325 0.0273612 -0.047247 -0.0556289 0.0225673 0.0758299 -0.0600205 -0.0518318 -0.00400945 -0.109346 -0.0967623 -0.0844894 -0.0939047 -0.0812926 0.00365279 -0.0558321 -0.109814 -0.0707764 -0.0632932 0.0376645 -0.0180611 -0.0116087
internal_weight=0 4855.7 2621.3 2234.4 1187.11 904.59 1434.19 1329.81 585.149 848.313 611.468 587.523 585.879 599.59 827.482 319.441 32.5795 417.416 502.327 453.825 220.773 1002.67 694.316 322.074 227.745 263.075 186.205 79.4547 21.1616 175.972 4.99755 350.975 228.646 286.862 192.164 2.93425 133.307 51.7765 16.0541 32.1996 320.518 177.919 188.77 131.156 33.7758 145.764 94.3285 77.1369 18.024 4.71391 17.1915 15.8082 211.691 94.7615 7.63871 29.2464 6.90818 34.5677 111.543 115.518 287.101 194.287
internal_count=230509 174413 84770 89643 27644 28055 57126 61588 17114 35534 26358 14720 21592 12924 37179 10941 1270 15955 24409 9862 9297 56096 38696 9776 7092 7338 7947 1919 523 8846 224 14600 9005 9671 6246 107 2587 1086 375 1265 7275 4078 6950 4952 748 3062 2684 2213 497 137 471 440 6717 2900 180 919 212 1350 4356 2634 7569 5097
is_linear=0
shrinkage=0.2


Tree=4
num_leaves=63
num_cat=0
split_feature=4 1 4 2 1 1 4 4 1 1 4 4 2 4 2 2 4 4 3 4 1 4 2 4 4 4 1 4 1 4 1 3 4 1 4 3 1 1 1 1 1 1 2 4 4 1 4 4 4 4 3 2 1 4 4 1 1 1 2 4 1 4
split_gain=2811.99 278.334 111.485 63.873 53.7191 39.9268 36.8544 30.4397 22.1446 21.362 18.8855 24.6844 18.5586 33.5383 13.7921 12.2175 13.2768 10.3164 9.73818 9.65308 9.61487 9.14273 8.13453 118.207 54.1795 21.1769 8.13486 8.38737 7.50337 7.38718 7.24245 7.87534 6.93247 6.89498 6.60279 6.45596 5.96644 6.84226 5.94919 5.68721 5.65145 5.36803 5.36135 17.7411 6.54643 9.29541 5.60763 5.31924 5.18772 5.10445 11.8348 5.01646 6.41048 5.00068 4.45205 4.26909 6.0418 4.18255 3.81381 4.95054 5.55614 3.78242
threshold=8.5000000000000018 30.500000000000004 6.5000000000000009 1.0000000180025095e-35 24.500000000000004 37.500000000000007 13.500000000000002 7.5000000000000009 26.500000000000004 18.500000000000004 9.5000000000000018 12.500000000000002 1.0000000180025095e-35 14.500000000000002 1.0000000180025095e-35 1.0000000180025095e-35 16.500000000000004 14.500000000000002 1.5000000000000002 16.500000000000004 30.500000000000004 17.500000000000004 1.0000000180025095e-35 11.500000000000002 11.500000000000002 9.5000000000000018 21.500000000000004 12.500000000000002 36.500000000000007 19.500000000000004 34.500000000000007 1.0000000180025095e-35 5.5000000000000009 27.500000000000004 12.500000000000002 1.5000000000000002 43.500000000000007 57.500000000000007 29.500000000000004 20.500000000000004 17.500000000000004 29.500000000000004 1.0000000180025095e-35 10.500000000000002 11.500000000000002 31.500000000000004 15.500000000000002 9.5000000000000018 17.500000000000004 10.500000000000002 1.0000000180025095e-35 1.0000000180025095e-35 26.500000000000004 10.500000000000002 10.500000000000002 25.500000000000004 22.500000000000004 20.500000000000004 1.0000000180025095e-35 11.500000000000002 35.500000000000007 11.500000000000002
decision_type=2 2 2 2 2 2 2 2 2 2 2 2 2 2 2 2 2 2 2 2 2 2 2 2 2 2 2 2 2 2 2 2 2 2 2 2 2 2 2 2 2 2 2 2 2 2 2 2 2 2 2 2 2 2 2 2 2 2 2 2 2 2
left_child=2 4 32 7 6 21 9 20 18 61 14 38 19 -14 33 16 -8 -17 40 41 -4 30 24 25 49 39 27 57 -10 36 35 -32 -1 -6 47 -3 -7 -38 -12 -24 -9 -13 44 -44 45 -37 -46 -33 -15 -11 -51 52 -34 -27 -40 56 -20 -25 59 60 -49 -2
right_child=1 5 3 -5 10 29 15 8 28 22 11 12 13 48 -16 17 -18 -19 55 -21 -22 -23 23 26 -26 53 -28 -29 -30 -31 31 34 51 -35 -36 42 37 -39 54 -41 -42 -43 43 -45 46 -47 -48 58 -50 50 -52 -53 -54 -55 -56 -57 -58 -59 -60 -61 -62 -63
leaf_value=-0.19834196871799431 0.41075475764147529 0.04837072233401149 -0.040584844946698499 -0.15267433280394335 0.23749209805511273 -0.019931429560754096 0.060672564949501323 0.43524076012592111 0.025896977576676417 0.37896701040914099 0.23062190096051183 0.012615838774138736 0.30836234849936472 0.039949804892022843 -0.059392085667341235 0.30420145297424889 0.2150074955512499 0.1736729968197431 0.3037927935950846 0.16772208086139784 -0.1550128981857827 0.18808239480229763 0.13586099969746718 0.97227182931784173 0.13190629201860896 0.16768810987879257 0.50528035173151797 0.55824182069498884 -0.1272084946173406 0.2198388572052159 0.094077259060262944 -0.065186551777903251 -0.088993997381519446 0.037712970800177305 -0.071760156607563283 0.37741425088683223 -0.098652660609088602 0.28926488198358219 0.25714423387962704 -0.064008056689333626 0.03909678582178578 0.14637443161775834 -0.014659217888214568 0.24998547891425776 0.0078476612712301604 0.088362808354083527 0.24292561292173423 0.30546799479004982 0.19428774040140726 0.13856148468125482 0.36812663628927095 -0.18671713887501101 -0.17540524442707653 0.32338302208023556 0.08300510785939326 0.47837133389304043 0.085192307964052028 0.67319789546191533 0.16583243002483039 -0.07247061850662441 0.016969521656003527 0.32044307606174649
leaf_weight=2744.4916796544567 40.962423291988671 120.35090715810657 73.690404224209487 360.68857933580875 13.872200716286899 163.5605275509879 61.023175030946732 1.5506879854947353 43.981846306473017 54.571358468383551 152.15130274556577 80.234087072312832 44.339911874383688 41.613581366837025 29.043547354638577 35.029056813567877 35.132015611976385 78.491891901940107 13.248650492168968 27.270456954836845 48.839150611311197 23.554615989327431 8.2225148370489496 4.5644863443449113 108.97814390994608 18.780569853261113 18.415849315002561 8.0694333724677563 18.061680505052209 4.4193697348237029 41.268094941973686 14.311565903946756 58.188066516071558 13.769125506281851 40.141015019267797 6.0481502544134882 71.049205189570785 1.8665635725483287 8.1649283170700091 18.523401343263686 20.272813772782683 14.112316049635409 14.793299200013278 32.160050638020039 38.736395025625825 16.843595322221518 4.5340694040060034 4.1003411784768105 11.017992548644541 14.178632183000444 24.512309927493334 260.58405635133386 83.792363379150629 14.718545196577905 20.916719730012119 2.9136874172836533 8.1798071255907399 3.1690666675567627 12.921702430583535 10.270864386111498 7.6558333672583103 33.902900127694011
leaf_count=150098 977 2256 2757 20702 365 3282 733 39 1704 1030 2773 642 414 232 1542 199 705 599 346 448 2533 321 382 102 543 821 322 96 853 54 716 688 2257 376 281 122 1694 43 291 914 649 104 798 489 226 350 57 72 134 95 232 15303 4467 526 309 86 243 76 549 64 152 276
internal_value=0 0.132616 -0.179775 -0.100105 0.196232 0.0275904 0.236559 -0.0179292 0.0593706 0.27439 0.144887 0.160204 0.114954 0.180217 0.0368503 0.169518 0.117062 0.21395 0.164257 0.0629169 -0.0861948 0.0673235 0.250302 0.298756 0.227669 0.130143 0.595613 0.700882 -0.018674 -0.0363548 0.059512 0.0218099 -0.194747 0.137975 -0.0115491 0.0806137 -0.0411426 -0.0887224 0.21478 -0.00256218 0.0672451 0.0326234 0.114919 0.166606 0.0782386 0.164732 0.0324802 0.0375154 0.0722592 0.339569 0.284 -0.170237 -0.139991 0.236096 0.131896 0.251232 0.220347 0.849717 0.079572 0.0289691 0.117593 0.369857
internal_weight=0 1666.34 3738.48 591.427 1037.75 628.586 581.246 230.739 108.209 371.57 456.506 399.821 218.588 96.9715 56.6849 209.676 96.1552 113.521 46.1656 121.617 122.53 387.691 296.704 94.4639 202.24 60.245 34.2188 15.803 62.0435 240.896 364.136 130.669 3147.06 27.6413 89.4013 233.466 236.476 72.9158 181.233 26.7459 21.8235 94.3464 113.116 46.9533 66.1622 22.8917 43.2705 49.2603 52.6316 93.2623 38.6909 402.564 141.98 33.4991 29.0816 24.3421 21.4285 7.73355 34.9487 22.027 11.7562 74.8653
internal_count=230509 28472 202037 29912 16258 12214 8628 9210 3920 6392 7630 5347 1974 780 2283 2236 1438 798 1363 1194 5290 7141 5139 3239 1900 2643 596 274 2557 5073 6820 2522 172125 741 1806 4298 5019 1737 3373 1296 688 746 2042 1287 755 472 283 1525 366 1357 327 22027 6724 1347 600 675 589 178 837 288 224 1253
is_linear=0
shrinkage=0.2


Tree=5
num_leaves=63
num_cat=0
split_feature=4 4 0 4 2 4 2 4 4 0 4 4 2 2 4 4 2 4 4 4 0 0 0 0 0 3 2 0 4 3 4 4 4 0 4 0 0 0 4 4 3 0 0 3 3 0 3 4 2 0 3 0 2 4 3 0 3 3 3 4 4 4
split_gain=2100.54 116.62 101.809 57.986 53.8054 30.0609 43.218 50.5399 35.9084 28.193 20.596 17.5534 44.3191 12.9744 41.1633 37.1553 10.6459 9.78079 8.24717 7.97339 7.6195 6.64834 6.12123 5.69991 5.66866 5.46592 5.46156 5.13554 4.1783 4.06942 4.83445 9.58026 3.56355 3.56115 3.54215 3.0722 3.03057 2.96012 2.85884 2.83849 3.02605 2.83178 2.6498 2.56469 3.30685 5.52084 2.37037 2.35632 2.64902 2.16214 2.04306 2.44288 2.00433 4.02685 1.94098 3.05556 1.91352 1.85211 1.75992 3.08135 2.19909 1.9119
threshold=8.5000000000000018 6.5000000000000009 1.0000000180025095e-35 12.500000000000002 1.0000000180025095e-35 12.500000000000002 1.0000000180025095e-35 16.500000000000004 13.500000000000002 1.0000000180025095e-35 7.5000000000000009 9.5000000000000018 1.0000000180025095e-35 1.0000000180025095e-35 11.500000000000002 10.500000000000002 1.0000000180025095e-35 14.500000000000002 19.500000000000004 5.5000000000000009 2.5000000000000004 2.5000000000000004 2.5000000000000004 1.0000000180025095e-35 2.5000000000000004 1.5000000000000002 1.0000000180025095e-35 2.5000000000000004 10.500000000000002 1.0000000180025095e-35 15.500000000000002 13.500000000000002 11.500000000000002 1.0000000180025095e-35 15.500000000000002 1.5000000000000002 2.5000000000000004 2.5000000000000004 17.500000000000004 15.500000000000002 1.0000000180025095e-35 2.5000000000000004 2.5000000000000004 1.5000000000000002 1.0000000180025095e-35 1.5000000000000002 1.0000000180025095e-35 11.500000000000002 1.0000000180025095e-35 1.5000000000000002 1.0000000180025095e-35 1.5000000000000002 1.0000000180025095e-35 3.5000000000000004 1.0000000180025095e-35 2.5000000000000004 1.0000000180025095e-35 1.0000000180025095e-35 1.0000000180025095e-35 16.500000000000004 17.500000000000004 13.500000000000002
decision_type=2 2 2 2 2 2 2 2 2 2 2 2 2 2 2 2 2 2 2 2 2 2 2 2 2 2 2 2 2 2 2 2 2 2 2 2 2 2 2 2 2 2 2 2 2 2 2 2 2 2 2 2 2 2 2 2 2 2 2 2 2 2
left_child=1 19 3 47 9 11 7 34 20 -3 -11 12 56 14 21 25 29 24 39 52 46 28 -16 -6 -10 41 33 57 43 30 31 -5 42 -21 36 -14 -7 -27 -9 -19 -41 -15 -17 44 45 -13 -8 -2 -49 -34 -30 -52 53 -1 55 -51 -4 -12 59 -18 61 -60
right_child=2 4 5 16 23 6 8 38 17 10 27 13 35 15 22 32 58 18 -20 26 -22 -23 -24 -25 -26 37 -28 -29 50 -31 -32 -33 49 -35 -36 -37 -38 -39 -40 40 -42 -43 -44 -45 -46 -47 -48 48 -50 54 51 -53 -54 -55 -56 -57 -58 -59 60 -61 -62 -63
leaf_value=-0.19947390651227578 -0.18400016189807492 -0.19053591306623852 0.21132861298632097 0.35526231723633273 -0.19650077370246571 -0.03852181073609371 0.29458322463942371 0.12110418601261526 0.083576284773164103 -0.054437831657434238 0.058727401296383874 0.53629450215526742 0.12693839315788411 0.22420488487675622 0.014698506776964562 0.2775009092447478 -0.20442890310277601 0.084389327888774457 0.21420237356783658 -0.20270622613652042 0.30307063735607431 0.20889330012586804 0.088832450415474148 -0.13007676838470245 0.1830656354537033 0.11394366657304655 -0.18276013889649678 0.045943461060894281 0.056262870794937483 0.29941196032794382 0.22221297450873828 1.4353771639162185 0.14121136972929527 -0.11438880534295666 0.065432175018272087 -0.028194422032379041 0.0073729763794258621 -0.0079638403155400488 0.20439823901182505 0.089549453262303208 0.0078050597391350679 0.10160259870922464 0.19187530084166796 0.25643587012155233 0.049925733069897255 0.15463674340011138 0.15391387796658967 0.087652046998067973 -0.14524653264863399 0.37621376329286066 0.054794375067100679 0.16750475277112059 -0.2007824973574667 -0.17010716325794972 0.31606376389038421 0.19659081271299308 0.15293496233582371 0.17365695100167494 0.080237009651806052 0.17373210328032737 -0.033379109079439036 0.3088515870890553
leaf_weight=491.36344490759075 71.702635541558266 31.903062694706023 31.958644619211555 0.71284252591431163 65.431573060341179 78.060679601505399 5.7796359285712233 23.349692445248365 35.179504126310349 95.370333053171635 7.4869009051471975 1.8276158161461342 5.4275343762710682 10.225044557824729 64.053291857242584 21.747729189693928 1.9240043936297309 85.028821870684624 14.792742498219011 22.244831012561917 45.921683974564075 168.11532832309604 146.33073829114437 245.77991606481373 65.671767026185989 11.246640501543878 217.50951309781522 70.965032681822777 19.428490042686462 6.357970954850316 0.76866034045815457 0.6091720275580883 3.9295992255210868 102.00935429055244 31.914498962461948 86.259220472536981 219.05102701485157 27.323583697900176 56.042767781764269 26.077467635273933 59.319639660418034 28.650770969688892 43.120748393237591 15.787928596138952 8.0239684469997883 8.8933784440159798 28.027897462248802 2.744801623746751 6.7760582156479359 5.0632414929568776 10.683974187821148 27.46606257557869 1474.1134810745716 301.30090226139873 47.06397932395339 15.0422328338027 75.423361768946052 22.357894668355584 2.8079693904146534 1.5612691193819044 2.2457118928432465 3.0554576804861426
leaf_count=28019 4363 2186 592 26 5138 618 66 389 153 4011 224 18 256 378 276 513 94 348 242 1697 516 1907 649 15564 359 412 15303 2253 85 122 6 21 69 5027 498 4302 1369 1087 1169 224 512 1145 1393 181 95 100 151 153 356 84 51 185 104913 17166 829 265 1578 536 132 8 9 118
internal_value=0 -0.174624 0.0982676 -0.0964076 -0.0899608 0.110163 0.0813955 0.0366757 0.131326 -0.0161685 0.0121873 0.135384 0.0831149 0.150595 0.132046 0.191498 0.208254 0.0982445 0.070956 -0.192128 0.250021 0.185231 0.0662617 -0.144042 0.148361 0.0809258 -0.163651 0.0752176 0.142043 0.379007 0.621065 0.852969 0.25448 -0.1302 0.00211611 -0.0190111 -0.00468504 0.027583 0.179901 0.0585224 0.0327671 0.133849 0.220582 0.197046 0.147025 0.219698 0.177962 -0.171587 -0.0781034 0.285407 0.109055 0.13594 -0.196421 -0.188311 0.293843 0.241826 0.170314 0.144826 0.0838289 -0.0350272 0.134913 0.199369
internal_weight=0 3147.84 1758.58 101.267 539.295 1657.31 774.218 408.419 365.799 228.083 196.18 883.093 199.069 684.024 470.611 213.414 20.0431 286.07 185.219 2608.54 79.7292 260.227 210.384 311.211 100.851 77.446 341.764 100.81 92.1114 8.44865 2.09067 1.32201 135.968 124.254 329.026 91.6868 297.112 38.5702 79.3925 170.426 85.3971 38.8758 64.8685 34.5329 18.745 10.721 33.8075 81.2235 9.52086 71.0991 57.5785 38.15 2266.78 792.664 67.1695 20.1055 107.382 29.8448 11.5944 3.48527 8.10914 5.86343
internal_count=230509 202037 28472 5408 29912 23064 6614 4043 2571 9210 7024 16450 6728 9722 3547 6175 536 1838 1326 172125 733 2622 925 20702 512 3022 22027 3013 715 175 53 47 3153 6724 2485 4558 1987 1499 1558 1084 736 1523 1906 394 213 118 217 4872 509 1247 321 236 150098 45185 1178 349 2170 760 361 102 259 250
is_linear=0
shrinkage=0.2


Tree=6
num_leaves=63
num_cat=0
split_feature=4 1 4 4 1 4 2 1 2 2 1 4 4 4 1 4 2 4 4 1 4 1 4 2 4 1 3 1 2 4 1 3 4 1 1 4 3 3 3 4 1 4 4 1 2 4 3 1 1 1 4 2 3 1 4 1 4 1 4 1 4 1
split_gain=1637.9 150.442 36.9487 35.1122 30.7446 20.6926 19.9744 17.9673 16.6543 14.8422 14.1815 8.5909 7.16016 6.28197 5.61914 5.49003 8.06762 6.36633 5.21375 4.81347 5.6508 4.7329 4.52191 4.35095 4.32867 4.38041 6.91499 4.30908 4.09938 6.01965 4.05168 3.83369 3.7536 3.63272 3.51365 3.43532 3.10053 2.89088 2.88537 3.76395 2.75443 2.6657 2.61166 2.52224 2.48915 4.62685 2.36383 9.7483 3.74578 2.35947 3.42198 12.4635 2.53308 2.35075 2.2667 2.39826 2.21184 2.44252 5.58259 2.20843 2.08034 2.87545
threshold=7.5000000000000009 29.500000000000004 8.5000000000000018 5.5000000000000009 37.500000000000007 9.5000000000000018 1.0000000180025095e-35 24.500000000000004 1.0000000180025095e-35 1.0000000180025095e-35 25.500000000000004 17.500000000000004 8.5000000000000018 9.5000000000000018 19.500000000000004 12.500000000000002 1.0000000180025095e-35 18.500000000000004 19.500000000000004 18.500000000000004 13.500000000000002 34.500000000000007 12.500000000000002 1.0000000180025095e-35 14.500000000000002 28.500000000000004 1.0000000180025095e-35 17.500000000000004 1.0000000180025095e-35 16.500000000000004 43.500000000000007 1.0000000180025095e-35 17.500000000000004 57.500000000000007 27.500000000000004 16.500000000000004 1.5000000000000002 1.0000000180025095e-35 1.5000000000000002 13.500000000000002 25.500000000000004 13.500000000000002 13.500000000000002 25.500000000000004 1.0000000180025095e-35 3.5000000000000004 1.5000000000000002 26.500000000000004 27.500000000000004 50.500000000000007 15.500000000000002 1.0000000180025095e-35 1.5000000000000002 47.500000000000007 8.5000000000000018 33.500000000000007 12.500000000000002 41.500000000000007 11.500000000000002 26.500000000000004 6.5000000000000009 32.500000000000007
decision_type=2 2 2 2 2 2 2 2 2 2 2 2 2 2 2 2 2 2 2 2 2 2 2 2 2 2 2 2 2 2 2 2 2 2 2 2 2 2 2 2 2 2 2 2 2 2 2 2 2 2 2 2 2 2 2 2 2 2 2 2 2 2
left_child=3 2 6 44 5 9 14 19 10 -3 -5 21 -6 23 -2 -15 17 -17 30 20 -4 -7 -23 43 25 34 -27 -8 29 -22 37 -24 -26 49 40 -21 -35 42 -28 -40 41 -18 -14 -9 45 -1 59 -48 -49 50 52 -52 -32 -54 -11 -56 57 -39 -59 -45 -12 -62
right_child=1 4 7 8 12 11 27 13 -10 54 60 -13 18 15 -16 16 24 -19 -20 35 28 22 31 -25 32 26 38 -29 -30 -31 33 -33 -34 36 -36 -37 -38 56 39 -41 -42 -43 -44 46 -46 -47 47 48 -50 -51 51 -53 53 -55 55 -57 -58 58 -60 -61 61 -63
leaf_value=-0.19781101771043041 0.18347657123945324 0.020537730266488859 0.19655906153049252 -0.028384265503956875 -0.14171603448771083 0.051589600124879176 0.13105158419853735 0.18504620191345389 -0.16471886631770727 -0.14938560748464388 -0.15863747939441819 0.16809954440779376 -0.10221665877351399 0.11780323124599815 0.046568163197044238 0.014965313106649079 0.20678216902461807 0.20887553068283507 0.21293012812976292 0.12415991258091119 -0.039237746605174526 0.042818149653253534 0.039435212397176102 -0.048081069560108491 0.039102337085318704 -0.12121009611608569 0.52497553562560872 -0.09508193484229191 0.16358500556952016 0.20664328230921247 -0.018384544655709292 -0.068072027058879478 0.19649009679666474 -0.071209124118073466 0.028799101827892304 0.1872168435138174 0.38422504799583151 -0.012271977391053851 0.089349780920266186 0.45936587438173543 0.20722643660018544 -0.0027616737346975225 -0.0038206197301649592 0.12566277721690547 -0.1997768759782001 -0.16345505735960239 -0.16374450283274278 0.38171819174306254 0.11409225554396706 -0.1720561928676384 0.074018366266238506 -0.52989500269592538 -0.14309274938690944 -0.015007842706617737 -0.026841962105026013 -0.1355986411756408 -0.045429496112834207 0.0088100451446564577 0.28391948612849716 -0.075114497187150103 -0.067915006925366131 -0.15212203640178726
leaf_weight=405.33794063795358 15.137636117637156 66.435032066889107 98.117351299151778 82.455359087325633 35.802931310608983 285.69806942809373 3.5880583915859452 6.0023830197751549 337.76306729018688 33.823787934146821 67.465721491724253 21.181186351925135 35.428317612037063 191.4218343468383 57.694638011045754 89.802562545984983 3.9614383075386304 7.3248906619846812 3.0708883963525286 495.09070466924459 12.626250196248295 61.806635341607034 19.454709387384355 21.850460449233651 35.462612338364124 1.4121037572622279 2.7253997232764959 55.62994235008955 24.111778158694506 5.8178887125104657 25.73335050418973 41.721347842365503 7.3108889646828166 1.2074665892869225 10.927051257342098 37.152432478964329 1.1844473388046026 50.466171292588115 2.3396115768700838 2.0749354138970375 18.829581886529922 6.2751102671027184 15.515361363999544 2.9248695541173229 1212.3664612118155 255.71879449952394 3.9039161540567884 3.365522522479294 5.5279561057686806 13.36855410505086 2.71829068660736 2.74968146905303 19.559838101267818 8.1071153804659826 18.093479024246335 14.699519525282083 53.982898229733109 11.702536891214548 3.9450415279716244 8.7381073487922531 33.659311477094889 31.30841947812587
leaf_count=28019 320 2171 1253 3536 2615 3640 229 111 27190 2696 4734 396 793 2773 1576 843 32 181 54 6066 168 1177 140 1281 199 14 19 4005 177 190 673 281 106 26 81 774 17 1514 19 12 132 34 107 50 104913 17166 69 67 131 299 32 17 488 185 1049 870 388 435 45 187 1657 2087
internal_value=0 0.0604043 0.104873 -0.181325 -0.00451203 0.0225717 0.00488415 0.11682 -0.137026 -0.0463523 -0.0934981 0.0439052 -0.058092 0.084999 0.0750235 0.0939472 0.0697144 0.0295891 -0.0460554 0.137258 0.17016 0.0374685 0.00466399 0.0200226 0.112392 0.153265 0.283184 -0.0813804 0.109294 0.0383212 -0.0492928 -0.0338835 0.0660032 -0.0881766 0.125484 0.128562 0.154316 -0.0323269 0.363163 0.263266 0.161831 0.0783296 -0.0722492 0.0688723 -0.194394 -0.184521 0.0403641 0.0997182 0.215369 -0.096206 -0.078981 -0.229672 -0.0635509 -0.105561 -0.11306 -0.0755923 -0.0153923 0.00913357 0.0781702 -0.0247631 -0.134039 -0.108495
internal_weight=0 2084.6 1237.15 2426.08 847.457 562.914 132.05 1105.1 552.652 133.052 214.889 429.862 284.543 432.181 72.8323 379.868 188.446 97.1275 248.74 672.916 140.673 408.681 122.983 52.3132 91.3187 48.5452 8.55205 59.218 42.5559 18.4441 245.669 61.1761 42.7735 74.6287 39.9932 532.243 2.39191 171.04 7.13995 4.41455 29.0661 10.2365 50.9437 30.4628 1873.42 661.057 24.4604 12.7974 8.89348 72.2368 58.8683 5.46797 53.4003 27.667 66.6168 32.793 120.097 66.1137 15.6476 11.663 132.433 64.9677
internal_count=230509 41207 21099 189302 20108 12420 6130 14969 39204 6786 12014 5634 7688 6341 1896 4445 1672 1024 5073 8628 1788 5238 1598 1896 648 343 64 4234 535 358 5019 421 305 1737 279 6840 43 3282 50 31 198 66 900 615 150098 45185 504 267 198 1694 1395 49 1346 673 4615 1919 2382 1994 480 237 8478 3744
is_linear=0
shrinkage=0.2


Tree=7
num_leaves=63
num_cat=0
split_feature=4 0 1 4 4 1 1 2 4 1 2 2 1 0 4 4 2 4 1 4 4 2 1 1 1 1 4 4 4 0 1 0 0 0 0 4 1 1 2 4 2 4 4 4 0 1 1 4 4 1 1 4 1 1 1 1 1 4 1 4 0 1
split_gain=1300.07 96.8386 83.0711 40.0148 38.754 21.3908 17.4144 16.3061 12.7913 12.0342 10.7219 10.0798 9.94656 9.4647 8.87108 6.47183 6.92574 4.61134 4.43356 4.33377 4.94491 5.20164 4.32719 10.9758 6.3737 5.08135 4.28801 4.23697 4.05116 3.94631 3.88285 3.7977 3.73676 3.66968 3.641 3.60895 3.11498 7.76412 3.03398 5.27753 2.94664 8.93253 5.89646 5.0295 6.13214 7.17612 5.3386 8.26909 4.30692 2.88556 3.34608 2.91362 2.83618 2.79581 2.76353 2.75095 2.66651 3.39079 2.65028 2.61763 2.5814 5.29563
threshold=7.5000000000000009 1.0000000180025095e-35 29.500000000000004 12.500000000000002 5.5000000000000009 34.500000000000007 37.500000000000007 1.0000000180025095e-35 8.5000000000000018 25.500000000000004 1.0000000180025095e-35 1.0000000180025095e-35 24.500000000000004 1.0000000180025095e-35 18.500000000000004 8.5000000000000018 1.0000000180025095e-35 8.5000000000000018 18.500000000000004 17.500000000000004 12.500000000000002 1.0000000180025095e-35 29.500000000000004 30.500000000000004 22.500000000000004 32.500000000000007 9.5000000000000018 14.500000000000002 18.500000000000004 2.5000000000000004 18.500000000000004 1.5000000000000002 2.5000000000000004 2.5000000000000004 1.0000000180025095e-35 19.500000000000004 32.500000000000007 33.500000000000007 1.0000000180025095e-35 3.5000000000000004 1.0000000180025095e-35 11.500000000000002 9.5000000000000018 14.500000000000002 1.5000000000000002 36.500000000000007 33.500000000000007 12.500000000000002 17.500000000000004 31.500000000000004 34.500000000000007 16.500000000000004 25.500000000000004 36.500000000000007 33.500000000000007 43.500000000000007 57.500000000000007 10.500000000000002 19.500000000000004 16.500000000000004 1.5000000000000002 35.500000000000007
decision_type=2 2 2 2 2 2 2 2 2 2 2 2 2 2 2 2 2 2 2 2 2 2 2 2 2 2 2 2 2 2 2 2 2 2 2 2 2 2 2 2 2 2 2 2 2 2 2 2 2 2 2 2 2 2 2 2 2 2 2 2 2 2
left_child=4 3 8 -2 38 11 14 9 10 13 58 22 28 -6 15 16 60 31 -12 20 26 -22 24 -24 -5 -25 52 -23 -10 -15 -13 -8 -11 -29 -9 55 -32 -38 39 -1 41 -17 -42 44 45 46 47 -44 -43 59 51 -51 -14 -46 -53 -19 -57 -58 -3 -45 61 -4
right_child=1 2 6 5 7 -7 17 34 12 32 18 30 19 29 -16 40 -18 35 -20 -21 21 27 23 25 -26 -27 -28 33 -30 -31 36 -33 -34 -35 -36 -37 37 -39 -40 -41 42 48 43 49 53 -47 -48 -49 -50 50 -52 54 -54 -55 -56 56 57 -59 -60 -61 -62 -63
leaf_value=-0.19608160095091798 -0.17282048339485515 0.14616891303480437 0.054826368546992202 0.4947832423681498 -0.2023887010899047 -0.20946363316872041 0.18991105784962492 -0.20177802158493363 0.11078933302796799 -0.16822033505235293 0.11681936553105805 0.51072148234654269 0.130604356325945 0.081372904224781981 0.19425371725166085 0.063033031564396103 -0.12433177330103196 -0.014876238826710856 -0.073389446261796512 0.18138692970707895 0.0086409416101690881 0.11605092238548101 1.3158415276228215 0.0086632014434008114 0.076311382988051124 0.71235182787149076 0.1019548450153661 0.1162868708540572 0.20725392631590536 -0.025820274761254106 0.023182638133723604 -0.13590163046029768 -0.09497974434797983 -0.021676960736160912 -0.14621927612097366 0.21045108647523769 1.2857013075097261 -0.20505470713611984 -0.19876975075025152 -0.15610161909549988 -0.038867304365161746 -0.016762926656200813 0.49397813227324444 -0.030541279559059775 0.063758623269266027 -0.21624212356850131 0.62394686132876309 -0.043174123024341531 0.20916698729024086 0.13762273631703364 -0.044580983531108481 -0.17899462215585787 0.010291227331979225 0.17406844269752014 0.23128334582260199 -0.070595775689809223 0.4613436067305321 -0.041133938633447137 0.054873557926370775 -0.25898565820425562 0.0022846101378313222 0.69992995627344179
leaf_weight=334.49856262467802 105.97948242351413 16.555362273007631 2.2524003796279461 3.0226384624838865 10.301145435310898 6.2729597305878988 1.5221832431852842 59.486155354417861 643.63418237864971 46.222636734135449 5.6140834046527734 0.79871938191354352 9.8736781403422338 18.77712613530457 12.570691734552382 106.37309835851192 23.07258711475879 158.64858043938875 38.631740621291101 14.560958638787268 83.585615187883377 50.19275788962841 0.64646740630269084 0.86320971697568871 2.8086458221077919 0.78260645270347595 193.53493677638471 11.651791252195833 17.898463685065508 51.188469605520368 8.9915082771331036 23.893037961795926 70.15800675470382 22.806503407657146 228.10764054954052 2.5407583490014067 0.26834740117192346 0.29160196147859097 997.12873934395611 218.23699809610844 25.489381596446037 155.39263908565044 2.2729467824101439 10.645916141569613 107.62867806479335 1.0869370345026252 1.8708898127079008 2.3128586411476135 3.4499778822064391 13.538955412805086 11.243192676454781 2.4764643833041187 38.000920003280044 10.048576535657046 0.89368453621864308 65.004040723666549 0.86516561359167043 1.4170490605756638 54.887778263539076 2.4722887128591529 26.826034098863602 0.65760852769017208
leaf_count=28019 8005 258 45 37 884 171 97 6814 6674 3808 312 15 266 662 279 1431 2017 2542 2841 372 722 278 8 14 40 12 2164 66 568 1990 214 1883 4670 117 20376 54 12 13 104913 17166 1467 946 55 49 1967 21 34 13 83 62 57 29 1184 198 8 1302 17 11 1220 28 917 12
internal_value=0 0.0473643 0.0583831 -0.119351 -0.176751 0.109636 0.00739824 -0.127363 0.0913339 -0.0829798 0.0281136 0.21799 0.0980702 -0.0234043 0.0282754 0.0241844 -0.0421067 -0.0355727 -0.049255 0.0741651 0.0703539 0.0440317 0.384745 0.617558 0.293226 0.343276 0.0886976 0.0789771 0.113399 0.00294786 0.0871087 -0.116388 -0.124069 0.0249744 -0.157711 -0.0265829 0.051685 0.509368 -0.192181 -0.180296 0.0318413 0.0181807 0.0507131 0.0644277 0.0843839 0.259189 0.339224 0.223064 -0.0118558 0.00387756 0.0399774 0.0962019 0.0351047 0.0731781 -0.0701985 -0.0292485 -0.0631356 0.14935 0.0760292 -0.0735945 0.0216928 0.200608
internal_weight=0 2108.62 1977.9 130.726 2034.11 24.7467 776.467 484.241 1201.43 196.647 115.689 18.4737 1085.74 80.2667 522.576 510.005 52.8086 253.891 44.2458 424.207 409.646 168.237 8.12357 2.29228 5.83128 1.64582 241.41 84.6511 661.533 69.9656 10.3502 25.4152 116.381 34.4583 287.594 228.476 9.55146 0.559949 1549.86 552.736 457.196 265.216 191.981 166.491 125.221 7.54363 6.4567 4.58581 158.843 41.2705 28.1523 16.9091 47.8746 117.677 3.37015 225.935 67.2863 2.28221 71.4431 13.1182 29.736 2.91001
internal_count=230509 41207 32666 8541 189302 536 15624 39204 17042 12014 4631 365 12411 3536 9718 9439 2991 5906 3153 5169 4797 1183 111 34 77 26 3614 461 7242 2652 254 1980 8478 183 27190 3926 239 25 150098 45185 6448 2460 3988 2521 2288 123 102 68 1029 233 156 99 1450 2165 37 3872 1330 28 1478 77 974 57
is_linear=0
shrinkage=0.2


Tree=8
num_leaves=63
num_cat=0
split_feature=4 0 1 4 4 2 1 1 0 1 4 2 4 4 2 4 1 4 0 0 4 2 4 1 2 4 4 4 2 2 4 1 4 2 4 1 4 1 1 0 1 1 1 4 1 4 4 1 4 1 1 1 1 0 0 1 0 4 4 0 1 1
split_gain=1032.33 68.3572 51.9741 42.0923 29.4275 15.4791 13.2913 13.2672 10.553 10.2995 9.37074 7.9042 7.35042 7.13664 6.53058 6.16766 4.41403 4.05006 4.02898 4.02256 3.79758 9.10646 3.68067 4.16281 3.64296 5.96019 3.54807 6.33981 9.02625 5.67928 5.50283 7.49801 3.38487 3.30156 3.54775 2.98365 2.94861 2.94346 2.8862 2.86947 2.82263 2.71055 2.54046 2.49469 2.32677 2.54635 2.30675 2.20783 2.18146 5.00626 2.10809 5.73307 4.31726 4.09931 3.92998 3.45168 2.89255 2.10171 2.06992 2.0437 2.9994 2.99534
threshold=7.5000000000000009 1.0000000180025095e-35 28.500000000000004 5.5000000000000009 11.500000000000002 1.0000000180025095e-35 34.500000000000007 36.500000000000007 1.0000000180025095e-35 29.500000000000004 18.500000000000004 1.0000000180025095e-35 17.500000000000004 8.5000000000000018 1.0000000180025095e-35 8.5000000000000018 18.500000000000004 13.500000000000002 1.0000000180025095e-35 1.5000000000000002 16.500000000000004 1.0000000180025095e-35 12.500000000000002 42.500000000000007 1.0000000180025095e-35 3.5000000000000004 10.500000000000002 11.500000000000002 1.0000000180025095e-35 1.0000000180025095e-35 16.500000000000004 33.500000000000007 19.500000000000004 1.0000000180025095e-35 16.500000000000004 20.500000000000004 6.5000000000000009 18.500000000000004 17.500000000000004 1.0000000180025095e-35 49.500000000000007 59.500000000000007 39.500000000000007 6.5000000000000009 24.500000000000004 12.500000000000002 13.500000000000002 34.500000000000007 13.500000000000002 34.500000000000007 22.500000000000004 21.500000000000004 27.500000000000004 2.5000000000000004 2.5000000000000004 24.500000000000004 2.5000000000000004 19.500000000000004 8.5000000000000018 2.5000000000000004 34.500000000000007 33.500000000000007
decision_type=2 2 2 2 2 2 2 2 2 2 2 2 2 2 2 2 2 2 2 2 2 2 2 2 2 2 2 2 2 2 2 2 2 2 2 2 2 2 2 2 2 2 2 2 2 2 2 2 2 2 2 2 2 2 2 2 2 2 2 2 2 2
left_child=3 4 10 24 -2 8 11 12 -5 43 13 -6 26 14 -3 19 17 -15 -7 -9 22 -22 40 -24 25 -1 29 -28 47 -4 48 -32 42 34 38 46 -20 -16 -19 -27 -17 -42 -23 -10 -18 -46 -13 -29 -30 -50 51 -45 54 -53 55 -52 -54 -37 -31 60 61 -60
right_child=1 2 7 5 6 18 -8 15 9 -11 -12 35 -14 16 37 20 44 33 36 -21 21 32 23 -25 -26 39 27 28 30 58 31 -33 -34 -35 -36 57 -38 -39 -40 -41 41 -43 -44 50 45 -47 -48 -49 49 -51 52 53 56 -55 -56 -57 -58 -59 59 -61 -62 -63
leaf_value=-0.1942216264442686 -0.17786551841472228 0.059212940365251543 0.030065923036951315 -0.19373743080721625 0.22455319944636853 -0.20145313803144799 -0.20054034555236774 0.13664364219858335 -0.046895918127185701 -0.1203890950436021 0.20618163909369072 0.028203698507882916 0.15960880205355227 0.12889597878132064 0.082318804439474175 0.0065436638165221606 0.079835862642164954 0.036724710113089934 -0.16014172305280119 -0.13884164914132074 0.19728745428236988 -0.019844704084651464 -0.024110436820295789 -0.10884765039798623 -0.19772125091680121 -0.20156334023620681 0.084729719028434888 0.0013490978302358224 0.098897894807682199 -0.092968852297935278 -0.2401731946842893 0.23491216335113352 0.2090414276795555 0.10130293896575322 0.20517257945355355 -0.050150037607638892 -0.11118573336354041 -0.06724419888182713 -0.16257921503814488 -0.13658153817283689 -0.14756741374906654 0.15228314026398837 -0.29751295806561612 0.014083124445539323 0.072942271705458389 0.037944477426083249 0.37395984836117313 -0.056695398062226378 0.070438448684721461 -0.075496427212860318 0.23658759984075806 -0.038639528120502052 -0.10201075522094015 0.40039177913633228 -0.12303970961655292 -0.073659050225083747 0.17978047234388622 0.3696650294081823 0.04078912676496306 -0.045319116817907394 -0.14020317075343808 0.30987392872573272
leaf_weight=276.22737963870168 81.416879652999341 70.311366952955723 107.30588768608868 24.999814555514604 12.202733546495438 48.773562485352159 7.2250333558768025 2.316154393367472 48.195542508736253 58.381810675375164 21.040826920419931 1.7003802284598362 16.214581025764346 106.19912089407444 6.2806927245110264 135.44643694534898 519.58470586687326 5.4528873823583108 105.33708020113409 25.052598644979298 9.956302475184204 2.3745178729295722 77.867490105330944 33.025092290714383 820.27944169193506 32.9864696348086 78.487327411770821 133.92363839223981 56.624253928661346 21.9852439686656 5.0196205303072921 1.8072236403822897 1.1159502379596231 20.225856065750122 2.2420818507671347 12.064715325832363 92.360298710875213 32.497294946573675 6.2235543765127659 154.46632565185428 8.4042300935834628 1.4079022258520115 2.9622721374034882 18.107137644663457 203.35717551223934 140.68578511476517 1.4133866652846334 32.591083280742168 54.869983844459057 11.347276344895361 2.704544080421333 1.1928116232156742 1.9544030111283053 2.9661545976996422 14.609797786921263 3.0543811898678541 5.7262570708990097 0.49663302302360612 11.324434196576476 38.882945003919303 3.0380849968641988 1.9378990605473525
leaf_count=28019 7496 1323 2198 2976 209 6814 323 110 2352 4774 772 58 423 974 312 3392 5323 79 11401 2167 155 23 454 204 104913 4292 970 864 628 2116 38 15 27 121 93 438 8975 2544 84 12874 293 13 24 579 2881 1052 15 184 255 55 82 41 95 98 604 142 271 2 432 1856 131 81
internal_value=0 0.0370609 0.045697 -0.1716 -0.111869 -0.117311 0.0412018 0.00908346 -0.073055 -0.0538251 0.073955 0.103853 0.0268615 0.0714554 0.0228721 -0.0250204 0.0767344 0.109631 -0.149971 -0.115528 -0.0159323 0.0773413 -0.0219074 -0.0493462 -0.189712 -0.175542 0.023012 0.0341911 0.0207985 0.000307012 0.0603637 -0.114407 -0.10773 0.0497121 -0.0252578 0.0098914 -0.13727 -0.0430202 -0.0695045 -0.148017 -0.000960183 -0.104543 -0.173969 -0.0143765 0.0713885 0.058631 0.185148 -0.0100117 0.0700765 0.0454304 0.0167728 0.0627204 -0.0197012 0.274475 -0.0678838 0.072041 0.108077 -0.033552 -0.0410739 -0.0203988 0.0390462 0.0801079
internal_weight=0 2125.91 2009.39 1712.32 116.52 428.364 35.1029 875.288 181.893 156.893 1134.1 27.8778 575.359 1113.06 109.089 299.929 1003.97 140.344 246.471 27.3688 272.56 16.409 256.151 110.893 1283.96 463.68 559.145 374.67 296.183 184.474 129.668 6.82684 6.45274 34.1444 13.9185 15.6751 197.697 38.778 11.6764 187.453 145.259 9.81213 5.33679 98.511 863.628 344.043 3.11377 166.515 122.842 66.2173 50.3155 22.2661 28.0494 4.15897 20.3687 5.75893 7.68066 12.5613 77.1686 55.1834 16.3004 13.2623
internal_count=230509 41207 32666 189302 8541 39204 1045 17108 12014 9038 15558 722 10246 14786 4179 6862 10607 1351 27190 2277 4585 229 4356 658 150098 45185 9823 3009 2039 6814 991 53 74 377 256 513 20376 2856 163 17166 3698 306 47 4264 9256 3933 73 1048 938 310 1912 718 1194 139 828 224 366 440 4616 2500 644 513
is_linear=0
shrinkage=0.2


end of trees

feature_importances:
Column_1=187
Column_4=140
Column_0=106
Column_3=74
Column_2=51

parameters:
[boosting: gbdt]
[objective: binary]
[metric: custom]
[tree_learner: serial]
[device_type: cpu]
[data: ]
[valid: ]
[num_iterations: 10000]
[learning_rate: 0.2]
[num_leaves: 63]
[num_threads: 0]
[deterministic: 0]
[force_col_wise: 0]
[force_row_wise: 0]
[histogram_pool_size: -1]
[max_depth: -1]
[min_data_in_leaf: 10]
[min_sum_hessian_in_leaf: 0.001]
[bagging_fraction: 1]
[pos_bagging_fraction: 1]
[neg_bagging_fraction: 1]
[bagging_freq: 0]
[bagging_seed: 21709]
[feature_fraction: 0.8]
[feature_fraction_bynode: 1]
[feature_fraction_seed: 24116]
[extra_trees: 0]
[extra_seed: 15571]
[early_stopping_round: 0]
[first_metric_only: 0]
[max_delta_step: 0]
[lambda_l1: 0]
[lambda_l2: 0]
[linear_lambda: 0]
[min_gain_to_split: 0]
[drop_rate: 0.1]
[max_drop: 50]
[skip_drop: 0.5]
[xgboost_dart_mode: 0]
[uniform_drop: 0]
[drop_seed: 15722]
[top_rate: 0.2]
[other_rate: 0.1]
[min_data_per_group: 100]
[max_cat_threshold: 32]
[cat_l2: 10]
[cat_smooth: 10]
[max_cat_to_onehot: 4]
[top_k: 20]
[monotone_constraints: ]
[monotone_constraints_method: basic]
[monotone_penalty: 0]
[feature_contri: ]
[forcedsplits_filename: ]
[refit_decay_rate: 0.9]
[cegb_tradeoff: 1]
[cegb_penalty_split: 0]
[cegb_penalty_feature_lazy: ]
[cegb_penalty_feature_coupled: ]
[path_smooth: 0]
[interaction_constraints: ]
[verbosity: -1]
[saved_feature_importance_type: 0]
[linear_tree: 0]
[max_bin: 255]
[max_bin_by_feature: ]
[min_data_in_bin: 3]
[bin_construct_sample_cnt: 200000]
[data_random_seed: 4074]
[is_enable_sparse: 1]
[enable_bundle: 1]
[use_missing: 1]
[zero_as_missing: 0]
[feature_pre_filter: 1]
[pre_partition: 0]
[two_round: 0]
[header: 0]
[label_column: ]
[weight_column: ]
[group_column: ]
[ignore_column: ]
[categorical_feature: ]
[forcedbins_filename: ]
[precise_float_parser: 0]
[objective_seed: 10917]
[num_class: 1]
[is_unbalance: 0]
[scale_pos_weight: 1]
[sigmoid: 1]
[boost_from_average: 1]
[reg_sqrt: 0]
[alpha: 0.9]
[fair_c: 1]
[poisson_max_delta_step: 0.7]
[tweedie_variance_power: 1.5]
[lambdarank_truncation_level: 30]
[lambdarank_norm: 1]
[label_gain: ]
[eval_at: ]
[multi_error_top_k: 1]
[auc_mu_weights: ]
[num_machines: 1]
[local_listen_port: 12400]
[time_out: 120]
[machine_list_filename: ]
[machines: ]
[gpu_platform_id: -1]
[gpu_device_id: -1]
[gpu_use_dp: 0]
[num_gpu: 1]

end of parameters

pandas_categorical:null
