tree
version=v3
num_class=1
num_tree_per_iteration=1
label_index=0
max_feature_idx=4
objective=binary sigmoid:1
feature_names=Column_0 Column_1 Column_2 Column_3 Column_4
feature_infos=[0:3] [17:123] [0:1] [0:2] [1:27]
tree_sizes=6628 6687 6720 6707 6739 6748 6733 6785 6803 6794 6787 6787 6813 6811 6810 6842 6840 6823 6821 6843 6834 6805 6798 6816 6839 6827 6842 6819 6839 6802 6831 6833 6823 6826 6858 6845 6854 6864 6855 6861 6872 6846 6852 6859 6850 6873 6867 6851 6853 6875 6863 6852 6857 6858 6860 6841 6872 6827 6890 6863 6851 6852 6849 6846 6839 6855 6826 6855 6856 6863 6854 6898 6840 6850 6824 6849 6858 6859 6834 6910 6854 6905 6896 6877 6897 6892 6904 6888 6886 6890 6897 6868 6866

Tree=0
num_leaves=63
num_cat=0
split_feature=4 4 4 2 2 0 0 0 1 4 4 0 4 2 1 2 1 0 1 4 4 4 4 0 1 1 4 2 0 4 4 1 4 0 4 2 1 1 1 3 1 4 1 1 0 1 2 1 0 0 1 1 4 1 0 1 1 0 1 1 3 0
split_gain=100958 8520.43 5034.66 3692.75 2731.98 2064.91 1329.66 1278.4 864.216 648.272 572.325 536.645 519.465 614.749 514.084 460.872 387.504 317.098 377.071 198.822 187.255 182.796 181.264 176.176 176.565 163.725 147.646 185.042 134.961 117.312 99.815 92.544 90.327 75.7552 60.0794 71.2611 57.4216 56.6392 54.6909 53.1753 52.6329 51.144 46.0186 45.8725 42.7582 45.3645 41.0646 52.0423 40.18 38.3017 38.0276 37.0218 35.7918 34.7479 34.1295 35.7778 34.1288 33.8867 50.2262 33.7363 34.901 39.8255
threshold=12.500000000000002 14.500000000000002 10.500000000000002 1.0000000180025095e-35 1.0000000180025095e-35 1.0000000180025095e-35 1.0000000180025095e-35 1.0000000180025095e-35 29.500000000000004 8.5000000000000018 11.500000000000002 1.0000000180025095e-35 15.500000000000002 1.0000000180025095e-35 29.500000000000004 1.0000000180025095e-35 30.500000000000004 1.0000000180025095e-35 28.500000000000004 13.500000000000002 11.500000000000002 9.5000000000000018 13.500000000000002 1.0000000180025095e-35 21.500000000000004 24.500000000000004 17.500000000000004 1.0000000180025095e-35 2.5000000000000004 11.500000000000002 16.500000000000004 28.500000000000004 13.500000000000002 2.5000000000000004 7.5000000000000009 1.0000000180025095e-35 29.500000000000004 34.500000000000007 24.500000000000004 1.5000000000000002 41.500000000000007 11.500000000000002 45.500000000000007 39.500000000000007 1.0000000180025095e-35 29.500000000000004 1.0000000180025095e-35 34.500000000000007 2.5000000000000004 2.5000000000000004 19.500000000000004 27.500000000000004 13.500000000000002 32.500000000000007 1.0000000180025095e-35 18.500000000000004 17.500000000000004 2.5000000000000004 17.500000000000004 35.500000000000007 1.0000000180025095e-35 2.5000000000000004
decision_type=2 2 2 2 2 2 2 2 2 2 2 2 2 2 2 2 2 2 2 2 2 2 2 2 2 2 2 2 2 2 2 2 2 2 2 2 2 2 2 2 2 2 2 2 2 2 2 2 2 2 2 2 2 2 2 2 2 2 2 2 2 2
left_child=2 3 9 7 6 30 -4 -2 10 34 28 -5 13 53 19 17 38 -11 21 33 59 -19 40 -6 29 -15 27 -14 50 -25 46 -29 -16 51 -1 44 -32 -22 -9 -31 -18 -26 -33 -24 -36 -46 47 -3 -42 -34 -8 -13 -40 -7 -17 -56 -12 -21 -59 60 61 -10
right_child=1 5 4 11 23 12 8 16 20 15 56 14 26 25 32 54 22 18 -20 57 37 -23 43 24 41 -27 -28 31 -30 39 36 42 49 -35 35 -37 -38 -39 52 -41 48 -43 -44 -45 45 -47 -48 -49 -50 -51 -52 -53 -54 -55 55 -57 -58 58 -60 -61 -62 -63
leaf_value=-3.4462311611477694 -3.2775449112338659 -2.6978329638035516 -3.4105655809166193 -3.3952744666464962 -3.4389596232980164 -1.9460386002620822 -2.3260031640816039 -2.1217224897649754 -2.5623062143721875 -3.4467618883786728 -2.1382266330471191 -2.5879575323313624 -1.9138154570406389 -2.2325472446019239 -3.2364764616713204 -3.4469826569989839 -2.60683568364805 -3.2406374177151402 -3.3481978522893843 -2.4107021489749134 -2.7586932088704419 -3.0394566043820199 -2.2370156229911604 -3.2562684855568844 -3.3548085774030487 -2.6509198582311555 -1.8637612323728268 -2.0417419301527069 -2.9412800990311756 -3.1190310638339707 -2.3850789266542494 -2.2704024463661701 -2.786348257336372 -2.9731841712039779 -3.4484426529618779 -3.4399325011888364 -3.1826017213849709 -2.9966667345595033 -2.3447999976274434 -2.822934578663272 -2.5179993924427033 -3.2692439827331725 -2.8684260749758992 -2.6234190722059587 -3.3374933337248436 -3.4108014591102802 -3.4235200656265428 -3.4484426529618775 -3.1294335350695892 -3.0656317114911311 -2.6955811347360759 -3.0286938136299191 -2.168696773045137 -2.1294626462918371 -3.3170859573591707 -3.411109666340804 -2.4592405599267755 -2.0987886926483501 -2.6769826946602642 -3.2430719762071853 -3.1619075171304805 -3.0496812555965169
leaf_weight=5267.9371629953384 3.5108714103698722 0.53290012478828419 11.880538076162336 7.5232958793640128 26.362882643938065 12.413438200950621 0.84637078642845232 16.770680397748951 0.56424719095230114 29.748365789651871 0.87771785259246726 2.3823770284652732 24.826876401901245 3.8243420720100403 9.435466915369032 68.493339568376541 6.2380661666393262 26.707700371742249 56.362024962902069 2.6018064916133872 4.6393657922744751 19.560569286346436 4.9528364539146423 7.8054194748401624 45.9234519302845 6.0186367034912109 48.243134826421738 8.4950549304485303 12.91499125957489 2.8839300870895386 0.56424719095230091 4.7961011230945578 1.6613945066928852 7.6800312101840973 25.359776526689529 246.76410484313965 0.37616479396820068 5.4230424463748932 6.2067191004753095 3.1974007487297058 0.37616479396820046 28.181012481451035 0.34481772780418385 0.90906491875648487 41.911027461290359 42.506621718406677 2.0062122344970703 0.40751186013221741 0.94041198492050171 4.7020599246025085 3.9183832705020905 0.59559425711631764 5.3916953802108765 3.2600948810577401 10.658002495765684 199.55542320013046 14.607732832431791 0.4075118601322173 4.7961011230945587 7.3038664162158966 5.2349600493907928 1.6300474405288696
leaf_count=168052 112 17 379 240 841 396 27 535 18 949 28 76 792 122 301 2185 199 852 1798 83 148 624 158 249 1465 192 1539 271 412 92 18 153 53 245 809 7872 12 173 198 102 12 899 11 29 1337 1356 64 13 30 150 125 19 172 104 340 6366 466 13 153 233 167 52
internal_value=-3.39677 -2.30002 -3.4326 -2.67389 -3.17509 -2.01962 -2.92869 -2.36116 -2.82992 -3.44046 -2.66298 -3.01289 -1.98038 -2.17868 -2.92892 -3.37984 -2.28417 -3.30303 -3.26136 -2.74976 -3.05321 -3.15559 -2.50558 -3.32558 -3.29161 -2.48837 -1.92202 -1.99509 -2.85737 -3.12799 -3.15259 -2.14307 -3.13829 -2.89018 -3.44489 -3.42502 -2.70409 -2.88695 -2.17946 -2.96335 -2.66747 -3.32227 -2.31051 -2.29694 -3.39151 -3.37441 -3.29573 -3.0231 -2.95474 -2.99272 -2.62993 -2.6761 -2.26294 -1.98419 -3.41633 -3.40634 -2.44105 -2.55804 -2.6317 -3.16676 -3.09174 -2.92436
internal_weight=0 203.192 6219.76 87.0821 184.195 116.11 69.8413 45.2965 57.9607 6035.56 33.1652 41.7856 112.222 25.5165 34.2623 411.085 41.7856 132.379 102.63 18.4634 24.7955 46.2683 13.4165 114.354 87.9912 9.84298 86.706 38.4629 17.6797 13.8868 3.88704 13.636 15.7989 10.658 5624.48 356.542 0.940412 10.0624 28.3691 6.08133 7.55464 74.1045 5.14092 5.8619 109.777 84.4176 2.94662 0.940412 1.31658 6.36345 4.76475 2.97797 11.5984 15.6735 278.707 210.213 15.4855 7.80542 5.20361 14.7331 7.42925 2.19429
internal_count=204898 6482 198416 2778 5876 3704 2228 1445 1849 192540 1058 1333 3580 814 1093 13114 1333 4223 3274 589 791 1476 428 3648 2807 314 2766 1227 564 443 124 435 504 340 179426 11374 30 321 905 194 241 2364 164 187 3502 2693 94 30 42 203 152 95 370 500 8891 6706 494 249 166 470 237 70
is_linear=0
shrinkage=1


Tree=1
num_leaves=63
num_cat=0
split_feature=4 4 0 2 0 4 2 1 4 2 0 1 1 0 4 4 2 1 1 4 4 1 1 1 4 2 4 1 3 1 1 0 1 0 0 1 1 0 4 2 1 0 3 1 0 4 3 1 1 3 0 1 1 1 1 1 0 2 4 1 1 1
split_gain=33897.8 1557.11 1117.91 703.688 396.869 338.138 392.094 238.666 216.305 192.624 115.147 115.084 77.2574 72.7862 66.1015 58.2284 148.073 86.6902 48.6973 43.9982 41.0396 39.5131 32.3888 30.8425 30.3245 28.6674 36.3156 38.6194 23.8166 20.4112 18.9622 18.6832 18.5944 16.9586 15.5392 21.3098 15.3731 14.6972 14.4647 18.5352 17.8468 15.5499 13.6647 16.8273 13.9026 14.9769 20.2549 17.8339 13.6269 14.4576 13.5242 34.2388 14.3822 12.7198 14.7726 12.6454 12.5603 12.5421 28.5928 12.4527 12.2715 12.2302
threshold=11.500000000000002 9.5000000000000018 1.0000000180025095e-35 1.0000000180025095e-35 1.0000000180025095e-35 12.500000000000002 1.0000000180025095e-35 31.500000000000004 7.5000000000000009 1.0000000180025095e-35 1.0000000180025095e-35 25.500000000000004 20.500000000000004 1.0000000180025095e-35 16.500000000000004 13.500000000000002 1.0000000180025095e-35 27.500000000000004 23.500000000000004 8.5000000000000018 10.500000000000002 23.500000000000004 36.500000000000007 31.500000000000004 10.500000000000002 1.0000000180025095e-35 13.500000000000002 30.500000000000004 1.5000000000000002 36.500000000000007 49.500000000000007 2.5000000000000004 41.500000000000007 1.5000000000000002 2.5000000000000004 25.500000000000004 34.500000000000007 2.5000000000000004 5.5000000000000009 1.0000000180025095e-35 24.500000000000004 1.0000000180025095e-35 1.0000000180025095e-35 18.500000000000004 2.5000000000000004 10.500000000000002 1.5000000000000002 20.500000000000004 18.500000000000004 1.5000000000000002 2.5000000000000004 20.500000000000004 19.500000000000004 27.500000000000004 25.500000000000004 50.500000000000007 1.5000000000000002 1.0000000180025095e-35 14.500000000000002 38.500000000000007 35.500000000000007 28.500000000000004
decision_type=2 2 2 2 2 2 2 2 2 2 2 2 2 2 2 2 2 2 2 2 2 2 2 2 2 2 2 2 2 2 2 2 2 2 2 2 2 2 2 2 2 2 2 2 2 2 2 2 2 2 2 2 2 2 2 2 2 2 2 2 2 2
left_child=1 8 14 4 -3 6 22 21 38 10 -10 19 48 -5 25 16 -7 -18 42 -12 -9 -6 31 28 -23 26 -2 -28 -14 56 32 -4 -24 -20 35 -26 -17 -25 -1 40 41 -40 43 -15 45 -44 -47 -48 49 -8 51 52 -21 54 -30 -22 -13 -38 -59 61 -35 -19
right_child=2 3 5 13 7 15 12 20 9 -11 11 29 23 18 -16 36 17 59 33 50 55 24 30 37 34 -27 27 -29 53 -31 -32 -33 -34 60 -36 -37 57 -39 39 -41 -42 -43 44 -45 -46 46 47 -49 -50 -51 -52 -53 -54 -55 -56 -57 -58 58 -60 -61 -62 -63
leaf_value=-0.050641924029555169 0.024198046587129735 -0.043639561198714455 0.41305017466488225 -0.048029790995574695 0.30432803510213025 0.37046442737419144 0.079943470173856959 0.04457561894946354 -0.050385500487904425 -0.03717888645902212 0.064041907695167807 0.12115383120679471 0.10329197331403206 0.25841848854690452 0.32468433674305935 0.37357470644434398 0.31667377197603896 0.026026814058547582 0.093762620600775851 0.30276059831224478 0.16770722116597603 0.18160386184635829 0.19891735297188973 0.14302592991019331 0.1668199977184974 -0.01962117047760796 0.40944017173029579 0.030540950002424329 0.22645663669466187 -0.019490533126831439 -0.052497662092520617 0.34378216763307834 0.38427772866173848 0.018797042253221142 0.24030289499258051 0.39260610251316252 0.36412434607320954 0.029556842281301527 -0.051593276779338781 -0.048458516157371789 -0.040960078658067792 -0.0013592023339100297 0.058123383960792911 0.095343343257676405 0.034368956304074959 0.40394060732443865 0.016344250374194468 0.3053346008629973 0.36654944717775145 0.29838821071810101 0.13503612960250777 0.13963431999794443 0.5971993446418874 0.30693845538276093 0.057057822144860472 -0.051952184155741543 0.023575936786769631 0.21943476852084509 0.3479984279243451 0.06470891241930514 -0.017669138309158658 0.19206019023383186
leaf_weight=3994.3122657667845 6.5840017776936346 18.804021775722504 13.911505766212938 42.049829158931971 29.825609035789967 58.28146205842495 1.135044023394584 17.647119596600533 41.48095640540123 401.64307977631688 28.061218362301588 3.4703222643584004 10.307521272450686 2.0949745550751704 1.8486223071813572 394.69914684072137 14.338081829249861 1.2732998877763737 5.843861360102891 1.2686150148510957 14.100606504827734 18.39217235147953 3.5797385312616816 3.8475807830691311 1.3624277710914618 18.741129452362657 1.5150861628353598 1.209277397021651 4.3065121322870255 32.600750731304288 0.49844460561871518 32.423796515911818 2.1750310063362122 66.679013881832361 11.780832771211863 4.4856401793658733 45.010807521641254 11.048557661473751 20.530462775379419 717.75814685411751 235.11270490288734 61.711099479347467 4.5530771911144265 6.4591350294649601 15.674102697521448 0.87751315906643901 1.4647540710866453 0.84000219777226437 3.4590455368161201 2.2768685184419155 16.310764476656914 3.9145834743976593 0.61618443578481663 2.6474179700016975 1.8355431258678434 0.68712804466486055 66.377470836043358 5.5138616040349033 20.053618598729372 3.8569000065326682 35.275520775467157 8.6022342592477781
leaf_count=133465 203 620 201 1402 625 729 28 538 1388 13221 847 107 288 61 30 3850 279 28 185 35 366 466 79 109 23 611 35 33 111 1027 11 476 48 2110 257 80 435 313 686 23983 7856 2062 144 200 479 25 41 25 74 43 450 108 17 75 52 19 2036 119 232 106 1118 228
internal_value=0 -0.0399934 0.33398 0.0712121 0.166812 0.347833 0.259883 0.207078 -0.0459024 -0.0174142 0.0234838 0.0435609 0.1437 0.00964632 0.0350887 0.362733 0.325025 0.230682 0.0269992 0.105604 0.0960605 0.261763 0.350164 0.112791 0.226518 0.0160027 0.0877264 0.241256 0.154854 0.0131768 0.24335 0.364579 0.268975 0.010928 0.273377 0.340005 0.369731 0.0588652 -0.0492769 -0.0440096 -0.0339474 -0.0138994 0.0812001 0.135282 0.0614379 0.116288 0.199507 0.121671 0.296617 0.225718 0.158354 0.223934 0.399019 0.215322 0.175832 0.157501 0.028424 0.348239 0.320272 0.140897 0.00618001 0.170653
internal_weight=0 5924.07 674.98 298.897 117.086 645.082 93.4526 98.2815 5625.17 595.744 194.101 152.62 40.8641 181.812 29.8981 551.629 86.352 28.0705 139.762 50.1714 32.4349 65.8467 52.5885 33.9931 36.0211 28.0495 9.30837 2.72436 19.097 102.449 6.25321 46.3353 5.75477 107.798 17.6289 5.84807 465.277 14.8961 5029.42 1035.11 317.354 82.2416 31.9636 8.55411 23.4094 7.73535 3.18227 2.30476 6.87096 3.41191 22.1101 5.79938 1.8848 8.78947 6.14206 14.7877 69.8478 70.5783 25.5675 13.7324 101.955 9.87553
internal_count=204898 196072 8826 8784 2994 7914 1908 2374 187288 19236 6015 4627 1093 5790 912 6006 1370 641 4388 1457 923 1451 815 948 826 882 271 68 526 3170 138 677 127 3413 360 103 4636 422 168052 34587 10604 2748 975 261 714 235 91 66 145 71 610 160 52 238 163 385 2143 786 351 362 3228 256
is_linear=0
shrinkage=0.05


Tree=2
num_leaves=63
num_cat=0
split_feature=4 4 0 2 0 4 4 2 2 1 0 1 1 0 4 1 1 4 4 1 1 4 1 0 1 4 2 4 2 1 0 1 0 0 1 1 3 3 1 0 4 2 4 1 0 4 3 4 1 0 0 4 3 1 3 1 1 4 1 0 1 1
split_gain=24369.7 1417.54 583.495 496.669 263.875 217.127 181.556 258.016 178.46 125.856 102.171 88.1462 79.3952 66.3396 50.7282 39.5156 38.722 28.392 27.6729 24.4589 21.2477 18.1054 18.0316 17.4511 24.5214 16.2496 15.1056 14.9826 18.8811 17.5367 14.9782 14.6986 17.2276 13.7068 13.4499 12.7894 12.2933 10.8845 12.9613 12.1962 9.92126 16.5627 9.84498 12.4188 9.55342 9.39614 9.38505 10.3328 9.61567 9.37555 9.05509 9.65026 9.048 8.90477 8.82907 10.3874 8.44923 8.20294 7.74937 9.55558 7.74718 7.66496
threshold=11.500000000000002 9.5000000000000018 1.0000000180025095e-35 1.0000000180025095e-35 1.0000000180025095e-35 7.5000000000000009 13.500000000000002 1.0000000180025095e-35 1.0000000180025095e-35 31.500000000000004 1.0000000180025095e-35 25.500000000000004 30.500000000000004 1.0000000180025095e-35 13.500000000000002 30.500000000000004 23.500000000000004 8.5000000000000018 10.500000000000002 48.500000000000007 21.500000000000004 10.500000000000002 36.500000000000007 2.5000000000000004 30.500000000000004 12.500000000000002 1.0000000180025095e-35 5.5000000000000009 1.0000000180025095e-35 24.500000000000004 1.0000000180025095e-35 36.500000000000007 1.5000000000000002 2.5000000000000004 20.500000000000004 23.500000000000004 1.5000000000000002 1.5000000000000002 19.500000000000004 2.5000000000000004 15.500000000000002 1.0000000180025095e-35 10.500000000000002 26.500000000000004 1.5000000000000002 6.5000000000000009 1.0000000180025095e-35 10.500000000000002 22.500000000000004 2.5000000000000004 1.0000000180025095e-35 8.5000000000000018 1.5000000000000002 50.500000000000007 1.5000000000000002 20.500000000000004 29.500000000000004 10.500000000000002 44.500000000000007 2.5000000000000004 24.500000000000004 17.500000000000004
decision_type=2 2 2 2 2 2 2 2 2 2 2 2 2 2 2 2 2 2 2 2 2 2 2 2 2 2 2 2 2 2 2 2 2 2 2 2 2 2 2 2 2 2 2 2 2 2 2 2 2 2 2 2 2 2 2 2 2 2 2 2 2 2
left_child=1 5 14 4 -3 27 7 19 10 21 -7 17 20 -5 -2 26 46 37 -11 23 52 35 44 -4 36 -22 60 -1 29 30 -29 32 57 -23 -28 -6 -25 39 -39 -12 -17 -42 -34 -44 -13 -32 48 -48 -15 54 -10 61 -9 -20 -49 -56 -35 -18 59 -14 -16 -52
right_child=2 3 6 13 9 8 -8 12 50 18 11 22 58 16 15 40 31 -19 53 -21 25 33 -24 24 -26 -27 34 28 -30 -31 45 -33 42 56 -36 -37 -38 38 -40 -41 41 -43 43 -45 -46 -47 47 49 -50 -51 51 -53 -54 -55 55 -57 -58 -59 -60 -61 -62 -63
leaf_value=-0.050516876541040479 -0.013100119463025764 -0.043236983969481065 0.28178066170320276 -0.047790242793811603 0.2016229526452929 -0.050248878928678034 0.26715187944306756 0.18228820822121028 -0.049970488922026851 0.040581127669443176 0.10936499463030727 0.10253216221797411 0.13416322909861336 0.13583378811908067 0.35365762804444856 -0.051809592409104724 0.062123382753671269 0.1290051673106074 0.13616668755914604 0.02950852536636708 0.12348714305479053 0.25902972702612947 -0.018865481840960419 0.2390777169766472 0.20342893031207479 0.19228641880139544 0.30787174994480082 -0.051513155883262191 -0.048237104450261026 -0.040478999122659787 -0.019022932608793203 -0.017878533633844416 0.00073348729644721075 0.20824050802497421 0.077457941623262389 0.14561302682912913 0.27962730934408364 0.16140759649897152 0.058197257036581886 0.0014315703322675677 0.33064548617449663 -0.052127117357437962 0.093644827691383645 0.01955921404632726 0.02189784420848255 0.020203740335628037 0.027484745763705638 0.26266882018013171 0.0058700825715044215 0.056110489450889811 0.023231239618356599 -0.021428063876417571 0.25313846945715407 -0.05185336170618448 0.015287884217112888 0.21731362952446032 0.1214328562610624 0.20111890046594377 0.0058498008201318024 0.066026563090972143 0.18169447587653761 -0.041645118594400884
leaf_weight=3808.6764812842011 20.747263019904498 18.049314022064209 45.488287184387445 40.19451480358839 19.225696206092834 39.562498435378075 606.94309338182211 7.8496401943266401 95.540290143340826 18.394562236964703 3.4106672033667556 3.8835679665207854 7.241875156760222 7.9824163541197759 1.7149204611778244 2.7998135127127175 2.6330612003803244 25.644195344299078 16.428381465375427 1.2012537717819203 17.926276315003633 14.010168891400097 32.012079829350114 37.643943950533867 26.749104484915733 16.465918201953173 0.82920029014349017 19.558788046240807 685.80814743228257 226.23746079206467 33.775301016867161 32.553750548511744 41.975315298885107 25.026934795081619 2.6814699731767178 21.69089288264513 37.124407142400742 4.2193821072578439 10.900070443749426 11.251685619354248 0.52159711718559243 0.61681545525789261 7.564101085066798 22.430026240646839 67.851419683545828 27.857150927186012 14.511593621224165 1.2678132206201556 1.7320479638874529 6.4787731282413006 4.6806420348584643 120.97988413274288 10.579486802220345 0.6548306830227365 1.4870722927153113 1.1120742224156854 3.156678181141614 1.7784008756279943 3.4535940214991561 17.776069086045027 1.0596590824425218 166.67155767604709
leaf_count=133465 670 620 455 1402 336 1388 4636 140 3295 538 97 107 176 211 25 86 78 610 366 21 441 174 1027 353 365 271 18 686 23983 7856 1130 1043 1336 412 69 466 350 120 310 320 11 17 228 678 2036 932 442 25 50 181 161 4032 154 19 41 25 63 50 91 461 16 5733
internal_value=0 -0.0395078 0.244937 0.0626785 0.134867 -0.0455826 0.252828 0.214945 -0.0168665 0.161975 0.0216611 0.0395344 0.143362 0.00898421 0.0318197 0.122979 0.0248861 0.0904403 0.083137 0.254209 0.17964 0.195629 0.0123383 0.256045 0.244513 0.156426 0.20079 -0.0490906 -0.0436215 -0.0333251 -0.0133909 0.0102545 0.0222449 0.21861 0.13188 0.171931 0.259212 0.0572333 0.0870001 0.0265384 -0.00120518 0.123251 0.0163658 0.0382426 0.0262632 -0.00129293 0.0709897 0.0547039 0.112662 0.0928832 -0.0366071 -0.0322397 0.222961 0.12896 0.154493 0.101727 0.198518 0.118157 0.076058 0.0857499 0.287982 -0.039873
internal_weight=0 5708.86 867.414 320.338 136.637 5388.52 836.443 229.5 586.608 118.588 198.736 159.173 81.2929 183.701 30.9707 10.2235 143.506 55.426 35.4778 148.207 52.8213 83.1104 103.747 147.006 101.517 34.3922 6.28525 4801.91 993.237 307.429 81.1912 108.935 76.3809 42.1938 3.51067 40.9166 74.7684 29.7818 15.1195 14.6624 3.93823 1.13841 71.9694 29.9941 71.735 61.6325 34.5718 24.8573 9.71446 10.3457 387.872 292.332 18.4291 17.0832 3.86696 2.59915 28.1836 4.41146 28.4715 25.0179 2.77458 171.352
internal_count=204898 196072 8826 8784 2994 187288 7914 3278 19236 2374 6015 4627 1734 5790 912 242 4388 1457 923 1544 1006 1451 3170 1523 1068 712 128 168052 34587 10604 2748 3413 2370 649 87 802 703 847 430 417 114 28 2242 906 2143 2062 975 714 261 272 13221 9926 294 385 91 66 475 128 728 637 41 5894
is_linear=0
shrinkage=0.05


Tree=3
num_leaves=63
num_cat=0
split_feature=4 4 4 2 2 0 0 0 1 0 4 2 1 1 0 4 2 1 1 0 1 1 4 4 4 0 4 4 4 1 1 1 4 1 0 4 3 4 1 1 1 1 1 1 1 1 0 1 4 2 0 1 4 1 3 3 0 1 0 1 3 0
split_gain=19350.5 803.838 587.611 379.392 266.952 163.167 155.718 144.21 97.2097 94.7246 63.8153 70.007 56.9558 42.8301 40.9687 36.4863 54.3994 36.3386 35.4596 31.8553 27.3209 26.5539 22.9762 22.3388 16.5836 16.4052 15.5862 15.3229 13.6796 12.0207 11.9285 11.1156 10.1012 10.0099 9.99614 10.2543 9.90652 9.89834 9.25699 9.80713 10.7524 8.91747 8.6449 8.45521 8.41973 9.32933 8.29473 8.26966 8.15775 10.3697 7.82953 7.61655 7.42226 7.3745 7.58217 7.31734 7.28536 7.27126 6.84181 12.7493 15.4535 6.68014
threshold=10.500000000000002 12.500000000000002 8.5000000000000018 1.0000000180025095e-35 1.0000000180025095e-35 1.0000000180025095e-35 1.0000000180025095e-35 1.0000000180025095e-35 28.500000000000004 1.0000000180025095e-35 6.5000000000000009 1.0000000180025095e-35 28.500000000000004 29.500000000000004 1.0000000180025095e-35 14.500000000000002 1.0000000180025095e-35 30.500000000000004 32.500000000000007 1.0000000180025095e-35 18.500000000000004 30.500000000000004 9.5000000000000018 13.500000000000002 7.5000000000000009 2.5000000000000004 11.500000000000002 9.5000000000000018 11.500000000000002 50.500000000000007 35.500000000000007 25.500000000000004 9.5000000000000018 20.500000000000004 2.5000000000000004 11.500000000000002 1.0000000180025095e-35 11.500000000000002 28.500000000000004 22.500000000000004 17.500000000000004 17.500000000000004 41.500000000000007 19.500000000000004 27.500000000000004 23.500000000000004 2.5000000000000004 17.500000000000004 15.500000000000002 1.0000000180025095e-35 1.5000000000000002 56.500000000000007 16.500000000000004 20.500000000000004 1.5000000000000002 1.5000000000000002 1.5000000000000002 44.500000000000007 1.5000000000000002 36.500000000000007 1.5000000000000002 2.5000000000000004
decision_type=2 2 2 2 2 2 2 2 2 2 2 2 2 2 2 2 2 2 2 2 2 2 2 2 2 2 2 2 2 2 2 2 2 2 2 2 2 2 2 2 2 2 2 2 2 2 2 2 2 2 2 2 2 2 2 2 2 2 2 2 2 2
left_child=2 3 10 7 6 21 -4 -2 22 -5 -1 13 26 14 -12 16 -7 46 34 -6 27 23 31 47 -16 41 55 56 58 37 -10 -8 -22 -28 -9 -36 -29 42 39 40 -25 -26 50 -42 45 -24 -18 -3 -23 -50 -20 -32 -41 54 -27 -11 -21 -30 59 60 -14 -34
right_child=1 5 4 9 19 15 8 18 30 12 11 -13 28 -15 24 -17 17 -19 29 20 32 48 44 38 25 53 33 36 57 -31 51 -33 61 -35 35 -37 -38 -39 -40 52 43 -43 -44 -45 -46 -47 -48 -49 49 -51 -52 -53 -54 -55 -56 -57 -58 -59 -60 -61 -62 -63
leaf_value=-0.04979943636595828 -0.011261825860033747 0.25201683708640366 -0.04952129919327649 -0.040934534690205679 -0.04978775811799848 0.20913934581490384 0.10869245638779586 0.20799751554587387 0.057262423173244863 0.1013282761161968 -0.04938979694383408 -0.044609273894885469 0.031130063766308731 -0.033056163541800521 0.0029772955465815353 0.21616251440491252 0.20788863091808873 0.10995062539068282 0.23054736618729299 0.2326424197594914 -0.022600639446768631 -0.035707486346794562 0.16007015151114196 0.018969856720119551 0.28190932945635261 0.016819162155165317 0.1667176286963574 0.21140922091277195 0.070223260977038779 -0.051963447192191273 0.010741106855965635 0.045605416732670719 0.024334045808232427 0.10641759684644676 0.15703688050771109 0.19271293355350128 0.07417440122618936 0.16078366628240925 0.30291057454893999 0.019531541977928588 0.39695141549107277 0.084081004444588978 0.17846038456691082 0.19128590799518055 0.22249237356214185 0.10750212968768375 0.16810355230380331 -0.009854841668512913 0.23310195096042718 -0.052019773009636963 0.076005748296548548 0.25307554970063406 0.18333928700857768 0.013535343827910341 0.10687729038258631 0.051715399427905609 -0.0015299315367324675 -0.027944683581879723 0.0044319517686772815 -0.051883434698261711 0.39713416470107032 -0.0081485879297734532
leaf_weight=4169.4088606834412 11.163979940116404 0.3291721921414158 25.953565444797277 23.674880782142282 60.007196664810181 180.70851723104715 28.822151120752096 39.533105745911598 34.777207065373659 15.300360403954983 24.313861582428217 503.48698164336383 0.59898447245359665 121.72225295566022 50.428016407415271 589.02586150914431 20.182231459766626 25.090056225657463 0.88164549693464955 0.3516766168177109 112.24060031399131 6.2457366548478594 22.893007278442383 0.67608849331736598 0.59865273907780547 4.3658176213502866 10.840909846127035 2.0825580582022667 20.809096381068233 0.8902682438492765 27.982547540217642 9.214448153972624 21.688959784805775 18.847946345806122 35.284736879169941 46.93131622672081 3.5680411718785763 16.940405864268541 0.98016494512557972 2.0765757262706761 0.66343601420521769 11.756469048559664 3.2452670335769644 2.0253280848264694 3.444378037005662 13.368857126682995 37.338535770773888 3.5828502904623747 0.69690883159637429 0.58791318535804749 11.639733977615833 0.32804203033447166 1.0367851108312605 26.739619378000498 5.0297229811549187 14.451753411442041 5.9785024859011173 2.0743298865854731 29.363643541932106 0.80462137609720219 0.55619986727833748 58.571382358670235
leaf_count=153003 379 10 949 841 2185 1333 610 362 950 385 890 18250 14 4219 1727 3580 194 449 17 11 3834 198 336 10 15 124 145 43 497 25 838 242 670 396 510 413 99 223 17 52 10 317 68 30 59 229 450 112 11 17 231 10 9 755 126 384 187 55 895 23 13 1862
internal_value=0 0.181602 -0.0424788 0.111574 0.0134822 0.206024 0.0630201 0.162314 0.0837602 0.0500498 -0.0473863 -0.0339431 0.0690035 -0.0120194 0.00875962 0.209246 0.193774 0.160161 0.174788 -0.0177559 -0.00835579 0.0607183 0.121182 0.108948 0.0230526 0.0439301 0.102806 0.0649038 0.0319377 0.129313 0.0376461 0.0934095 -0.0129153 0.128436 0.187337 0.177402 0.124753 0.134247 0.159705 0.138037 0.197213 0.0936665 0.105736 0.242033 0.147786 0.14069 0.182063 0.01218 -0.0121043 0.102635 0.0868872 0.0135491 0.0740814 0.0269245 0.0650301 0.0772294 0.0114796 0.0613246 0.010469 0.100921 0.207354 0.000629278
internal_weight=0 1175.08 5349.12 303.833 431.273 871.246 166.784 166.51 140.831 137.323 4917.85 748.441 113.648 244.954 123.232 852.345 263.319 82.6108 155.346 264.489 204.482 18.901 77.7428 11.3704 98.9183 48.4903 59.441 11.9808 54.2069 33.5973 63.0878 38.0366 192.501 29.6889 121.749 82.2161 5.6506 32.7071 7.45838 6.47821 3.36485 12.3551 15.7666 2.68876 39.7062 36.2619 57.5208 3.91202 7.53056 1.28482 12.5214 28.3106 3.11336 36.1352 9.39554 29.7521 6.33018 22.8834 31.3234 1.95981 1.15518 80.2603
internal_count=204898 12358 192540 5876 13114 6482 4223 2228 3274 3648 179426 26423 2807 8173 3954 6006 2426 1093 1849 8891 6706 476 1476 250 3064 1337 1310 340 1497 564 1798 852 6366 541 1285 923 142 539 128 111 50 332 316 40 624 565 644 122 226 28 248 848 61 1005 250 769 198 552 945 50 27 2532
is_linear=0
shrinkage=0.05


Tree=4
num_leaves=63
num_cat=0
split_feature=4 4 4 2 2 0 0 0 0 1 4 2 1 1 0 4 2 0 1 1 1 1 4 4 4 0 0 4 4 1 1 4 4 1 3 4 2 4 0 3 2 1 3 3 1 1 1 0 1 3 1 0 1 1 1 1 1 0 1 0 1 0
split_gain=16050.2 581.381 569.443 266.663 227.607 128.834 114.672 100.762 79.598 70.3482 65.3128 68.871 42.7187 39.9581 37.6318 37.3996 40.4575 30.9308 25.4981 23.7797 23.7227 20.8056 15.8607 15.1625 13.9432 12.6665 12.5991 11.2187 10.7956 9.8531 9.71271 9.67703 9.57405 7.96191 7.7465 6.96012 7.32378 6.94093 6.98045 6.9237 6.73329 6.57003 6.50838 12.2967 6.50699 6.33356 6.23431 6.20668 7.87925 9.20463 17.6976 6.35483 6.09023 5.82757 5.81943 9.14864 5.63661 5.60826 5.59387 5.58795 11.3168 7.18759
threshold=10.500000000000002 12.500000000000002 8.5000000000000018 1.0000000180025095e-35 1.0000000180025095e-35 1.0000000180025095e-35 1.0000000180025095e-35 1.0000000180025095e-35 1.0000000180025095e-35 28.500000000000004 6.5000000000000009 1.0000000180025095e-35 28.500000000000004 29.500000000000004 1.0000000180025095e-35 14.500000000000002 1.0000000180025095e-35 1.0000000180025095e-35 29.500000000000004 19.500000000000004 30.500000000000004 30.500000000000004 13.500000000000002 9.5000000000000018 7.5000000000000009 1.5000000000000002 2.5000000000000004 11.500000000000002 11.500000000000002 50.500000000000007 35.500000000000007 9.5000000000000018 9.5000000000000018 25.500000000000004 1.0000000180025095e-35 15.500000000000002 1.0000000180025095e-35 11.500000000000002 2.5000000000000004 1.0000000180025095e-35 1.0000000180025095e-35 20.500000000000004 1.0000000180025095e-35 1.5000000000000002 24.500000000000004 57.500000000000007 37.500000000000007 2.5000000000000004 40.500000000000007 1.5000000000000002 29.500000000000004 1.5000000000000002 19.500000000000004 17.500000000000004 36.500000000000007 41.500000000000007 28.500000000000004 2.5000000000000004 46.500000000000007 2.5000000000000004 20.500000000000004 1.5000000000000002
decision_type=2 2 2 2 2 2 2 2 2 2 2 2 2 2 2 2 2 2 2 2 2 2 2 2 2 2 2 2 2 2 2 2 2 2 2 2 2 2 2 2 2 2 2 2 2 2 2 2 2 2 2 2 2 2 2 2 2 2 2 2 2 2
left_child=2 3 10 7 5 -4 21 -2 -5 23 -1 13 28 14 -12 16 -8 -6 42 25 -18 22 53 33 44 -19 -26 -14 -10 37 -11 -27 -21 59 -33 -23 -37 39 -39 54 -24 -30 -9 56 -16 58 57 51 49 -49 -51 -29 -28 -3 -20 -56 -44 -34 -32 60 61 -7
right_child=1 6 4 8 17 9 15 18 12 30 11 -13 27 -15 24 -17 20 19 29 32 -22 35 40 -25 26 31 52 47 41 -31 45 34 46 -35 -36 36 -38 38 -40 -41 -42 -43 43 -45 -46 -47 -48 48 -50 50 -52 -53 -54 -55 55 -57 -58 -59 -60 -61 -62 -63
leaf_value=-0.049650178578384593 -0.010815527130886049 0.18849585249777201 -0.049359043704340307 -0.040458971095935298 -0.049636862940151703 0.33301196038176006 0.17329439364163612 0.17635434612676826 0.068216099604142849 0.051532360242410626 -0.049221836835042776 -0.044250662800775074 0.0097669621726053577 -0.032421953970465385 0.01862279723050984 0.18220656236954136 0.14993229486144133 0.22957891098342784 0.16853021750157765 -0.023283768804591622 0.094735548640076828 -0.035103901609737156 0.1793891037292222 0.12330613898267261 0.081362155417062348 0.0011796858594122898 0.064435468221402989 0.0092738331790972236 0.13770603918529312 -0.05186419732910378 0.017994339308958919 0.13666575106817772 0.032157930609198949 0.041500675777967899 0.038534764389734646 0.18105805808480113 -0.051918017679542294 0.17284038898629089 0.12018807851464333 0.083973613612688069 0.090243869231729446 0.091717471126017538 0.12932559000672517 0.16304747428173411 -0.017536428736990389 0.21833528651833431 -0.026228209049587049 0.019961481289007835 -0.035170129112555161 0.35593022375072925 0.072563857590974987 0.1230190276674455 0.014508968369675541 -0.0094509294066418125 0.021552377922597215 0.20970167512694712 0.048323107484968014 -0.0019763070017559162 -0.051801971259827218 0.080389213690198441 0.083093378328032971 0.15941682361645759
leaf_weight=3977.6885886639357 11.046488683670757 0.41531687602401079 24.766919035464525 22.778317024931312 57.249790068715811 0.77555078268051358 206.41189152002335 34.092047035694122 31.931739956140518 36.660108506679535 23.205006547272205 482.71584639139473 31.660486198961735 117.99361154437065 28.46925412863493 661.69262062758207 66.096834074705839 0.88774567842483776 5.5914002582430857 106.2407809831202 27.592045001685619 6.0407116673886767 4.0170634090900403 45.044199101626873 13.473790425807236 9.4664261639118195 7.7140187770128241 1.6151183582842374 12.421579323709009 0.84842898696660896 25.066332001239068 3.1623654738068581 16.672578116878867 9.6087729483842832 5.5241953134536743 0.84764295443892457 0.56030869856476784 9.1495147533714789 20.176201663911343 18.213161468505859 4.4811592027544975 20.721775367856026 23.979296565055851 60.054346829652786 22.100025108084083 0.36957241222262283 17.732492905110121 8.298768028616907 2.954329587519168 0.6111457422375669 5.5994974114000797 5.1224083229899406 29.341944042593241 3.5500311851501465 2.0148215554654603 0.9510623663663863 2.3589094877243033 43.246142152696848 3.2419806271791449 22.892722673714161 5.5168411284685135 2.5795385129749775
leaf_count=153003 379 10 949 841 2185 12 1333 299 769 950 890 18250 945 4219 932 3580 644 24 75 3707 449 198 41 624 332 309 191 34 145 25 742 60 496 242 152 11 17 91 224 320 87 396 212 525 795 9 589 195 77 11 128 107 814 112 39 17 22 1369 97 450 108 40
internal_value=0 0.15376 -0.0420627 0.0965839 0.0125531 0.0563766 0.173108 0.135702 0.045282 0.0736329 -0.0471345 -0.0333326 0.0614312 -0.0115813 0.00820137 0.175567 0.160926 -0.0171793 0.144824 -0.00802263 0.133676 0.0543424 0.0938534 0.103234 0.0213816 0.0451682 0.0399573 0.0293574 0.0889639 0.117253 0.034482 0.0361499 -0.0135302 0.0813808 0.0742596 -0.0117699 0.0883429 0.119811 0.136615 0.101403 0.132382 0.108953 0.157855 0.150555 0.00282032 0.0126858 -0.000185491 0.054986 0.0392584 0.0544131 0.100448 0.0957521 0.0249023 0.0112813 0.1385 0.0818857 0.122071 0.00752166 0.010001 0.0934444 0.127132 0.199544
internal_weight=0 1313.9 5139.41 332.191 436.705 176.523 981.706 188.476 143.715 151.756 4702.7 725.013 120.937 242.298 124.304 961.793 300.101 260.183 177.429 202.933 93.6889 19.9122 12.4636 86.4176 101.099 19.0407 50.5298 55.8618 65.0751 56.9446 65.338 18.153 183.892 41.3734 8.68656 7.44866 1.40795 56.0962 29.3257 26.7704 8.49822 33.1434 120.485 86.3926 50.5693 28.6779 77.6512 24.2013 17.4637 14.5094 6.21064 6.73753 37.056 3.96535 8.55728 2.96588 26.3382 59.9187 28.3083 31.7647 8.87193 3.35509
internal_count=204898 12358 192540 5876 13114 4223 6482 2228 3648 3274 179426 26423 2807 8173 3954 6006 2426 8891 1849 6706 1093 476 250 1476 3064 545 1337 1497 1310 791 1798 521 6161 852 212 226 28 766 315 451 128 541 1058 759 1727 848 2454 552 411 334 139 141 1005 122 131 56 234 1865 839 610 160 52
is_linear=0
shrinkage=0.05


Tree=5
num_leaves=63
num_cat=0
split_feature=4 4 4 2 2 0 0 0 0 4 2 1 4 1 0 2 1 0 1 1 1 1 2 4 4 0 4 4 4 0 1 4 4 4 4 4 1 4 2 1 1 1 1 1 1 4 1 3 0 0 1 3 1 1 0 1 4 1 3 3 0 3
split_gain=13660.7 552.157 455.497 197.086 195.662 108.379 86.2691 74.2593 67.7073 66.8047 67.686 52.6816 39.1494 37.2801 34.6524 33.1645 32.9068 30.0085 20.9055 18.4369 16.9273 16.8038 13.0948 11.8234 10.6797 9.88736 9.21329 9.194 8.95013 8.42303 8.29173 7.85114 7.83907 7.42157 7.28896 7.18537 6.80687 6.71712 9.62068 15.8637 12.4823 6.29914 5.92923 5.88252 5.85203 5.78495 5.73096 5.55286 5.35309 5.28754 8.82856 7.48428 5.281 5.22938 5.18862 6.3262 6.8859 5.06513 5.44089 5.02584 5.07495 4.99067
threshold=10.500000000000002 8.5000000000000018 12.500000000000002 1.0000000180025095e-35 1.0000000180025095e-35 1.0000000180025095e-35 1.0000000180025095e-35 1.0000000180025095e-35 1.0000000180025095e-35 6.5000000000000009 1.0000000180025095e-35 28.500000000000004 14.500000000000002 29.500000000000004 1.0000000180025095e-35 1.0000000180025095e-35 28.500000000000004 1.0000000180025095e-35 19.500000000000004 29.500000000000004 35.500000000000007 30.500000000000004 1.0000000180025095e-35 7.5000000000000009 9.5000000000000018 2.5000000000000004 16.500000000000004 11.500000000000002 9.5000000000000018 1.5000000000000002 42.500000000000007 9.5000000000000018 11.500000000000002 9.5000000000000018 17.500000000000004 11.500000000000002 49.500000000000007 16.500000000000004 1.0000000180025095e-35 42.500000000000007 40.500000000000007 57.500000000000007 19.500000000000004 25.500000000000004 24.500000000000004 11.500000000000002 37.500000000000007 1.0000000180025095e-35 2.5000000000000004 1.5000000000000002 36.500000000000007 1.5000000000000002 44.500000000000007 40.500000000000007 1.0000000180025095e-35 36.500000000000007 7.5000000000000009 20.500000000000004 1.5000000000000002 1.0000000180025095e-35 2.5000000000000004 1.5000000000000002
decision_type=2 2 2 2 2 2 2 2 2 2 2 2 2 2 2 2 2 2 2 2 2 2 2 2 2 2 2 2 2 2 2 2 2 2 2 2 2 2 2 2 2 2 2 2 2 2 2 2 2 2 2 2 2 2 2 2 2 2 2 2 2 2
left_child=1 9 3 7 5 -3 20 -2 -5 -1 13 24 15 14 -11 53 32 -6 29 35 22 48 34 44 43 -25 -24 49 -20 -19 33 -31 61 -13 -4 -9 45 38 -14 40 42 -32 -40 -7 -16 59 -30 -33 -17 50 51 -18 -29 -8 -15 56 -56 58 -27 60 -21 -10
right_child=2 4 6 8 17 11 12 19 16 10 -12 30 37 54 23 21 27 18 28 36 -22 -23 26 25 -26 57 -28 52 46 31 41 47 -34 -35 -36 -37 -38 -39 39 -41 -42 -43 -44 -45 -46 -47 -48 -49 -50 -51 -52 -53 -54 -55 55 -57 -58 -59 -60 -61 -62 -63
leaf_value=-0.049500728938633956 -0.010382519624380096 -0.049196013082854151 0.10518669587160345 -0.039974201010244258 -0.049485756574189771 0.081502926815583632 0.15008376750553731 0.1207881833556444 0.079035958318244767 -0.049052832000111686 -0.043884375284628394 0.023081746745502021 0.15920145331768526 -0.051362958578005297 0.017377815173799882 0.14553173455656609 0.027987121537857103 0.17582161175145633 -0.022622831832827206 0.1664162454328631 -0.040284198169029145 0.082844038682301044 0.008200628654208621 0.071627128868794326 0.10541505126990164 0.012389585935344139 0.13410080291567825 0.056195071856557456 0.007088383287282703 0.0011194324785661514 -0.022573184537448953 0.11478938037717396 0.094229979255365415 0.05906573825311167 0.26937808607862485 0.14408855197973827 -0.013190661225872986 0.1625766234481846 0.17163609305854297 0.051979560982085615 0.27556289595165973 0.16930335977151945 0.13622411216661781 0.037917547175335492 -0.016944800354761581 0.11800253932285215 -0.02555419117913001 0.035295994786968203 0.11733560888527471 0.0036684451334099235 -0.051805760138977142 0.25931215491352727 -0.027591271357237608 0.11086881253983211 -0.032013396506846141 -0.041112889942274904 0.0053065098530903311 0.011804412663677105 0.084903872372605327 0.072607482147187749 0.09017825440029216 0.04065807948800932
leaf_weight=3794.8321121744812 10.934742029756306 23.635141270235181 6.5295544713735625 21.923579644411802 54.619811298325658 34.503370262682438 219.25770011544228 58.737767532467842 17.84161626920104 22.147433277219534 462.91022852808237 33.309666939079762 190.11930638551712 26.113034585490823 28.970035538077354 25.998890176415443 0.62166205048561385 1.0946717336773897 103.9369099792093 3.3564129471778887 4.2098549976944915 29.909473367035389 7.4867309462279081 14.510677095502613 49.914150968194008 4.6566502116620523 1.803090203553438 23.420314703136686 60.344496432691813 9.4768903441727161 8.5551847051829064 3.5650106817483902 36.312463708221912 25.146451447159052 0.75398690998554219 75.768543586134911 1.2770248986780632 434.83625599741936 14.049493342638014 4.8860441148281089 1.7802475690841664 0.450249023735524 74.507353246212006 9.9808203652501088 21.737469770014286 32.288066364824772 17.301301751285791 5.7241148203611374 47.747764058411121 29.754608847200871 0.77375232428312291 0.79914576560258865 2.0448615178465834 8.8442480117082578 25.823534807190299 38.797024318948388 23.707055050879717 27.442645806819201 5.8196616992354393 19.415813457220793 6.2432075440883636 16.128937900066376
leaf_count=153003 379 949 104 841 2185 610 1259 564 385 890 18250 919 931 1011 932 194 14 24 3707 37 129 449 224 332 624 124 14 497 1865 309 257 60 541 613 5 494 33 2082 75 35 12 9 445 242 795 310 589 152 450 895 23 13 55 74 991 1444 773 755 126 317 94 384
internal_value=0 -0.0416403 0.133833 0.0849671 0.0117142 0.0508195 0.150125 0.116446 0.0412016 -0.0468786 -0.0327167 0.065424 0.152118 -0.0111519 0.00769299 0.137906 0.0551382 -0.0166142 -0.00770134 0.123482 0.049248 0.114455 0.0719903 0.0198785 0.0895384 0.0365272 0.032637 0.0270556 -0.0130284 0.0410026 0.031681 0.0331382 0.0780789 0.0385612 0.122184 0.133913 0.101062 0.158665 0.152704 0.139731 0.144477 -0.0129798 0.141842 0.0717238 0.00266428 0.103442 -0.000185147 0.0658042 0.127276 0.00919257 0.0840906 0.158098 0.049467 0.148563 -0.0317824 -0.0259936 -0.0141508 0.0230953 0.0526718 0.0872397 0.116834 0.0608145
internal_weight=0 4939.03 1430.36 357.643 441.558 185.495 1072.72 208.022 149.621 4497.47 702.635 161.86 1051.94 239.725 125.285 331.758 127.697 256.063 201.443 197.087 20.7832 103.656 16.5734 103.137 94.3983 52.4296 9.28982 57.4143 181.583 19.8607 67.4616 18.766 70.283 58.4561 7.28354 134.506 62.5805 720.179 285.342 95.2231 90.3371 9.00543 88.5568 44.4842 50.7075 61.3035 77.6458 9.28913 73.7467 31.9492 2.19456 1.42081 25.4652 228.102 114.441 88.3276 49.5306 37.919 10.4763 29.0154 9.59962 33.9706
internal_count=204898 192540 12358 5876 13114 4223 6482 2228 3648 179426 26423 3274 6006 8173 3954 2426 2807 8891 6706 1849 476 1093 347 3064 1476 1337 238 1497 6161 545 1798 521 1310 1532 109 1058 791 3580 1498 567 532 266 520 852 1727 758 2454 212 644 945 50 27 552 1333 4219 3208 1764 1005 250 448 131 769
is_linear=0
shrinkage=0.05


Tree=6
num_leaves=63
num_cat=0
split_feature=4 4 4 2 0 2 0 4 0 2 4 1 0 1 0 2 1 1 1 1 1 4 4 4 0 4 4 4 1 1 4 2 1 1 1 4 2 1 0 4 1 1 1 4 0 1 1 1 1 0 1 0 1 1 3 1 1 1 0 1 3 1
split_gain=11839 535.716 376.776 169.345 154.255 109.874 92.4148 68.2738 68.2224 66.4275 41.3694 40.5366 35.5291 36.3997 29.0957 28.7931 25.8036 18.465 14.6832 14.3554 12.9706 10.0773 9.89945 8.36088 7.88472 7.84673 7.67129 7.46454 7.21633 7.08584 6.91856 9.55003 12.0791 7.67776 6.17554 6.46821 5.98774 6.824 5.98694 6.45221 5.98669 7.76905 6.73382 5.8807 5.58332 5.26717 5.10913 5.05776 5.03454 4.92801 4.86932 4.86042 4.74697 4.73313 4.67002 13.6087 7.06717 5.69369 4.95548 15.1772 5.41052 4.63809
threshold=10.500000000000002 8.5000000000000018 12.500000000000002 1.0000000180025095e-35 1.0000000180025095e-35 1.0000000180025095e-35 1.0000000180025095e-35 6.5000000000000009 1.0000000180025095e-35 1.0000000180025095e-35 14.500000000000002 28.500000000000004 1.0000000180025095e-35 29.500000000000004 1.0000000180025095e-35 1.0000000180025095e-35 28.500000000000004 19.500000000000004 35.500000000000007 35.500000000000007 32.500000000000007 7.5000000000000009 13.500000000000002 9.5000000000000018 2.5000000000000004 9.5000000000000018 11.500000000000002 11.500000000000002 35.500000000000007 59.500000000000007 16.500000000000004 1.0000000180025095e-35 42.500000000000007 40.500000000000007 36.500000000000007 7.5000000000000009 1.0000000180025095e-35 20.500000000000004 1.5000000000000002 9.5000000000000018 41.500000000000007 49.500000000000007 40.500000000000007 11.500000000000002 2.5000000000000004 24.500000000000004 46.500000000000007 26.500000000000004 22.500000000000004 1.5000000000000002 27.500000000000004 2.5000000000000004 23.500000000000004 24.500000000000004 1.0000000180025095e-35 17.500000000000004 22.500000000000004 17.500000000000004 2.5000000000000004 20.500000000000004 1.5000000000000002 19.500000000000004
decision_type=2 2 2 2 2 2 2 2 2 2 2 2 2 2 2 2 2 2 2 2 2 2 2 2 2 2 2 2 2 2 2 2 2 2 2 2 2 2 2 2 2 2 2 2 2 2 2 2 2 2 2 2 2 2 2 2 2 2 2 2 2 2
left_child=1 7 4 6 -2 18 -3 -1 19 12 15 25 -9 21 -5 47 43 38 27 22 51 45 -4 -19 -23 52 -18 48 -13 46 31 -12 33 61 35 -15 -24 -38 -16 -40 42 -42 -20 -7 -25 -14 -30 -10 -6 -50 -47 -17 54 -53 55 -8 -57 -56 59 -59 -60 -33
right_child=2 3 8 14 5 16 11 9 10 -11 30 28 13 34 17 20 26 23 40 -21 -22 24 36 44 -26 -27 -28 -29 29 -31 -32 32 -34 -35 -36 -37 37 -39 39 -41 41 -43 -44 -45 -46 50 -48 -49 49 -51 -52 53 -54 -55 57 56 -58 58 60 -61 -62 -63
leaf_value=-0.049350719405667057 -0.029472113258522187 -0.049031825691691837 0.010152349519165708 -0.049334073217722339 0.11870410277395582 0.054603090952781264 0.32858333825543323 -0.05018641185148618 0.13698142175431202 -0.043510024270481923 0.14181852777052598 0.043092379653035612 0.01623579851492616 -0.03137389793454242 0.14210598815135278 0.12542859952197943 0.0086168066882681901 -0.021967285409991835 0.067445075833430276 -0.03975319277991371 0.068832422359011033 0.063665788133005649 0.12602415784129148 0.021204020076077256 0.021450762592656734 0.09169272211379903 0.044886061243892938 0.12161553221813189 0.015163755236188734 0.23527510524096307 0.14522717138231261 0.15022183159138799 0.047707881368121645 0.22174739708599908 -0.040646801046451006 0.0050155387516095913 0.14939852313270371 0.024313299537417475 0.0010623155337803325 0.058839024328247218 0.11942116006412645 -0.012686684033661451 -0.029683979919848991 0.082604549384320436 -0.0085879646004759884 -0.035841300079501967 -0.051765913780819475 0.12260800121480142 0.14680606899480783 0.088435670917447265 0.012851878809749237 0.1146232701216795 0.044890890034416084 0.085727141853103317 -0.023879130785276419 0.067266848653737929 0.2017061960470895 0.21139061499864195 0.0034473767455437052 0.036677028746730539 0.075422244785977366 0.12010924640547281
leaf_weight=3620.4537393152714 31.937279529869556 22.555843153968453 5.6446718163788381 52.111719574779272 27.942918166518211 35.885066114366055 0.65366570651531475 46.010606281459332 133.11168736219406 444.02761074341834 202.40052404999733 39.822725862264633 29.444709464907646 25.052177911624312 1.2810381539165998 29.957376897335052 32.227818720042706 101.74332975409925 15.954179815948015 4.0566861554980269 25.934238534420729 15.481905505061148 5.9454463198780996 21.909853935241699 38.734709516167641 54.387673519551754 26.622527334839106 103.37085126340389 26.092437729239471 0.34654634818434615 461.67696444690228 15.215972825884817 5.0528207272291175 2.0920078158378592 37.317448634654284 23.825146626681089 1.4436315223574636 4.4555954150855541 9.4868295751512051 9.8486591130495071 9.4319149106740934 1.2617641612887371 2.0091652981936923 39.268350772559643 55.725454963743687 12.835473613813521 3.2011643424630156 113.29658034443855 3.894037924706935 50.639469042420387 8.5569824092090112 29.060199223458767 19.446452029049397 27.659551285207272 1.6707559973001505 5.7870068550109863 1.1762228533625601 2.2505962774157533 3.5219011455774298 2.7764930352568626 10.096116617321968 80.119148641824722
leaf_count=153003 1220 949 170 2185 239 769 10 1901 671 18250 931 950 932 991 24 213 945 3707 216 129 366 332 58 651 1005 624 552 658 742 6 2082 75 35 12 1444 773 18 101 309 212 113 33 28 541 1803 477 100 662 34 528 318 237 397 277 26 93 20 27 60 47 172 445
internal_value=0 -0.0412108 0.118819 0.0109574 0.0757002 0.0853382 0.0461031 -0.0466182 0.13312 -0.0320974 0.134807 0.0586351 -0.0107388 -0.00124851 -0.0160578 0.1208 0.0498185 -0.00738723 0.107528 0.0449882 0.0998547 0.01851 0.0646441 -0.0125378 0.0335055 0.0787342 0.0250242 0.112665 0.0291888 0.0105088 0.141367 0.135522 0.123085 0.126995 -0.0253301 -0.0136359 0.0906126 0.0549236 0.0374266 0.0304913 0.074214 0.103834 0.0565814 0.0692341 -0.000180218 0.00251768 0.00784977 0.130373 0.101446 0.0926037 -0.016364 0.109137 0.0638589 0.100532 0.0770641 0.110453 0.0899762 0.0645459 0.0724695 0.114895 0.0568081 0.124915
internal_weight=0 4747.63 1527.57 445.892 380.445 348.508 193.786 4301.74 1147.12 681.287 1125.58 171.23 237.259 191.249 252.107 359.02 134.004 199.995 214.504 21.546 112.611 105.054 17.4893 179.379 54.2166 101.767 58.8503 185.847 69.4629 29.6401 766.557 304.88 102.48 97.4271 86.1948 48.8773 11.8447 5.89923 20.6165 19.3355 28.657 10.6937 17.9633 75.1534 77.6353 50.8372 29.2936 246.408 82.4764 54.5335 21.3925 86.6771 47.3792 56.7198 27.9328 7.6169 6.96323 20.3159 18.6451 5.02709 13.618 95.3351
internal_count=204898 192540 12358 13114 5876 4656 4223 179426 6482 26423 6006 3274 8173 6272 8891 2426 2807 6706 1849 476 1093 3064 347 6161 1337 1476 1497 1459 1798 848 3580 1498 567 532 3208 1764 177 119 545 521 390 146 244 1310 2454 1727 842 1333 801 562 795 727 852 514 455 123 113 332 306 74 232 520
is_linear=0
shrinkage=0.05


Tree=7
num_leaves=63
num_cat=0
split_feature=4 4 4 0 2 2 0 4 2 0 1 1 0 1 4 2 4 1 4 0 4 4 1 0 4 1 1 4 4 1 0 1 4 1 0 3 1 1 1 4 2 1 0 1 1 1 1 1 0 3 3 1 1 0 0 1 1 4 0 3 1 1
split_gain=10392.8 519.837 325.21 172.215 147.26 113.442 79.6319 69.7311 65.1242 34.0651 33.1151 32.3664 28.1923 28.0554 22.3511 19.9855 18.3585 16.4565 13.7549 12.9279 10.5849 10.4236 10.2093 8.92785 8.64058 8.09626 7.69659 7.44831 6.68945 6.63 6.3657 6.02013 6.07116 5.89805 5.82656 5.57695 5.39653 5.32572 5.19045 4.82337 8.53672 6.538 6.80785 4.74768 4.69339 4.58435 4.56712 4.52445 5.36973 6.29609 4.50116 4.23751 4.20763 5.49536 4.21247 6.3463 4.17839 6.94184 7.4896 5.86993 4.12207 4.10618
threshold=10.500000000000002 8.5000000000000018 13.500000000000002 1.0000000180025095e-35 1.0000000180025095e-35 1.0000000180025095e-35 1.0000000180025095e-35 6.5000000000000009 1.0000000180025095e-35 1.0000000180025095e-35 29.500000000000004 31.500000000000004 1.0000000180025095e-35 27.500000000000004 15.500000000000002 1.0000000180025095e-35 11.500000000000002 18.500000000000004 11.500000000000002 1.0000000180025095e-35 12.500000000000002 9.5000000000000018 30.500000000000004 2.5000000000000004 7.5000000000000009 35.500000000000007 25.500000000000004 9.5000000000000018 9.5000000000000018 43.500000000000007 2.5000000000000004 36.500000000000007 7.5000000000000009 21.500000000000004 2.5000000000000004 1.5000000000000002 37.500000000000007 42.500000000000007 42.500000000000007 4.5000000000000009 1.0000000180025095e-35 26.500000000000004 1.0000000180025095e-35 24.500000000000004 29.500000000000004 45.500000000000007 27.500000000000004 17.500000000000004 2.5000000000000004 1.0000000180025095e-35 1.0000000180025095e-35 17.500000000000004 26.500000000000004 1.5000000000000002 2.5000000000000004 27.500000000000004 19.500000000000004 11.500000000000002 2.5000000000000004 1.0000000180025095e-35 19.500000000000004 33.500000000000007
decision_type=2 2 2 2 2 2 2 2 2 2 2 2 2 2 2 2 2 2 2 2 2 2 2 2 2 2 2 2 2 2 2 2 2 2 2 2 2 2 2 2 2 2 2 2 2 2 2 2 2 2 2 2 2 2 2 2 2 2 2 2 2 2
left_child=1 7 3 61 6 16 -3 39 9 -9 24 21 -6 20 15 -4 25 28 -15 44 33 26 -18 -24 43 -5 -8 -19 47 -21 51 32 -12 56 38 -28 -29 -20 -13 -1 41 42 -41 -11 50 -25 -45 -14 49 -49 -17 -26 -37 -54 55 -55 57 -7 -59 -60 -32 -2
right_child=2 4 14 5 12 13 11 8 -10 10 31 34 17 18 -16 19 22 27 37 29 -22 -23 23 45 30 -27 35 36 -30 -31 60 -33 -34 -35 -36 52 -38 -39 -40 40 -42 -43 -44 46 -46 -47 -48 48 -50 -51 -52 -53 53 54 -56 -57 -58 58 59 -61 -62 -63
leaf_value=-0.050373484079141363 -0.012742230684804932 -0.048866108888490578 0.12288167237219721 0.089307533425954599 -0.049181454176052845 0.022389331381932578 0.064328019183225255 -0.050070941915825708 -0.043127246151126127 0.015185742265680428 -0.030729653775580869 0.0642689903419221 -0.035958847652112352 0.009935167715535563 0.13010265877050273 -0.05227966260222932 0.11446999056193433 -0.019996641453219 0.055139889798812118 0.10361336313492298 0.094736392150968532 0.0796951701533678 0.11892740887329212 0.083879498328363208 0.16042157265608509 0.049107895302341074 0.0007349687958437877 0.0069099894379527115 0.076049106651751575 0.041798110496474139 0.050247487456527663 -0.040171378466028029 0.0047418561108206339 0.048191623619300406 0.0094242242863152113 -0.0086601996177339616 -0.024873421644067469 0.0053674955142791608 -0.014176385870131212 -0.051182910445884994 -0.049337236359879272 -0.044572966138403086 -0.021652391999797922 -0.035254052845122806 -0.051510264100009376 0.010704190829454884 0.012058137365662422 -0.052389199045463845 -0.0044018182493561616 0.18360761682268834 0.091849544197239327 0.050782650643704332 0.1906252831989888 0.15346073022239648 0.076874928431518594 -0.052247964969638155 0.095180748461245634 0.1745421019466219 0.14835260601678632 0.044920294801946779 0.011354814438096087 -0.047449098870604708
leaf_weight=2476.8340108599514 25.82813055999577 21.526724074035883 242.37012066692114 88.819502018392086 49.720179229974747 7.274966962635518 39.346464648842812 43.865044681355357 426.02714245580137 29.894697681069374 24.31736577488482 10.307952485978602 3.1407029479742032 35.551407743245363 639.4762085750699 0.73301742970943395 192.79442244768143 103.39990683831275 49.623650822788477 112.63613269478083 34.496729105710983 68.044931009411812 21.870474688708782 47.200760275125504 0.93457548692822712 14.581290308386086 10.36576534807682 63.894741892814636 7.7267309352755547 4.5114717185497275 8.7513732016086561 35.907035581767559 23.937263738363981 39.986008688807487 38.212765732780099 2.282578945159913 16.884492050856352 6.027340054512023 2.6509842202067366 26.053073726594448 677.09125219099224 196.41162346862257 77.791677672415972 12.407746955752375 1.6753264628350732 2.2420359142124644 8.6614637151360494 0.38541427254676852 2.1136717647314072 1.0596116706728933 2.0755147747695446 15.458435058593748 0.82198061048984339 0.48570092022419009 5.8065427392721176 1.6440485939383505 15.930598542094229 1.9438800364732731 1.7181705832481382 6.8024403005838394 30.753335792571306 12.718719199299811
leaf_count=109877 964 949 1166 801 2185 135 610 1901 18250 932 991 264 94 1016 2821 18 1015 3834 829 725 279 802 149 354 15 233 245 1943 142 41 191 1444 773 752 1016 51 589 129 79 1154 29979 8639 3354 477 61 26 318 10 66 28 46 317 17 11 139 40 210 19 20 59 814 490
internal_value=0 -0.0407743 0.107012 0.0780708 0.0102594 0.0850248 0.0420185 -0.0463528 -0.0314731 -0.0103355 -0.00121096 0.0528895 -0.0155107 0.0546553 0.124473 0.114582 0.101499 -0.00708129 0.0342294 0.0980437 0.0718798 0.0662548 0.108491 0.0923275 0.0172641 0.0836387 0.0512013 -0.0111094 0.0443454 0.101233 0.0308399 -0.0246691 -0.0131336 0.061175 0.0192494 0.0270737 0.000266614 0.0497492 0.0482216 -0.0491998 -0.0462254 -0.0392081 -0.0290612 0.00237405 0.0147232 0.0805613 -0.0158042 0.00777998 0.0463814 0.120663 0.0542323 0.0570332 0.051802 0.0675596 0.0548134 -0.00533498 0.0765939 0.0599022 0.0859814 0.0657773 0.0199706 -0.0241939
internal_weight=0 4564.92 1608.89 605.411 449.822 566.864 201.496 4115.1 660.915 234.888 191.023 179.97 248.325 199.355 1003.48 364.002 367.508 198.605 91.2024 121.631 108.153 128.798 264.108 71.3133 106.862 103.401 60.7531 184.179 14.4261 117.148 55.8977 84.1617 48.2546 73.6561 51.1717 21.4066 80.7792 55.651 12.9589 3454.18 977.348 300.256 103.845 50.9639 4.48386 49.4428 21.0692 6.6994 3.5587 1.44503 2.80853 16.393 11.0409 8.75827 7.93629 2.12975 33.6701 17.7395 10.4645 8.52061 39.5047 38.5468
internal_count=204898 192540 12358 7480 13114 6026 4223 179426 26423 8173 6272 3274 8891 3448 4878 2057 2578 6706 1974 891 1474 1915 1544 529 3064 1034 1113 6366 340 766 1337 3208 1764 1195 1359 503 2532 958 343 153003 43126 13147 4508 1727 125 380 795 198 104 38 64 332 258 207 190 51 443 233 98 79 1005 1454
is_linear=0
shrinkage=0.05


Tree=8
num_leaves=63
num_cat=0
split_feature=4 4 4 0 2 2 4 0 2 0 1 0 1 4 1 2 4 1 4 0 1 3 4 4 4 0 0 1 1 1 1 1 1 1 0 4 1 0 0 4 2 1 0 0 0 0 1 1 0 1 3 1 1 1 1 1 1 0 4 1 2 1
split_gain=9210.42 504.586 292.735 142.128 128.68 93.1173 71.1617 69.2603 63.7638 32.6481 30.1408 27.2923 26.0135 24.0208 23.1879 19.2523 16.4629 14.8214 14.6723 10.4129 9.92943 8.54351 8.13585 7.43538 7.29998 7.20771 6.63375 8.17639 6.61065 6.34598 6.34452 5.92448 5.86044 5.72503 6.85394 5.69398 5.56543 7.1077 5.19391 5.01739 8.78554 6.58663 6.78926 4.97263 4.87532 4.71852 7.88074 4.43179 4.39326 10.1971 4.30518 4.28216 4.28251 4.27218 4.16854 4.10696 4.95867 4.06093 4.37184 4.05711 4.1132 8.27003
threshold=10.500000000000002 8.5000000000000018 13.500000000000002 1.0000000180025095e-35 1.0000000180025095e-35 1.0000000180025095e-35 6.5000000000000009 1.0000000180025095e-35 1.0000000180025095e-35 1.0000000180025095e-35 29.500000000000004 1.0000000180025095e-35 31.500000000000004 15.500000000000002 36.500000000000007 1.0000000180025095e-35 11.500000000000002 19.500000000000004 11.500000000000002 1.0000000180025095e-35 23.500000000000004 1.5000000000000002 9.5000000000000018 7.5000000000000009 9.5000000000000018 1.5000000000000002 2.5000000000000004 34.500000000000007 26.500000000000004 35.500000000000007 27.500000000000004 48.500000000000007 36.500000000000007 24.500000000000004 2.5000000000000004 7.5000000000000009 21.500000000000004 1.5000000000000002 2.5000000000000004 4.5000000000000009 1.0000000180025095e-35 26.500000000000004 1.0000000180025095e-35 2.5000000000000004 2.5000000000000004 1.0000000180025095e-35 30.500000000000004 33.500000000000007 1.5000000000000002 19.500000000000004 1.5000000000000002 24.500000000000004 27.500000000000004 42.500000000000007 29.500000000000004 34.500000000000007 26.500000000000004 1.5000000000000002 9.5000000000000018 26.500000000000004 1.0000000180025095e-35 24.500000000000004
decision_type=2 2 2 2 2 2 2 2 2 2 2 2 2 2 2 2 2 2 2 2 2 2 2 2 2 2 2 2 2 2 2 2 2 2 2 2 2 2 2 2 2 2 2 2 2 2 2 2 2 2 2 2 2 2 2 2 2 2 2 2 2 2
left_child=1 6 3 59 7 16 39 -3 9 -8 23 -6 22 15 18 45 29 57 25 54 -18 26 30 51 -19 -7 27 48 -27 -5 -9 -22 35 -21 -35 -12 -23 -38 -25 -1 41 42 -41 55 53 46 -4 -28 49 -20 -32 -11 -53 -14 -17 56 -26 -13 -59 60 61 -2
right_child=2 4 13 5 11 14 8 12 -10 10 32 17 44 -15 -16 19 20 24 21 33 31 36 -24 38 43 28 47 -29 -30 -31 50 -33 -34 34 -36 -37 37 -39 -40 40 -42 -43 -44 -45 -46 -47 -48 -49 -50 -51 -52 52 -54 -55 -56 -57 -58 58 -60 -61 -62 -63
leaf_value=-0.050275673645134925 0.004301393595777395 -0.048698495834324146 0.095964381594792966 0.07947600016896289 -0.049027546510290849 0.095802572552035462 -0.049956050179360695 0.054974467101589222 -0.042735702198376219 0.014218138141736728 -0.030081217408609879 0.11091401026694683 0.057477122898175581 0.11948924566773232 0.0090098776850157086 0.048867308316438859 0.11005237593553617 -0.020715226950742717 0.17408641743075237 0.10302206346029769 0.091323409260095856 0.10122009564723472 0.070940196423482413 0.051409541955134475 0.0053490211860345348 0.046977351244335282 0.047176715554174201 0.20630786687531791 0.012141253646206345 0.04467942334618194 -0.010305441972025117 -0.0007783961984195373 -0.039686460789628501 0.10325866057419866 0.070240463751571974 0.0044842928972324654 0.15894413374409022 0.06411440014362213 0.018614131572297611 -0.051123888278985834 -0.049191216622521933 -0.044233361527763054 -0.021009917007840537 -0.0082261897068619146 0.0088736879934487641 0.11276809555834062 -0.052478433798073591 -0.0065901600050852121 0.081941483418733058 -0.022390261212028348 0.044426014069165659 -0.034658999182132735 0.011322226098634864 -0.013650531292892907 -0.051434683570739395 -0.013539393878377937 0.061384530307677335 0.0012579927954038909 0.047728291732041989 -0.035293635968841608 -0.021366507718241248 0.1753242540072566
leaf_weight=2360.5060509890318 3.570382529869673 20.545571500435472 4.4815533608198157 94.653560325503349 47.440056417137384 4.6801413968205443 41.819281483069062 49.156501162797213 408.86956572532654 30.321343839168549 23.61743525788188 1.5181672126054788 10.932404957711695 660.86071493662894 30.077060889452696 2.9518626742064944 100.78541487455368 97.789005199447274 0.8497059568762827 53.569302514195442 176.18937554210424 20.227276101708412 72.496381692588329 17.248781099915504 7.849311016499998 30.000803548842669 35.062433999031782 1.1537113785743702 24.939061012119055 15.20808721333742 7.1472708918154222 1.7635169625282276 34.562708204612136 23.670442096889019 46.777002424001694 24.043715711683035 2.0843936651945105 37.986046612262726 40.232337679713964 24.810338877141476 645.93318122439086 188.23108571581542 76.203050827607512 55.276320587843657 38.54554383456707 247.31524796783924 1.1169448383152483 4.3029011301696292 13.959058344364166 2.9638520888984203 7.2251653708517551 12.000153293833138 8.7605797760188562 2.6163527220487586 1.5959024410694835 6.5576034896075717 7.9433145225048065 9.4514118917286396 10.895932912826538 24.891545675694942 8.3356979303061962 0.8813611976802348
leaf_count=109877 118 949 34 801 2185 76 1901 777 18250 932 991 24 264 2821 720 64 488 3707 6 279 1035 154 802 332 215 577 445 18 678 233 172 21 1444 148 339 773 25 480 1005 1154 29979 8639 3354 1803 1016 1104 28 81 150 38 164 477 318 79 61 212 224 309 212 976 330 30
internal_value=0 -0.0403301 0.0974224 0.070648 0.00961995 0.0765934 -0.0460821 0.0384671 -0.0308456 -0.00994551 -0.00117546 -0.014977 0.0479869 0.113722 0.0496185 0.103732 0.0910517 -0.00678888 0.0564721 0.0879776 0.0975127 0.0666446 0.0594933 0.0161199 -0.0116275 0.0362382 0.0529952 0.0773212 0.0311641 0.0746591 0.0464305 0.0904107 -0.0240112 0.0907026 0.0813346 -0.0126439 0.0798399 0.0690473 0.0284553 -0.0490477 -0.0459482 -0.0387061 -0.0284063 -0.000179278 0.0179423 0.111741 0.0663489 0.0412996 0.068948 0.0213871 0.0172086 0.00223932 -0.0152559 0.0437419 0.0136693 0.0197222 0.0335335 0.0320285 0.0261427 -0.023534 -0.000643064 0.0381607
internal_weight=0 4390.55 1676.9 634.565 453.386 596.886 3937.16 208.665 641.476 232.606 190.787 244.721 188.12 1042.34 208.286 381.478 388.6 197.281 178.209 128.565 278.738 118.589 136.025 108.563 175.416 59.62 58.2917 18.9263 54.9399 109.862 63.5289 177.953 82.2239 124.017 70.4474 47.6612 60.2977 40.0704 57.4811 3295.68 935.178 289.244 101.013 77.6265 52.0943 252.914 5.5985 39.3653 17.7726 3.81356 14.3724 51.0821 20.7607 13.5488 4.54777 22.3502 15.7926 21.8655 20.3473 37.679 12.7874 4.45174
internal_count=204898 192540 12358 7480 13114 6026 179426 4223 26423 8173 6272 8891 3274 4878 3448 2057 2578 6706 2728 891 1544 1397 1915 3064 6161 1331 738 212 1255 1034 1113 1056 3208 766 487 1764 659 505 1337 153003 43126 13147 4508 2454 1359 1166 62 526 194 44 336 1727 795 343 125 651 439 545 521 1454 478 148
is_linear=0
shrinkage=0.05


Tree=9
num_leaves=63
num_cat=0
split_feature=4 4 4 2 0 0 2 1 4 4 4 2 1 2 0 1 4 4 0 1 4 0 1 1 1 0 1 0 1 0 3 4 1 4 0 1 0 1 1 0 0 1 1 0 0 0 1 0 4 1 2 4 1 1 1 1 4 1 4 0 0 4
split_gain=8223.77 489.971 269.28 173.855 118.892 89.2886 78.1007 35.6981 27.2751 25.4829 19.2824 21.9924 19.068 18.7395 17.65 16.7906 16.4487 15.0023 13.0277 11.9549 11.8517 10.2107 10.3083 9.40673 8.61672 8.54328 8.23786 11.6488 7.07439 6.68109 6.67424 6.104 5.81942 5.7684 5.62058 5.49321 5.24635 5.27869 5.06017 5.44965 4.92044 4.75312 4.39031 5.09581 4.32669 4.27919 6.61723 4.25207 5.14521 4.04889 5.44406 5.04598 8.02919 3.93893 3.79761 3.73862 3.94494 3.73409 3.70459 4.34264 3.65228 3.64979
threshold=10.500000000000002 7.5000000000000009 13.500000000000002 1.0000000180025095e-35 1.0000000180025095e-35 1.0000000180025095e-35 1.0000000180025095e-35 30.500000000000004 9.5000000000000018 15.500000000000002 5.5000000000000009 1.0000000180025095e-35 36.500000000000007 1.0000000180025095e-35 1.0000000180025095e-35 24.500000000000004 9.5000000000000018 11.500000000000002 1.0000000180025095e-35 18.500000000000004 11.500000000000002 1.0000000180025095e-35 22.500000000000004 30.500000000000004 42.500000000000007 1.0000000180025095e-35 20.500000000000004 1.5000000000000002 59.500000000000007 2.5000000000000004 1.5000000000000002 8.5000000000000018 22.500000000000004 8.5000000000000018 1.5000000000000002 26.500000000000004 2.5000000000000004 34.500000000000007 24.500000000000004 2.5000000000000004 2.5000000000000004 37.500000000000007 21.500000000000004 1.5000000000000002 1.5000000000000002 1.0000000180025095e-35 30.500000000000004 1.0000000180025095e-35 18.500000000000004 35.500000000000007 1.0000000180025095e-35 11.500000000000002 32.500000000000007 34.500000000000007 17.500000000000004 33.500000000000007 12.500000000000002 29.500000000000004 8.5000000000000018 2.5000000000000004 1.0000000180025095e-35 11.500000000000002
decision_type=2 2 2 2 2 2 2 2 2 2 2 2 2 2 2 2 2 2 2 2 2 2 2 2 2 2 2 2 2 2 2 2 2 2 2 2 2 2 2 2 2 2 2 2 2 2 2 2 2 2 2 2 2 2 2 2 2 2 2 2 2 2
left_child=1 10 4 5 49 -3 17 16 21 13 -1 15 20 45 -10 18 26 32 -12 -16 34 -5 -23 54 31 57 27 -7 -26 -25 36 -9 -6 -24 -8 -36 37 -22 -27 -40 -33 -21 -32 -44 -34 46 -4 48 53 50 51 -2 -53 -11 -19 56 -38 -15 59 -28 -17 -14
right_child=2 3 9 8 6 7 12 24 14 47 11 -13 61 25 19 60 -18 23 -20 41 30 22 33 29 28 38 58 -29 -30 -31 42 40 44 -35 35 -37 55 -39 39 -41 -42 -43 43 -45 -46 -47 -48 -49 -50 -51 -52 52 -54 -55 -56 -57 -58 -59 -60 -61 -62 -63
leaf_value=-0.049680923751144135 -0.019196076364636865 -0.04970945674811398 0.085493552596757616 -0.048974448803194022 0.084591600649630783 0.17432569841751175 0.083674971925118163 -0.004182494926820296 -0.048280984032510743 0.064251259480780351 -0.051065217112839768 -0.046603849445656098 -0.012083755938285277 0.044389000001435225 0.062058768444494573 -0.049869533219587509 0.064069237058509892 0.11838449281729505 0.0027350131241367427 0.0062438180316878901 0.062208538606711508 -0.0056762405076534765 -0.040176147471651089 0.095441391587683638 -0.033819281619275672 0.093410122716354155 0.038962143491054216 0.04833855927410094 0.16709233811452762 0.064160193340127819 0.089692373332213679 0.050475013893995113 0.10132377111203224 -0.02267256601846401 0.042765926483802522 0.011402407991347587 0.027786918266613475 0.16374860137945718 0.092441742565882376 0.063772315044415495 0.015300114566232646 -0.023939224781950125 0.13359145233314673 0.057802980819904808 0.056774900884969497 0.10364043580462774 -0.052353483316228216 0.11121209006158322 0.14438794072376726 -0.051269056438907314 -0.029219828690365698 0.031394039138224722 0.24100454369748736 -0.054764210361154288 0.092142808554822667 -0.0062982288588442001 0.060785893309777239 -0.051362979485933692 0.036907985811363668 0.0065960035765089175 -0.032702567688690024 0.023115211697762088
leaf_weight=2736.4997669830918 4.6572526078671235 36.435396334156394 4.770822510123252 70.147576168179512 33.959018468856812 1.950731836259364 5.0792473703622809 28.499020790681243 17.892337657511234 3.5137632526457301 14.011386118829249 501.35558253154159 12.601014811545612 3.0835841149091712 8.6291115283966047 40.426256375387311 73.386643223464489 14.825296655297278 57.140445735305548 64.597197074443102 18.677829552441839 44.85625109821558 104.88881975412369 24.72143667563796 14.077492460608479 56.058374315500259 15.237841706722973 30.848520312458277 0.45222058519721109 55.147007722407579 21.645795971155167 13.593440003693102 5.8715665265917769 85.388511030003428 31.272689655423164 25.219837184995413 19.499649446457624 1.3741101175546635 25.078838996589184 48.887327589094639 37.013242680579424 16.343561071902514 2.3482216596603385 39.97226244956255 75.971067823469639 255.41586787998676 1.0649425238370893 670.36773854494095 1.6461706385016439 9.3737735599279386 18.117284670472145 4.203017845749855 0.51257922314107407 0.86667524836957444 196.83883887529373 4.2778827510774127 16.911900222301483 1.5201351698487995 45.413387879729271 32.398924669250846 132.6292889341712 17.722241383045912
leaf_count=133465 176 1758 34 3295 239 22 76 992 868 31 686 23983 383 64 142 1909 749 65 2062 1943 194 1813 4812 149 491 279 298 515 7 380 154 304 48 3301 577 678 288 18 148 339 919 589 25 480 747 1104 28 2766 10 391 744 126 17 14 950 81 157 61 808 862 5947 337
internal_value=0 -0.0398777 0.0894673 -0.00298931 0.0643611 0.0241055 0.0695163 0.0332886 -0.0246069 0.104939 -0.0477388 -0.0406105 0.0452574 0.094864 -0.00294305 -0.0283062 0.0452558 0.0824161 -0.00785945 0.00611358 0.0512428 -0.0322328 -0.0272382 0.0884637 0.00782515 0.0797099 0.0342851 0.0558316 -0.0275661 0.0738426 0.0601046 0.0143256 0.067191 -0.0323213 0.0332941 0.0287644 0.0482344 0.0691668 0.08208 0.0734929 0.0247484 0.000149257 0.0713764 0.0620082 0.0599709 0.102673 0.0603385 0.110836 0.0690252 -0.0228919 -0.0132157 0.0177195 0.0541784 0.0407039 0.0939808 0.0379189 0.0431138 0.012772 0.0266901 0.0169491 -0.0367128 0.00848807
internal_weight=0 4224.11 1733.08 742.05 660.801 329.307 623.937 292.871 412.743 1072.27 3482.06 745.563 216.603 395.88 107.462 244.207 199.236 407.334 71.1518 89.5699 186.279 305.281 235.134 291.533 93.6354 134.628 125.849 32.7993 14.5297 79.8684 124.708 79.1057 115.802 190.277 61.5718 56.4925 60.7414 20.0519 130.025 73.9662 50.6067 80.9408 63.9663 42.3205 81.8426 261.252 5.83577 676.394 6.02661 36.8639 27.4901 9.37285 4.7156 4.38044 211.664 40.6894 36.4115 4.60372 93.0502 47.6368 173.056 30.3233
internal_count=204898 192540 12358 24488 7480 7725 6026 5967 16763 4878 168052 34587 3448 2057 3542 10604 3254 2578 2748 2674 2728 13221 9926 1544 2713 891 2505 537 498 529 1397 2215 1034 8113 1331 1255 738 212 766 487 1223 2532 659 505 795 1166 62 2821 55 1454 1063 319 143 45 1015 526 445 125 1968 1160 7856 720
is_linear=0
shrinkage=0.05


Tree=10
num_leaves=63
num_cat=0
split_feature=4 4 4 0 2 2 4 0 2 1 1 4 2 1 1 0 4 0 0 0 1 4 2 1 1 4 0 1 1 3 3 0 1 1 4 1 4 4 4 1 1 3 1 1 1 3 1 0 1 1 1 0 1 3 4 1 1 3 0 0 1 1
split_gain=7417.82 491.287 219.225 142.101 98.2817 94.1305 57.5975 47.0404 25.9191 20.9785 20.3622 19.9234 22.2227 16.2679 15.0415 12.4374 11.8648 11.4152 11.2849 10.2503 9.91786 9.29839 12.261 8.85997 8.72366 8.63631 7.41162 6.68715 6.44965 7.11642 6.03031 6.75296 6.06175 7.12018 5.9093 5.79438 5.71822 5.70478 5.34045 4.95865 4.94216 8.40661 5.14194 4.86242 4.69355 4.68237 5.74335 4.68052 4.40653 4.41694 4.28801 7.85505 4.25979 16.2487 3.98148 4.86766 5.09527 3.88398 3.79914 3.70584 3.62861 3.59117
threshold=9.5000000000000018 12.500000000000002 7.5000000000000009 1.0000000180025095e-35 1.0000000180025095e-35 1.0000000180025095e-35 14.500000000000002 1.0000000180025095e-35 1.0000000180025095e-35 30.500000000000004 25.500000000000004 5.5000000000000009 1.0000000180025095e-35 24.500000000000004 29.500000000000004 1.0000000180025095e-35 11.500000000000002 1.0000000180025095e-35 1.0000000180025095e-35 1.0000000180025095e-35 22.500000000000004 16.500000000000004 1.0000000180025095e-35 42.500000000000007 39.500000000000007 11.500000000000002 1.5000000000000002 30.500000000000004 30.500000000000004 1.0000000180025095e-35 1.5000000000000002 2.5000000000000004 26.500000000000004 22.500000000000004 10.500000000000002 27.500000000000004 8.5000000000000018 10.500000000000002 18.500000000000004 34.500000000000007 33.500000000000007 1.5000000000000002 36.500000000000007 40.500000000000007 42.500000000000007 1.0000000180025095e-35 22.500000000000004 1.5000000000000002 23.500000000000004 19.500000000000004 36.500000000000007 2.5000000000000004 39.500000000000007 1.5000000000000002 11.500000000000002 21.500000000000004 18.500000000000004 1.5000000000000002 2.5000000000000004 1.0000000180025095e-35 21.500000000000004 29.500000000000004
decision_type=2 2 2 2 2 2 2 2 2 2 2 2 2 2 2 2 2 2 2 2 2 2 2 2 2 2 2 2 2 2 2 2 2 2 2 2 2 2 2 2 2 2 2 2 2 2 2 2 2 2 2 2 2 2 2 2 2 2 2 2 2 2
left_child=2 3 11 54 7 14 8 -4 28 16 -9 -1 13 15 25 -13 30 38 60 -6 -21 22 -19 43 26 58 40 -20 -3 -30 31 32 33 -7 47 -34 -22 44 39 -8 -12 42 -42 50 52 46 -33 -11 49 -32 -24 -52 -16 -54 -2 56 -56 -18 -5 -15 -10 -61
right_child=1 6 4 5 19 9 17 10 18 34 24 12 -14 59 37 -17 57 21 27 20 36 -23 23 -25 -26 -27 -28 -29 29 -31 48 45 35 -35 -36 -37 -38 -39 -40 -41 41 -43 -44 -45 -46 -47 -48 -49 -50 -51 51 -53 53 -55 55 -57 -58 -59 -60 61 -62 -63
leaf_value=-0.049561317129678567 -0.044042407899268554 0.092142930402503986 -0.049202459392227615 0.075167080862065805 -0.048818604110111276 0.076577624162100691 0.049393616665237013 0.039187015181485652 0.066776804134755605 0.050808337935349973 0.040201427549436994 -0.051012185734422379 -0.046349182726238967 -0.049755207616531211 0.029799667037844365 0.0025914096798021402 0.039008324957670829 0.1022852155569451 0.07192373400883259 -0.0054222501564854669 -0.03970182182993881 0.10599536607474257 0.087189046163395123 0.0240830247588464 -0.024584239820143097 0.081787381510772375 0.0093616802142664039 0.047646311696962838 0.09722828135084044 0.066314607759167421 0.0014842421252502045 0.068370728379883047 0.21245785009098622 -0.0057066496091627388 0.015759760991084705 0.079833083398205232 -0.022018966199412307 0.055314093089859587 0.12812933962279954 -0.053192922700120264 -0.05224534846872543 0.29604716714474766 0.18194687557386546 0.15304955780388763 -0.023906101108852912 0.0043586026310589504 0.016439733403669731 -0.015070916326775633 -0.0025058048765572165 0.046686871879240338 0.11663722503394908 0.021190510000192828 -0.020606381647718823 0.20772759173895095 -0.051345212786398121 -0.024374083694096837 0.13205364568645614 0.065598679296682047 0.057974695262324218 -0.019519885037366208 -0.016931441913926943 -0.03763974581757637
leaf_weight=2609.1639824751765 42.462923964485526 214.12135776504874 27.391124604269862 45.586148642003536 66.934128442779183 6.8847602084279043 7.1389747858047468 85.041507195681334 1.6696622632443894 2.91702383942902 4.2912219241261473 13.341548241674898 479.4590870924294 38.540792731568217 22.995926264673479 57.287708055227995 25.040428794920444 228.47639073431492 100.75676245242357 44.615857262164354 100.93547900766134 514.92905002832413 103.99144874513149 6.1281786262989035 18.517379999160767 102.14297911524773 88.652028808370233 39.478272825479507 27.079131536185741 59.571021772921085 9.2051838152110594 9.807714983820917 1.1310633271932591 4.2531772777438164 51.977563481777906 3.0292955823242664 83.573858734220266 85.857015147805214 1.7590998820960511 1.4107067640870807 0.51891387253999688 0.57414108142256737 0.42744958028197289 2.624608874320983 3.5677749067544928 15.871801145374773 11.646593224257229 35.599724635481834 25.163233023136854 13.088013239204882 3.2101937979459745 6.561615452170372 1.5786739438772193 1.5384121350944042 0.58028834313154121 9.2703796122223121 1.0902528613805769 30.412357538938522 108.88459667563438 39.451803782954812 5.7636816240847111 89.100167747586966
leaf_count=133465 2022 968 1388 328 3295 113 76 1457 38 79 84 686 23983 1909 471 2062 332 931 644 1813 4812 2082 471 35 665 494 2381 449 148 329 185 159 24 95 1240 77 3301 791 10 38 13 15 12 12 103 399 301 1205 665 304 16 33 38 37 23 371 42 303 927 1738 202 4209
internal_value=0 0.0759749 -0.0428071 0.0411384 -0.0126649 0.0478985 0.0936363 0.0122116 0.0790625 0.0239021 0.0207066 -0.0475326 -0.0401517 -0.0276522 0.0637624 -0.00753407 0.035039 0.101095 0.061907 -0.0316054 -0.026577 0.101718 0.095442 0.0826803 0.00679622 0.0705073 0.0129476 0.0650893 0.0874852 0.0759755 0.0247594 0.0364146 0.064392 0.0451562 0.00476099 0.115889 -0.0316923 0.0487816 0.0487907 0.0324667 0.0676474 0.145107 0.0535336 0.0857657 0.0298853 0.0249479 0.0401797 -0.0100816 0.011835 0.0280221 0.0842134 0.0525463 0.0372347 0.092086 -0.0371125 -0.0102167 0.0683472 0.0535915 0.0630484 -0.036156 0.00187093 -0.0320789
internal_weight=0 1996.25 3847.82 671.583 521.473 618.179 1324.67 225.414 448.44 246.028 198.023 3326.35 717.181 237.722 372.152 70.6293 155.534 876.23 147.668 296.059 229.125 865.921 350.992 122.516 112.981 256.614 94.4638 140.235 300.772 86.6502 100.081 52.6244 15.2983 11.1379 90.4943 4.16036 184.509 115.538 10.3088 8.54968 5.81173 1.5205 0.946363 116.388 29.6808 37.3261 21.4543 38.5167 47.4564 22.2932 113.763 9.77181 26.113 3.11709 53.4038 10.9409 1.67054 55.4528 154.471 167.093 7.43334 128.552
internal_count=204898 17610 187288 11128 19236 8670 6482 6015 2778 5481 4627 168052 34587 10604 3189 2748 2957 3704 1333 13221 9926 3580 1498 567 3170 1749 2505 1093 1445 477 2322 1168 309 208 2524 101 8113 1440 124 114 124 40 25 532 649 859 460 1284 1154 489 520 49 546 75 2458 436 65 635 1255 7856 240 5947
is_linear=0
shrinkage=0.05


Tree=11
num_leaves=63
num_cat=0
split_feature=4 4 4 0 2 2 4 0 2 4 2 1 1 1 0 4 0 0 1 4 1 0 1 1 1 0 0 3 4 4 1 4 3 0 0 4 1 1 0 4 1 1 1 0 1 1 0 1 4 4 1 1 3 1 1 3 0 3 1 1 1 1
split_gain=6719.78 444.171 218.566 124.097 91.4642 79.0543 60.155 43.2297 34.6504 20.5752 22.4292 17.9173 17.3402 15.7408 14.9098 13.0837 11.8727 10.2781 10.1489 9.87241 9.52887 8.22483 7.90817 7.17884 6.18974 6.07139 5.70205 7.30456 5.65972 5.2855 5.24515 5.23375 5.07782 5.56443 4.63817 4.36648 4.97306 4.15581 4.12117 3.92319 4.22485 3.99169 3.83684 3.75612 3.71305 3.53836 3.42344 8.50181 4.37288 3.80936 3.39841 3.38441 4.72558 3.90915 3.36334 3.6202 5.3919 3.33683 5.98572 4.2176 4.78455 3.53436
threshold=9.5000000000000018 12.500000000000002 7.5000000000000009 1.0000000180025095e-35 1.0000000180025095e-35 1.0000000180025095e-35 15.500000000000002 1.0000000180025095e-35 1.0000000180025095e-35 5.5000000000000009 1.0000000180025095e-35 30.500000000000004 25.500000000000004 24.500000000000004 1.0000000180025095e-35 11.500000000000002 1.0000000180025095e-35 1.0000000180025095e-35 31.500000000000004 11.500000000000002 22.500000000000004 1.0000000180025095e-35 39.500000000000007 26.500000000000004 23.500000000000004 1.5000000000000002 2.5000000000000004 1.0000000180025095e-35 8.5000000000000018 10.500000000000002 30.500000000000004 13.500000000000002 1.5000000000000002 1.5000000000000002 2.5000000000000004 17.500000000000004 34.500000000000007 29.500000000000004 1.5000000000000002 11.500000000000002 21.500000000000004 18.500000000000004 23.500000000000004 1.0000000180025095e-35 19.500000000000004 29.500000000000004 1.5000000000000002 20.500000000000004 6.5000000000000009 6.5000000000000009 29.500000000000004 33.500000000000007 1.5000000000000002 36.500000000000007 36.500000000000007 1.5000000000000002 1.5000000000000002 1.0000000180025095e-35 30.500000000000004 35.500000000000007 39.500000000000007 29.500000000000004
decision_type=2 2 2 2 2 2 2 2 2 2 2 2 2 2 2 2 2 2 2 2 2 2 2 2 2 2 2 2 2 2 2 2 2 2 2 2 2 2 2 2 2 2 2 2 2 2 2 2 2 2 2 2 2 2 2 2 2 2 2 2 2 2
left_child=2 3 9 39 7 15 8 -4 21 -1 13 19 -9 16 -10 18 -11 -6 34 32 -19 30 25 -16 -23 51 27 -25 -22 38 50 -26 33 -7 -5 36 -8 -17 -13 -2 41 -41 44 -15 -34 -45 47 49 -48 -18 -3 -14 53 -53 55 -31 -57 58 -28 -60 -61 -59
right_child=1 6 4 5 17 11 35 12 14 10 -12 29 22 43 23 37 46 20 -20 -21 28 24 -24 26 31 -27 57 -29 -30 54 -32 -33 42 -35 -36 -37 -38 -39 -40 40 -42 -43 -44 45 -46 -47 48 -49 -50 -51 -52 52 -54 -55 -56 56 -58 61 59 60 -62 -63
leaf_value=-0.049441054784793874 -0.043690381344520995 0.045554588840022822 -0.049064758557685946 0.069073108346749928 -0.048660648972704772 0.092099123093262056 0.095822943986281384 0.035960849910777339 -0.0024084999993487536 -0.05096184849502159 -0.046088451772045527 0.046006367430176491 0.036822324539275177 -0.049640664646555983 0.072103140715587072 0.075166145602455839 0.26798979183625948 -0.0051783517846301502 0.032166042914997306 0.048820089851152201 -0.039217525275512484 0.0937732760671251 -0.023915128301873811 0.036432774316603959 0.072188154371095103 0.0088154388604654282 0.027233253952868575 0.085545001653614547 -0.021371173482283949 0.0096263634390689849 -0.029335389652049845 0.086542179600974684 0.0014081117836950924 0.0290666766623295 0.051406915236653521 0.1011901230967365 0.077683594610163303 0.057336335604200574 -0.01452678219118759 -0.051277927632779441 -0.0237111723894044 0.11039389750051183 -0.0023861318936902187 -0.018901433586924647 0.042483670903254417 -0.037104619614948452 -0.015566002125478234 -0.019732665033472707 0.012803457337962971 0.085417152581439823 0.14733479080645737 -0.052131388498573655 0.21386312827357618 0.14563057474168115 0.00030590732539208796 0.1431043314866467 0.03464775670605541 0.058685291638887763 0.11479852458194179 0.0080485965994624344 0.090896982664481651 0.029030595153265473
leaf_weight=2487.7995849475265 40.709299402311444 6.1729949600994569 26.126542173326015 52.821257077157497 63.87122081592679 3.7616765424609175 260.47895058989525 87.958226159214973 9.0637276209890825 12.703092671930788 458.59128491021693 3.0565910600125781 4.4465489387512198 36.743613900616765 107.91139121353626 105.49160540103912 0.46989068388938837 44.387356843799353 55.538384826853871 57.762593187391758 97.168739967048168 153.38350822031498 18.094600781798363 11.056934256106613 101.00760086625814 89.41771581210196 7.7442972511053112 24.014495622366667 81.846399616450071 16.042922094464302 2.1947134044021368 171.03897954523563 9.2173904478549975 50.588037967681885 125.25790772587061 387.83422096446157 44.196155404672027 47.350924581289291 35.099533004686236 0.55269334279000659 9.0585443545132858 1.2347204536199567 25.10549377463758 38.724365934729576 13.648452892899511 85.946357727050781 25.233129724860191 1.5747005492448805 29.420946300029755 0.72889731824398041 0.94580240547657002 0.4946579150855539 0.74921352043747902 0.50498086027801037 22.8334118463099 1.2607578858733184 12.585620112717152 14.393041729927061 5.7374545410275442 2.9257135093212128 4.3096370287239552 33.280061732977629
leaf_count=133465 2022 67 1388 378 3295 62 1068 1457 285 686 23983 79 84 1909 580 494 20 1813 923 635 4812 632 665 84 487 2381 51 170 3301 357 62 714 185 1106 1073 1558 195 321 1205 23 371 42 665 1738 304 4209 1074 58 888 22 7 13 15 12 589 15 279 95 53 25 40 309
internal_value=0 0.070701 -0.0424251 0.0380439 -0.0122107 0.0440788 0.0873962 0.0114508 0.0765359 -0.0473221 -0.0396835 0.022228 0.0192908 -0.0269981 0.0603879 0.0582684 -0.00722008 -0.030973 0.0508271 0.0322941 -0.0259161 0.0847237 0.00639567 0.0630806 0.0857413 0.0121319 0.05367 0.0700614 -0.0310581 0.00449657 0.0382428 0.0812127 0.0229648 0.0334293 0.056647 0.0976711 0.0931917 0.0696424 -0.00967762 -0.036571 -0.00984921 0.0604027 0.0111089 -0.0355912 0.0259258 -0.0314505 0.00245569 0.0566482 -0.000294381 0.15698 0.0590771 0.0599985 0.118925 0.0477707 0.0147546 0.0257925 0.0445231 0.0452643 0.0620181 0.0827833 0.0573961 0.0379837
internal_weight=0 2036.67 3693 688.978 515.066 637.423 1347.69 227.792 655.18 3177.94 690.136 250.962 201.666 231.545 220.437 386.46 70.1307 287.274 233.618 160.084 223.402 434.744 113.708 211.373 425.43 95.6131 103.462 35.0714 179.015 90.8788 9.31351 272.047 102.321 54.3497 178.079 692.509 304.675 152.843 38.1561 51.5553 10.846 1.78741 47.9713 161.414 22.8658 124.671 57.4276 2.77349 54.6541 1.19879 7.1188 6.1954 1.74885 0.999639 52.7227 29.8893 13.8464 68.3902 20.7171 12.9728 7.23535 47.6731
internal_count=204898 17610 187288 11128 19236 8670 6482 6015 3661 168052 34587 5481 4627 10604 1692 3189 2748 13221 2374 2957 9926 1969 3170 1407 1833 2505 827 254 8113 2524 136 1201 2322 1168 1451 2821 1263 815 1284 2458 436 65 1154 7856 489 5947 2062 100 1962 42 74 124 40 25 1240 651 294 573 169 118 65 404
is_linear=0
shrinkage=0.05


Tree=12
num_leaves=63
num_cat=0
split_feature=4 4 4 0 2 2 4 0 2 4 2 1 1 1 4 4 2 4 0 0 0 1 1 0 1 1 1 1 0 3 4 1 1 1 4 3 1 1 4 1 1 0 0 1 1 1 1 1 3 0 1 1 1 1 0 1 3 1 4 3 1 1
split_gain=6109.05 405.397 217.741 108.973 85.1117 67.0682 62.6554 39.8122 23.241 21.2338 22.6041 15.4553 15.1943 15.1472 11.848 11.5908 15.1005 11.4181 11.3234 10.5668 10.2937 9.1423 8.71171 7.73802 7.5726 7.17459 6.26238 6.22919 6.68766 5.70966 5.59303 5.33966 5.30243 4.24278 4.054 5.8201 3.95394 4.11898 3.86228 3.85709 3.85341 3.80326 3.71922 3.69844 3.68938 3.48084 3.22109 3.20225 3.41853 3.59219 3.30235 3.17743 3.12974 3.10725 3.09865 3.02161 3.01435 3.09999 2.9839 4.34999 5.82743 10.1077
threshold=9.5000000000000018 12.500000000000002 7.5000000000000009 1.0000000180025095e-35 1.0000000180025095e-35 1.0000000180025095e-35 14.500000000000002 1.0000000180025095e-35 1.0000000180025095e-35 5.5000000000000009 1.0000000180025095e-35 36.500000000000007 24.500000000000004 27.500000000000004 11.500000000000002 16.500000000000004 1.0000000180025095e-35 10.500000000000002 1.0000000180025095e-35 1.0000000180025095e-35 1.0000000180025095e-35 22.500000000000004 35.500000000000007 1.0000000180025095e-35 42.500000000000007 18.500000000000004 30.500000000000004 39.500000000000007 1.5000000000000002 1.0000000180025095e-35 8.5000000000000018 28.500000000000004 32.500000000000007 21.500000000000004 8.5000000000000018 1.5000000000000002 40.500000000000007 19.500000000000004 11.500000000000002 33.500000000000007 29.500000000000004 1.0000000180025095e-35 2.5000000000000004 21.500000000000004 23.500000000000004 29.500000000000004 18.500000000000004 25.500000000000004 1.0000000180025095e-35 1.5000000000000002 26.500000000000004 23.500000000000004 21.500000000000004 26.500000000000004 2.5000000000000004 47.500000000000007 1.5000000000000002 36.500000000000007 11.500000000000002 1.0000000180025095e-35 43.500000000000007 39.500000000000007
decision_type=2 2 2 2 2 2 2 2 2 2 2 2 2 2 2 2 2 2 2 2 2 2 2 2 2 2 2 2 2 2 2 2 2 2 2 2 2 2 2 2 2 2 2 2 2 2 2 2 2 2 2 2 2 2 2 2 2 2 2 2 2 2
left_child=2 3 9 38 7 14 8 -4 26 -1 12 17 18 34 22 16 -8 25 -11 -18 -6 -22 44 52 36 -7 -3 28 31 -28 -23 -15 54 -19 35 -9 37 -21 -2 -33 -16 -14 53 46 -5 -43 -40 48 -46 -50 -49 -37 -10 -27 -25 -31 57 -41 -13 60 61 -60
right_child=1 6 4 5 20 11 15 13 23 10 -12 58 41 27 40 -17 19 33 -20 24 21 30 -24 32 -26 42 29 -29 -30 55 -32 39 -34 -35 -36 51 -38 -39 43 56 -42 45 -44 -45 47 -47 -48 50 49 -51 -52 -53 -54 -55 -56 -57 -58 -59 59 -61 -62 -63
leaf_value=-0.049319862183076692 -0.043329645331639834 0.079681805371011952 -0.048925358261322889 0.057948247136450116 -0.048500250495007745 0.050621354721408551 0.090532615255504767 0.0033131650371994595 0.059952895407965938 -0.050914060057798527 -0.045821252704087302 -0.015420975712796102 -0.049525629040241548 0.20609198032586562 0.069445017881966262 0.094567343760774858 -0.032545349862065816 0.047667784634732903 0.0023048408325902331 0.094535311751497542 -0.0049442620293975552 -0.038723195202883635 0.022103662383899526 0.070508013085061202 0.018411727365140029 0.0015099720407259825 0.082563384370601581 -0.023250025357005624 0.0055307841630148746 0.057871657392255686 -0.020729854054439705 0.011109501182461443 0.036821726708871384 0.028728282725829266 0.04006715035245105 0.050041213080832071 0.13290417589071898 0.068751748888225855 -0.051214087982579606 -0.0520234301295514 0.052552742768980469 -0.018291812962035466 -0.0038087272921789664 -0.023052087354778761 0.055181934235323707 -0.036560014102492218 0.094321413304227344 0.070340803452970627 -0.060096438144443022 0.02298278601153067 0.044755140582765612 0.014901566234896219 -0.016265432106545595 0.041512165586759027 0.053351543469232182 -0.00026189164261668902 0.16771105020385341 0.12087890679859946 0.0048443191764261017 -0.0019514927275909009 -0.052482975580189217 0.24947356669485987
leaf_weight=2372.1380192171782 39.038214609026909 223.16626930981874 24.921376222744584 89.336728185415268 60.952102083712816 9.521261837333439 235.51121716201305 24.989832151681185 1.7674700170755375 12.094611302018164 438.70579543337226 30.425904443487525 35.030759703367949 0.57733160257339378 108.39390262961388 524.53540999814868 2.4967546537518492 42.157529938966036 57.575646888464689 18.314270824193954 44.170163713395596 93.580123588442802 31.647441389039159 39.93095538765192 6.4246159791946402 9.3088854514062422 28.928185384720564 17.692003078758717 72.93399315699935 60.672149520367384 80.202069457620382 3.1180956140160561 34.197921149432659 99.036005690693855 56.507871352136135 16.948247872292999 2.7939855307340613 100.43483489751816 0.52637697756290336 0.47148495167493798 49.032163172960281 38.032136846333742 44.824737252667546 8.8568660635501129 8.3174927681684512 82.941964123398066 1.3689962550997732 14.954437203705309 1.4174160212278373 15.856565296649933 80.500229801982641 10.368870954960583 5.6601133979856968 10.145283818244932 77.200464747846127 2.3207457102835169 0.90284948796033848 0.57586998492479324 0.86309623718261563 7.8606472387909889 0.64149004593491543 0.82671232521533966
leaf_count=133465 2022 968 1388 625 3295 142 961 535 38 686 23983 1043 1909 9 494 2112 64 443 2062 75 1813 4812 562 213 35 234 148 665 2003 311 3301 61 366 1775 777 310 12 445 23 13 321 1738 1375 371 67 4209 42 116 11 127 866 227 202 263 514 18 15 12 16 159 15 16
internal_value=0 0.0660793 -0.0420344 0.0352885 -0.0117672 0.0407086 0.0819865 0.0107492 0.0672977 -0.0471071 -0.0392066 0.0207087 -0.0263478 0.0180007 0.0535066 0.0898025 0.0829733 0.0260526 -0.00693385 0.0693275 -0.0303361 -0.0252564 0.0465618 0.0516975 0.0713152 0.0101146 0.0751579 0.00355418 0.00958908 0.0641746 -0.0304191 0.0620168 0.0541431 0.0343832 0.0307819 0.0207509 0.0741116 0.0727283 -0.0360212 0.0456052 0.0641837 -0.0350179 0.00411463 -0.00948654 0.0502409 -0.0308168 0.0539038 0.0445527 0.0288464 0.0161657 0.0487635 0.0367031 0.0018715 0.022371 0.0592003 0.0557299 0.100759 0.0430439 -0.00757747 0.0158377 0.075819 0.124525
internal_weight=0 2069.21 3545.43 704.858 508.912 655.068 1364.36 230.008 473.844 3036.52 664.381 255.612 225.675 205.086 399.456 890.511 365.976 214.994 69.6703 130.464 278.904 217.952 242.03 158.757 127.968 73.8002 315.087 96.2716 78.5796 91.9211 173.782 5.64563 151.329 141.194 108.815 52.307 121.543 118.749 49.7905 5.0683 157.426 156.005 64.2789 10.7522 210.383 120.974 1.89537 121.046 25.5915 17.274 95.4547 27.3171 7.42758 19.4542 117.131 62.9929 1.9502 1.04735 40.6179 10.1919 2.3313 1.68981
internal_count=204898 17610 187288 11128 19236 8670 6482 6015 2778 168052 34587 5481 10604 4627 3189 3704 1592 4232 2748 631 13221 9926 2374 1333 567 2014 1445 2778 2113 477 8113 110 1093 2218 1849 1072 532 520 2458 101 815 7856 1872 436 1812 5947 65 1187 205 138 982 537 240 497 727 329 40 25 1249 206 47 32
is_linear=0
shrinkage=0.05


Tree=13
num_leaves=63
num_cat=0
split_feature=4 4 4 0 2 4 2 0 2 4 2 1 1 1 4 0 0 0 1 0 4 1 1 0 4 1 4 1 0 4 2 0 3 4 1 3 0 0 1 1 0 4 3 1 1 4 0 1 2 1 4 1 4 3 1 0 1 1 1 1 1 4
split_gain=5570.18 373.172 216.701 96.1197 79.1645 64.6486 57.3457 36.7298 32.0721 21.9054 22.7617 14.6619 13.7416 13.0868 10.8129 10.8074 10.6847 10.2969 8.7591 8.13546 7.41967 7.32081 6.88313 7.85041 6.68602 6.04664 5.51831 5.36127 5.01395 4.46989 5.06901 4.4469 5.72163 4.30665 4.21079 4.20399 4.59235 3.97979 3.93665 5.28139 3.847 3.79859 3.70524 4.16406 3.5944 3.50053 3.44718 3.41879 3.34204 3.32692 3.30726 3.15127 10.8304 3.13763 6.89625 8.94559 3.78881 3.1215 3.32138 3.06879 5.00673 3.05987
threshold=9.5000000000000018 12.500000000000002 7.5000000000000009 1.0000000180025095e-35 1.0000000180025095e-35 15.500000000000002 1.0000000180025095e-35 1.0000000180025095e-35 1.0000000180025095e-35 5.5000000000000009 1.0000000180025095e-35 24.500000000000004 30.500000000000004 36.500000000000007 11.500000000000002 1.0000000180025095e-35 1.0000000180025095e-35 1.0000000180025095e-35 22.500000000000004 1.0000000180025095e-35 11.500000000000002 31.500000000000004 20.500000000000004 1.5000000000000002 14.500000000000002 26.500000000000004 8.5000000000000018 26.500000000000004 1.0000000180025095e-35 17.500000000000004 1.0000000180025095e-35 2.5000000000000004 1.5000000000000002 10.500000000000002 30.500000000000004 1.5000000000000002 2.5000000000000004 2.5000000000000004 26.500000000000004 22.500000000000004 1.0000000180025095e-35 11.500000000000002 1.0000000180025095e-35 22.500000000000004 29.500000000000004 8.5000000000000018 1.5000000000000002 29.500000000000004 1.0000000180025095e-35 27.500000000000004 8.5000000000000018 29.500000000000004 10.500000000000002 1.0000000180025095e-35 32.500000000000007 1.5000000000000002 45.500000000000007 23.500000000000004 19.500000000000004 35.500000000000007 32.500000000000007 18.500000000000004
decision_type=2 2 2 2 2 2 2 2 2 2 2 2 2 2 2 2 2 2 2 2 2 2 2 2 2 2 2 2 2 2 2 2 2 2 2 2 2 2 2 2 2 2 2 2 2 2 2 2 2 2 2 2 2 2 2 2 2 2 2 2 2 2
left_child=2 3 9 41 7 8 14 -4 19 -1 11 15 20 22 21 -11 -10 -6 -19 34 35 37 23 -9 27 -18 -20 -21 61 30 -30 32 -27 46 -3 36 38 -5 39 -8 -13 -2 43 -38 -16 -24 -14 -42 59 -40 -15 -45 -53 54 -23 -56 -57 58 -37 60 -43 -7
right_child=1 5 4 6 17 28 12 13 16 10 -12 40 33 50 44 -17 25 18 26 24 -22 53 45 -25 -26 31 -28 -29 29 -31 -32 -33 -34 -35 -36 57 42 -39 49 -41 47 48 -44 51 -46 -47 -48 -49 -50 -51 -52 52 -54 -55 55 56 -58 -59 -60 -61 -62 -63
leaf_value=-0.049197446737626029 -0.042959874800455704 0.047160488193052671 -0.048783951141712571 0.05865766901772166 -0.048337058574998766 0.024717083350796181 0.060205690009507533 0.12803597133171124 -0.002111962693951668 -0.050868683164469936 -0.045547199112605373 -0.049409826312795543 0.040043550872518298 -0.03266862430972587 0.064440501429377336 0.0021847369509301389 0.061494455881620683 -0.0047196866787883041 -0.038218797760538541 0.077472552649446663 0.041633974693828124 0.11066679662407615 0.008993636456870454 0.034827555713396928 0.084951597108870611 0.039434840966429074 -0.020095656346190965 0.064366596363655187 0.088634431217236978 0.092015263998414129 0.075105888099941676 0.037859099468148014 0.07843502185888751 0.012806161224779931 -0.030198801063027216 -0.00073594624753560737 0.055069964331469573 0.042861111462046027 0.15161422706511241 -0.0080073056071860785 -0.017691564578387838 0.029527762018269278 0.0017090448239111414 0.0031816276849639851 0.04835684179336866 0.024688493017980609 -0.013834771272917244 -0.03600607414103954 -0.029611532513105634 0.061770678673839431 0.0014722465737358409 0.21543733260187647 -0.052074598803251229 0.019831558108380505 0.19257789156319161 0.011596907583796884 0.10222893864803469 -0.0030536363323746714 0.037261731584953293 -0.051278225704170712 0.23056392482065152 0.098154985087667485
leaf_weight=2261.9218021873385 37.445935525000095 7.7941983789205533 23.772945433855057 56.651834540069103 58.170291069895029 4.958821950480341 7.8192724101245421 2.4135209470987311 9.0061317663639766 11.514753259718416 419.75810230523348 33.398435642942786 3.2484838627278796 13.471054472029209 110.90290552377701 57.700568277388811 114.20475505292416 43.963724302127957 90.161509349942207 164.72221307456493 61.58962395042181 3.2633918300271061 71.763351373374462 35.291306402534246 124.79086522758007 18.71150429546833 78.636988496407866 148.2686810195446 197.68720360100269 382.77534781396389 106.56576731801033 72.691237688064575 18.90671843290329 54.189343594014645 2.2717570122331381 9.5720160715281981 10.943467617034914 134.62303783744574 1.4608180262148369 4.4539683237671852 37.373456176370382 2.4628977682441464 16.604843813925982 10.780560154467818 50.580289427191019 70.358889728784561 34.477850751951337 80.080148562788963 6.9439736679196358 3.4971956573426723 14.983222287148237 0.74855891242623396 0.76503708958625793 41.232705606147647 0.79843692667782029 12.044659588485954 1.2752196844667203 25.424277001991868 14.406854391098021 0.89931914769113053 0.35424894466996182 1.9866756051778791
leaf_count=133465 2022 74 1388 378 3295 45 113 22 285 686 23983 1909 79 583 494 2062 580 1813 4812 671 635 38 1801 515 500 131 3301 662 792 1539 435 573 123 1240 62 185 159 1073 24 95 1738 81 399 258 321 1262 1205 4209 307 77 444 23 20 668 9 186 22 665 304 37 11 10
internal_value=0 0.0619874 -0.0416351 0.0328095 -0.0113374 0.0772508 0.0377016 0.0100961 0.0663106 -0.0468869 -0.0387188 -0.0256942 0.0193197 0.0168166 0.0493187 -0.0066413 0.051288 -0.0296952 -0.0245985 0.0741439 0.0278207 0.0428022 0.021802 0.0407939 0.0751657 0.0534301 -0.0297759 0.0712641 0.0879923 0.0884196 0.083896 0.045081 0.0590361 0.00377569 0.0297015 0.0198307 0.0290741 0.0475397 0.0506408 0.0354511 -0.0344362 -0.0354633 0.0197468 0.0326361 0.0594027 0.0167635 -0.0091955 -0.0301784 -0.00913061 0.088242 -0.014691 0.0126669 0.0802252 0.0273425 0.0451599 0.0300182 0.0202738 0.00915212 0.0220936 0.0291367 0.0548075 0.0457231
internal_weight=0 2094.8 3404.73 719.461 502.987 1375.34 671.355 232.054 681.368 2901.75 639.825 220.067 259.982 208.281 411.372 69.2153 233.52 270.933 212.762 447.848 168.066 249.889 179.827 37.7048 437.782 224.514 168.798 312.991 693.974 687.028 304.253 110.309 37.6182 91.9157 10.066 106.477 57.0737 191.275 17.2313 12.2732 150.852 48.1064 39.8425 23.2376 161.483 142.122 37.7263 117.454 10.6604 4.95801 28.4543 12.2942 1.5136 58.6144 17.3817 14.1183 13.3199 49.4031 23.9789 3.71647 2.81715 6.9455
internal_count=204898 17610 187288 11128 19236 6482 8670 6015 3661 168052 34587 10604 5481 4627 3189 2748 1692 13221 9926 1969 2957 2374 3600 537 1833 1407 8113 1333 2821 2766 1227 827 254 2524 136 2322 1168 1451 309 208 7856 2458 859 460 815 3063 1284 5947 436 101 1027 301 43 923 255 217 208 1154 489 129 92 55
is_linear=0
shrinkage=0.05


Tree=14
num_leaves=63
num_cat=0
split_feature=4 4 4 0 2 2 0 4 4 4 2 4 2 1 0 1 0 1 1 1 1 4 1 4 1 0 4 2 0 1 1 0 1 2 1 0 1 1 4 1 3 0 1 0 3 3 4 0 1 1 1 0 1 1 1 4 1 1 1 3 0 1
split_gain=5091.45 352.154 215.506 104.113 73.628 68.191 33.9495 30.9441 23.2239 22.5852 22.893 21.3756 16.2112 14.2264 12.5281 11.7532 10.2873 9.28875 8.38014 8.35547 6.36856 5.88179 5.75257 5.43578 5.22565 5.51063 5.1445 5.69618 5.05458 4.57014 3.98569 3.88624 3.8367 3.8787 4.66764 3.68827 3.56706 3.50824 3.34651 3.33319 3.31906 3.2369 5.38925 4.86397 4.00544 5.93304 5.54408 3.11288 4.4754 3.05454 3.01651 3.74167 6.46508 3.00348 2.9624 2.90895 2.74095 2.64706 2.62773 2.78158 3.2275 2.60726
threshold=9.5000000000000018 13.500000000000002 7.5000000000000009 1.0000000180025095e-35 1.0000000180025095e-35 1.0000000180025095e-35 1.0000000180025095e-35 15.500000000000002 11.500000000000002 5.5000000000000009 1.0000000180025095e-35 11.500000000000002 1.0000000180025095e-35 29.500000000000004 1.0000000180025095e-35 27.500000000000004 1.0000000180025095e-35 36.500000000000007 22.500000000000004 23.500000000000004 35.500000000000007 11.500000000000002 21.500000000000004 8.5000000000000018 39.500000000000007 1.5000000000000002 17.500000000000004 1.0000000180025095e-35 1.5000000000000002 22.500000000000004 48.500000000000007 1.0000000180025095e-35 35.500000000000007 1.0000000180025095e-35 32.500000000000007 1.0000000180025095e-35 28.500000000000004 25.500000000000004 6.5000000000000009 28.500000000000004 1.0000000180025095e-35 2.5000000000000004 20.500000000000004 1.5000000000000002 1.5000000000000002 1.0000000180025095e-35 8.5000000000000018 2.5000000000000004 29.500000000000004 33.500000000000007 26.500000000000004 1.5000000000000002 20.500000000000004 42.500000000000007 23.500000000000004 14.500000000000002 20.500000000000004 43.500000000000007 25.500000000000004 1.0000000180025095e-35 1.5000000000000002 24.500000000000004
decision_type=2 2 2 2 2 2 2 2 2 2 2 2 2 2 2 2 2 2 2 2 2 2 2 2 2 2 2 2 2 2 2 2 2 2 2 2 2 2 2 2 2 2 2 2 2 2 2 2 2 2 2 2 2 2 2 2 2 2 2 2 2 2
left_child=2 3 9 21 6 8 -4 12 20 -1 13 17 31 14 -11 41 -6 28 -18 -10 54 -2 -13 -20 25 36 27 -9 -7 -14 47 61 33 34 -23 -31 -17 -30 50 -29 -41 42 -8 -44 45 46 -43 -21 -49 -38 51 52 -16 -24 -5 -33 -53 -37 59 -56 -61 -3
right_child=1 7 4 5 16 11 15 26 19 10 -12 22 29 -15 38 24 18 -19 23 30 -22 32 53 -25 -26 -27 -28 39 37 35 -32 55 -34 -35 -36 57 49 -39 -40 40 -42 44 43 -45 -46 -47 -48 48 -50 -51 -52 56 -54 -55 58 -57 -58 -59 -60 60 -62 -63
leaf_value=-0.049073520784754514 -0.042580764185571093 0.069126332085163375 -0.04864022659802239 0.049179288551075506 -0.048170736518231047 0.047032161065265532 0.068900930478833375 0.084275394350231014 0.070250552233450225 -0.048411128520088977 -0.045265906767131721 0.050770940300823311 0.066488344017005888 -0.038883460002462823 0.1951450017040206 0.16066707404821906 -0.0045043307948887381 -0.014850466203034705 -0.037704348594462096 0.063634028416783686 0.018951471885476155 0.019255380399207437 0.031763183551957862 -0.019469209289656248 -0.022163556775788389 0.0045687088096181177 0.08790952610940149 0.076739799713739107 0.021325729389601897 -0.0048334383904894531 -0.013759234944834282 0.070407731877896382 -0.051200940325968503 -0.016615898543352617 0.15547126731277766 0.051753572553729844 0.0094246298596287765 0.0050526187997406279 0.0035206410410699319 0.080316971689764302 0.049136080360790958 -0.0024155234465265854 -0.020674509766470311 0.03726424864320689 0.031435202327808845 -0.013481744100918734 0.050002557831152289 0.058855699423580057 0.041632165754531429 0.086604645340437034 -0.037683934969755986 -0.032395154962293497 -0.0070055497015330277 -0.0022574893912467348 0.046514724278756074 0.080767270507012948 -0.0012378938844692083 0.016866100403836841 0.041227486839265276 -0.060082435021187056 0.018552392827994854 0.0077469926593158088
